SNNS network definition file V1.4-3D
generated at Tue Oct 27 05:11:39 2015

network name : 90h
source files :
no. of units : 193
no. of connections : 9270
no. of unit types : 0
no. of site types : 0


learning function : Std_Backpropagation
update function   : Topological_Order


unit default section :

act      | bias     | st | subnet | layer | act func     | out func
---------|----------|----|--------|-------|--------------|-------------
 0.00000 |  0.00000 | h  |      0 |     1 | Act_Logistic | Out_Identity 
---------|----------|----|--------|-------|--------------|-------------


unit definition section :

no. | typeName | unitName | act      | bias     | st | position    | act func | out func | sites
----|----------|----------|----------|----------|----|-------------|----------|----------|-------
  1 |          | noName   |  0.00000 | -1.00000 | i  |   1,  1,  1 |||
  2 |          | noName   |  0.00000 | -0.99803 | i  |   2,  1,  1 |||
  3 |          | noName   |  0.00000 | -0.91674 | i  |   3,  1,  1 |||
  4 |          | noName   |  0.00000 | -0.64671 | i  |   4,  1,  1 |||
  5 |          | noName   |  0.00000 | -0.27080 | i  |   5,  1,  1 |||
  6 |          | noName   |  0.00000 | -0.81734 | i  |   6,  1,  1 |||
  7 |          | noName   |  0.00000 | -0.81540 | i  |   7,  1,  1 |||
  8 |          | noName   |  0.00000 | -0.02557 | i  |   8,  1,  1 |||
  9 |          | noName   |  0.00000 |  0.05350 | i  |   9,  1,  1 |||
 10 |          | noName   |  0.00000 | -0.09113 | i  |  10,  1,  1 |||
 11 |          | noName   |  0.00000 | -0.53364 | i  |  11,  1,  1 |||
 12 |          | noName   |  0.00000 |  0.66258 | i  |  12,  1,  1 |||
 13 |          | noName   |  0.00000 |  0.86346 | i  |  13,  1,  1 |||
 14 |          | noName   |  0.00000 |  0.13612 | i  |  14,  1,  1 |||
 15 |          | noName   |  0.00000 |  0.11219 | i  |  15,  1,  1 |||
 16 |          | noName   |  0.00000 | -0.89834 | i  |  16,  1,  1 |||
 17 |          | noName   |  0.00000 |  0.53410 | i  |  17,  1,  1 |||
 18 |          | noName   |  0.00000 | -0.96217 | i  |  18,  1,  1 |||
 19 |          | noName   |  0.00000 | -0.49528 | i  |  19,  1,  1 |||
 20 |          | noName   |  0.00000 | -0.40361 | i  |  20,  1,  1 |||
 21 |          | noName   |  0.00000 |  0.75196 | i  |  21,  1,  1 |||
 22 |          | noName   |  0.00000 |  0.06311 | i  |  22,  1,  1 |||
 23 |          | noName   |  0.00000 |  0.84052 | i  |  23,  1,  1 |||
 24 |          | noName   |  0.00000 |  0.03086 | i  |  24,  1,  1 |||
 25 |          | noName   |  0.00000 |  0.62086 | i  |  25,  1,  1 |||
 26 |          | noName   |  0.00000 | -0.62316 | i  |  26,  1,  1 |||
 27 |          | noName   |  0.00000 |  0.77263 | i  |  27,  1,  1 |||
 28 |          | noName   |  0.00000 |  0.14123 | i  |  28,  1,  1 |||
 29 |          | noName   |  0.00000 | -0.84645 | i  |  29,  1,  1 |||
 30 |          | noName   |  0.00000 |  0.63055 | i  |  30,  1,  1 |||
 31 |          | noName   |  0.00000 |  0.96978 | i  |  31,  1,  1 |||
 32 |          | noName   |  0.00000 | -0.76330 | i  |  32,  1,  1 |||
 33 |          | noName   |  0.00000 |  0.78781 | i  |  33,  1,  1 |||
 34 |          | noName   |  0.00000 |  0.56897 | i  |  34,  1,  1 |||
 35 |          | noName   |  0.00000 | -0.79817 | i  |  35,  1,  1 |||
 36 |          | noName   |  0.00000 | -0.49338 | i  |  36,  1,  1 |||
 37 |          | noName   |  0.00000 | -0.96032 | i  |  37,  1,  1 |||
 38 |          | noName   |  0.00000 | -0.24325 | i  |  38,  1,  1 |||
 39 |          | noName   |  0.00000 |  0.35775 | i  |  39,  1,  1 |||
 40 |          | noName   |  0.00000 |  0.36185 | i  |  40,  1,  1 |||
 41 |          | noName   |  0.00000 |  0.50541 | i  |  41,  1,  1 |||
 42 |          | noName   |  0.00000 | -0.98754 | i  |  42,  1,  1 |||
 43 |          | noName   |  0.00000 |  0.24881 | i  |  43,  1,  1 |||
 44 |          | noName   |  0.00000 | -0.74708 | i  |  44,  1,  1 |||
 45 |          | noName   |  0.00000 |  0.23510 | i  |  45,  1,  1 |||
 46 |          | noName   |  0.00000 |  0.54186 | i  |  46,  1,  1 |||
 47 |          | noName   |  0.00000 | -0.62693 | i  |  47,  1,  1 |||
 48 |          | noName   |  0.00000 | -0.00656 | i  |  48,  1,  1 |||
 49 |          | noName   |  0.00000 |  0.01900 | i  |  49,  1,  1 |||
 50 |          | noName   |  0.00000 | -0.36812 | i  |  50,  1,  1 |||
 51 |          | noName   |  0.00000 |  0.40341 | i  |  51,  1,  1 |||
 52 |          | noName   |  0.00000 | -0.26551 | i  |  52,  1,  1 |||
 53 |          | noName   |  0.00000 |  0.75262 | i  |  53,  1,  1 |||
 54 |          | noName   |  0.00000 | -0.25801 | i  |  54,  1,  1 |||
 55 |          | noName   |  0.00000 |  0.05050 | i  |  55,  1,  1 |||
 56 |          | noName   |  0.00000 | -0.14433 | i  |  56,  1,  1 |||
 57 |          | noName   |  0.00000 |  0.08549 | i  |  57,  1,  1 |||
 58 |          | noName   |  0.00000 |  0.33596 | i  |  58,  1,  1 |||
 59 |          | noName   |  0.00000 | -0.65772 | i  |  59,  1,  1 |||
 60 |          | noName   |  0.00000 |  0.66156 | i  |  60,  1,  1 |||
 61 |          | noName   |  0.00000 |  0.72381 | i  |  61,  1,  1 |||
 62 |          | noName   |  0.00000 |  0.53844 | i  |  62,  1,  1 |||
 63 |          | noName   |  0.00000 | -0.89484 | i  |  63,  1,  1 |||
 64 |          | noName   |  0.00000 |  0.93346 | i  |  64,  1,  1 |||
 65 |          | noName   |  0.00000 | -0.33143 | i  |  65,  1,  1 |||
 66 |          | noName   |  0.00000 | -0.83581 | i  |  66,  1,  1 |||
 67 |          | noName   |  0.00000 | -0.45937 | i  |  67,  1,  1 |||
 68 |          | noName   |  0.00000 | -0.85148 | i  |  68,  1,  1 |||
 69 |          | noName   |  0.00000 |  0.35245 | i  |  69,  1,  1 |||
 70 |          | noName   |  0.00000 |  0.62032 | i  |  70,  1,  1 |||
 71 |          | noName   |  0.00000 | -0.07158 | i  |  71,  1,  1 |||
 72 |          | noName   |  0.00000 |  0.13837 | i  |  72,  1,  1 |||
 73 |          | noName   |  0.00000 |  0.02441 | i  |  73,  1,  1 |||
 74 |          | noName   |  0.00000 |  0.17302 | i  |  74,  1,  1 |||
 75 |          | noName   |  0.00000 |  0.47752 | i  |  75,  1,  1 |||
 76 |          | noName   |  0.00000 |  0.74338 | i  |  76,  1,  1 |||
 77 |          | noName   |  0.00000 |  0.15593 | i  |  77,  1,  1 |||
 78 |          | noName   |  0.00000 |  0.92941 | i  |  78,  1,  1 |||
 79 |          | noName   |  0.00000 | -0.33294 | i  |  79,  1,  1 |||
 80 |          | noName   |  0.00000 | -0.21434 | i  |  80,  1,  1 |||
 81 |          | noName   |  0.00000 | -0.64614 | i  |  81,  1,  1 |||
 82 |          | noName   |  0.00000 | -0.77626 | i  |  82,  1,  1 |||
 83 |          | noName   |  0.00000 |  0.70536 | i  |  83,  1,  1 |||
 84 |          | noName   |  0.00000 |  0.62234 | i  |  84,  1,  1 |||
 85 |          | noName   |  0.00000 |  0.90977 | i  |  85,  1,  1 |||
 86 |          | noName   |  0.00000 |  0.80857 | i  |  86,  1,  1 |||
 87 |          | noName   |  0.00000 | -0.72217 | i  |  87,  1,  1 |||
 88 |          | noName   |  0.00000 |  0.37237 | i  |  88,  1,  1 |||
 89 |          | noName   |  0.00000 | -0.74603 | i  |  89,  1,  1 |||
 90 |          | noName   |  0.00000 | -0.99182 | i  |  90,  1,  1 |||
 91 |          | noName   |  0.00000 | -0.99899 | i  |  91,  1,  1 |||
 92 |          | noName   |  0.00000 | -0.61410 | i  |  92,  1,  1 |||
 93 |          | noName   |  0.00000 |  0.17356 | i  |  93,  1,  1 |||
 94 |          | noName   |  0.00000 | -0.25008 | i  |  94,  1,  1 |||
 95 |          | noName   |  0.00000 | -0.94643 | i  |  95,  1,  1 |||
 96 |          | noName   |  0.00000 | -0.07047 | i  |  96,  1,  1 |||
 97 |          | noName   |  0.00000 |  0.57069 | i  |  97,  1,  1 |||
 98 |          | noName   |  0.00000 | -0.11553 | i  |  98,  1,  1 |||
 99 |          | noName   |  0.00000 | -0.42419 | i  |  99,  1,  1 |||
100 |          | noName   |  0.00000 |  0.70671 | i  | 100,  1,  1 |||
101 |          | noName   |  0.00000 |  0.05194 | h  |   1,  2,  2 |||
102 |          | noName   |  0.00000 | -0.63821 | h  |   2,  2,  2 |||
103 |          | noName   |  0.00000 | -0.88776 | h  |   3,  2,  2 |||
104 |          | noName   |  0.00000 | -0.82151 | h  |   4,  2,  2 |||
105 |          | noName   |  0.00000 |  0.32511 | h  |   5,  2,  2 |||
106 |          | noName   |  0.00000 | -0.18858 | h  |   6,  2,  2 |||
107 |          | noName   |  0.00000 |  0.36637 | h  |   7,  2,  2 |||
108 |          | noName   |  0.00000 | -0.83603 | h  |   8,  2,  2 |||
109 |          | noName   |  0.00000 |  0.94933 | h  |   9,  2,  2 |||
110 |          | noName   |  0.00000 | -0.62678 | h  |  10,  2,  2 |||
111 |          | noName   |  0.00000 |  0.45528 | h  |  11,  2,  2 |||
112 |          | noName   |  0.00000 | -0.43407 | h  |  12,  2,  2 |||
113 |          | noName   |  0.00000 | -0.57607 | h  |  13,  2,  2 |||
114 |          | noName   |  0.00000 |  0.47367 | h  |  14,  2,  2 |||
115 |          | noName   |  0.00000 | -0.41508 | h  |  15,  2,  2 |||
116 |          | noName   |  0.00000 |  0.95247 | h  |  16,  2,  2 |||
117 |          | noName   |  0.00000 | -0.75950 | h  |  17,  2,  2 |||
118 |          | noName   |  0.00000 |  0.37372 | h  |  18,  2,  2 |||
119 |          | noName   |  0.00000 |  0.37245 | h  |  19,  2,  2 |||
120 |          | noName   |  0.00000 | -0.41941 | h  |  20,  2,  2 |||
121 |          | noName   |  0.00000 | -0.70977 | h  |  21,  2,  2 |||
122 |          | noName   |  0.00000 |  0.60423 | h  |  22,  2,  2 |||
123 |          | noName   |  0.00000 |  0.98550 | h  |  23,  2,  2 |||
124 |          | noName   |  0.00000 | -0.26818 | h  |  24,  2,  2 |||
125 |          | noName   |  0.00000 |  0.32784 | h  |  25,  2,  2 |||
126 |          | noName   |  0.00000 |  0.86912 | h  |  26,  2,  2 |||
127 |          | noName   |  0.00000 | -0.00063 | h  |  27,  2,  2 |||
128 |          | noName   |  0.00000 | -0.48460 | h  |  28,  2,  2 |||
129 |          | noName   |  0.00000 | -0.54248 | h  |  29,  2,  2 |||
130 |          | noName   |  0.00000 |  0.51641 | h  |  30,  2,  2 |||
131 |          | noName   |  0.00000 |  0.10629 | h  |  31,  2,  2 |||
132 |          | noName   |  0.00000 | -0.96441 | h  |  32,  2,  2 |||
133 |          | noName   |  0.00000 | -0.38074 | h  |  33,  2,  2 |||
134 |          | noName   |  0.00000 | -0.18039 | h  |  34,  2,  2 |||
135 |          | noName   |  0.00000 |  0.24750 | h  |  35,  2,  2 |||
136 |          | noName   |  0.00000 |  0.70228 | h  |  36,  2,  2 |||
137 |          | noName   |  0.00000 |  0.48302 | h  |  37,  2,  2 |||
138 |          | noName   |  0.00000 |  0.82248 | h  |  38,  2,  2 |||
139 |          | noName   |  0.00000 | -0.28233 | h  |  39,  2,  2 |||
140 |          | noName   |  0.00000 |  0.27573 | h  |  40,  2,  2 |||
141 |          | noName   |  0.00000 | -0.36145 | h  |  41,  2,  2 |||
142 |          | noName   |  0.00000 | -0.14941 | h  |  42,  2,  2 |||
143 |          | noName   |  0.00000 | -0.22491 | h  |  43,  2,  2 |||
144 |          | noName   |  0.00000 |  0.96157 | h  |  44,  2,  2 |||
145 |          | noName   |  0.00000 |  0.41533 | h  |  45,  2,  2 |||
146 |          | noName   |  0.00000 |  0.60982 | h  |  46,  2,  2 |||
147 |          | noName   |  0.00000 | -0.72613 | h  |  47,  2,  2 |||
148 |          | noName   |  0.00000 |  0.90567 | h  |  48,  2,  2 |||
149 |          | noName   |  0.00000 | -0.22142 | h  |  49,  2,  2 |||
150 |          | noName   |  0.00000 | -0.64168 | h  |  50,  2,  2 |||
151 |          | noName   |  0.00000 |  0.84207 | h  |  51,  2,  2 |||
152 |          | noName   |  0.00000 | -0.92247 | h  |  52,  2,  2 |||
153 |          | noName   |  0.00000 |  0.50095 | h  |  53,  2,  2 |||
154 |          | noName   |  0.00000 | -0.60625 | h  |  54,  2,  2 |||
155 |          | noName   |  0.00000 |  0.71798 | h  |  55,  2,  2 |||
156 |          | noName   |  0.00000 | -0.51897 | h  |  56,  2,  2 |||
157 |          | noName   |  0.00000 | -0.03395 | h  |  57,  2,  2 |||
158 |          | noName   |  0.00000 | -0.86192 | h  |  58,  2,  2 |||
159 |          | noName   |  0.00000 |  0.11505 | h  |  59,  2,  2 |||
160 |          | noName   |  0.00000 |  0.50443 | h  |  60,  2,  2 |||
161 |          | noName   |  0.00000 | -0.44046 | h  |  61,  2,  2 |||
162 |          | noName   |  0.00000 | -0.32104 | h  |  62,  2,  2 |||
163 |          | noName   |  0.00000 | -0.96870 | h  |  63,  2,  2 |||
164 |          | noName   |  0.00000 | -0.96575 | h  |  64,  2,  2 |||
165 |          | noName   |  0.00000 |  0.46944 | h  |  65,  2,  2 |||
166 |          | noName   |  0.00000 |  0.64882 | h  |  66,  2,  2 |||
167 |          | noName   |  0.00000 | -0.09588 | h  |  67,  2,  2 |||
168 |          | noName   |  0.00000 |  0.63441 | h  |  68,  2,  2 |||
169 |          | noName   |  0.00000 | -0.04824 | h  |  69,  2,  2 |||
170 |          | noName   |  0.00000 |  0.85393 | h  |  70,  2,  2 |||
171 |          | noName   |  0.00000 | -0.88435 | h  |  71,  2,  2 |||
172 |          | noName   |  0.00000 | -0.03729 | h  |  72,  2,  2 |||
173 |          | noName   |  0.00000 |  0.60681 | h  |  73,  2,  2 |||
174 |          | noName   |  0.00000 | -0.17263 | h  |  74,  2,  2 |||
175 |          | noName   |  0.00000 | -0.20772 | h  |  75,  2,  2 |||
176 |          | noName   |  0.00000 | -0.10190 | h  |  76,  2,  2 |||
177 |          | noName   |  0.00000 |  0.12012 | h  |  77,  2,  2 |||
178 |          | noName   |  0.00000 | -0.65206 | h  |  78,  2,  2 |||
179 |          | noName   |  0.00000 |  0.85670 | h  |  79,  2,  2 |||
180 |          | noName   |  0.00000 |  0.22542 | h  |  80,  2,  2 |||
181 |          | noName   |  0.00000 | -0.80160 | h  |  81,  2,  2 |||
182 |          | noName   |  0.00000 |  0.47631 | h  |  82,  2,  2 |||
183 |          | noName   |  0.00000 | -0.84121 | h  |  83,  2,  2 |||
184 |          | noName   |  0.00000 |  0.72071 | h  |  84,  2,  2 |||
185 |          | noName   |  0.00000 | -0.69727 | h  |  85,  2,  2 |||
186 |          | noName   |  0.00000 |  0.49756 | h  |  86,  2,  2 |||
187 |          | noName   |  0.00000 | -0.46106 | h  |  87,  2,  2 |||
188 |          | noName   |  0.00000 |  0.05191 | h  |  88,  2,  2 |||
189 |          | noName   |  0.00000 | -0.74079 | h  |  89,  2,  2 |||
190 |          | noName   |  0.00000 |  0.67360 | h  |  90,  2,  2 |||
191 |          | noName   |  0.00000 | -0.29843 | o  |   1,  3,  3 |||
192 |          | noName   |  0.00000 | -0.88438 | o  |   2,  3,  3 |||
193 |          | noName   |  0.00000 |  0.80826 | o  |   3,  3,  3 |||
----|----------|----------|----------|----------|----|-------------|----------|----------|-------


connection definition section :

target | site | source:weight
-------|------|----------------------------------------------------------------------------------------------------------------
   101 |      | 100: 0.45683,  99:-0.46737,  98: 0.56697,  97:-0.06391,  96:-0.60601,  95:-0.10565,  94: 0.45688,  93: 0.93219,
                 92: 0.51368,  91:-0.06789,  90: 0.73793,  89:-0.73192,  88: 0.69211,  87:-0.96382,  86: 0.88171,  85: 0.34016,
                 84: 0.59994,  83:-0.71357,  82: 0.22092,  81: 0.81657,  80: 0.54883,  79:-0.26787,  78: 0.88858,  77: 0.76964,
                 76:-0.10966,  75:-0.67394,  74:-0.15037,  73:-0.04029,  72:-0.93774,  71: 0.21686,  70: 0.58452,  69:-0.63501,
                 68: 0.05024,  67: 0.79752,  66:-0.38242,  65: 0.88525,  64:-0.22395,  63: 0.86102,  62: 0.82277,  61:-0.32456,
                 60: 0.06562,  59: 0.40415,  58: 0.94202,  57: 0.53617,  56: 0.50388,  55:-0.81827,  54: 0.70793,  53:-0.65071,
                 52:-0.96046,  51:-0.16189,  50:-0.40726,  49:-0.24354,  48:-0.16257,  47:-0.72310,  46:-0.23831,  45:-0.40044,
                 44:-0.95798,  43:-0.52239,  42:-0.92578,  41:-0.55788,  40: 0.05087,  39:-0.01095,  38: 0.76504,  37: 0.54766,
                 36:-0.88200,  35:-0.76040,  34: 0.09560,  33:-0.31617,  32:-0.08638,  31: 0.17624,  30: 0.17030,  29:-0.86015,
                 28: 0.63786,  27:-0.19368,  26: 0.17097,  25:-0.61768,  24: 0.78455,  23:-0.64734,  22:-0.58459,  21:-0.76850,
                 20:-0.68217,  19: 0.98529,  18: 0.36314,  17: 0.62359,  16: 0.28443,  15:-0.34132,  14: 0.47511,  13: 0.64697,
                 12: 0.44252,  11: 0.31596,  10:-0.28245,   9: 0.22073,   8:-0.16999,   7: 0.62991,   6: 0.54793,   5:-0.45138,
                  4:-0.91052,   3: 0.20208,   2: 0.02818,   1: 0.26043
   102 |      | 100:-0.44300,  99:-0.09502,  98: 0.28597,  97: 0.48566,  96:-0.17269,  95: 0.23610,  94: 0.23658,  93: 0.70887,
                 92:-0.63709,  91:-0.38414,  90:-0.95334,  89:-0.98164,  88: 0.90291,  87: 0.98151,  86:-0.59012,  85: 0.20819,
                 84: 0.87130,  83: 0.11913,  82: 0.09373,  81:-0.12174,  80:-0.10050,  79:-0.38639,  78:-0.59837,  77:-0.56840,
                 76:-0.90021,  75:-0.58088,  74: 0.14913,  73: 0.82964,  72:-0.16878,  71: 0.30832,  70:-0.28860,  69: 0.17340,
                 68:-0.21611,  67:-0.93230,  66:-0.42897,  65:-0.81679,  64:-0.11123,  63: 0.85187,  62: 0.84257,  61: 0.21186,
                 60: 0.72229,  59:-0.97057,  58: 0.37340,  57: 0.68914,  56:-0.74071,  55:-0.88069,  54:-0.97386,  53:-0.21768,
                 52: 0.73135,  51:-0.96989,  50: 0.84858,  49: 0.77344,  48: 0.32414,  47: 0.30982,  46:-0.84732,  45:-0.81405,
                 44:-0.99350,  43: 0.05334,  42: 0.57951,  41: 0.30804,  40: 0.09179,  39: 0.59678,  38: 0.45351,  37:-0.49337,
                 36:-0.48951,  35:-0.72329,  34:-0.03410,  33:-0.06483,  32:-0.79825,  31: 0.00843,  30: 0.71679,  29:-0.97990,
                 28: 0.64314,  27: 0.92864,  26:-0.96108,  25: 0.85924,  24:-0.87384,  23:-0.92408,  22:-0.61949,  21:-0.44667,
                 20:-0.10537,  19: 0.29876,  18:-0.69775,  17:-0.02569,  16: 0.29932,  15: 0.06856,  14:-0.28640,  13:-0.21177,
                 12: 0.44398,  11: 0.44940,  10:-0.38772,   9:-0.78684,   8: 0.82156,   7: 0.48183,   6:-0.52188,   5: 0.30269,
                  4:-0.26318,   3:-0.94764,   2: 0.69852,   1:-0.91637
   103 |      | 100:-0.14792,  99:-0.04053,  98: 0.00339,  97: 0.96105,  96: 0.21501,  95: 0.82531,  94: 0.50083,  93: 0.42763,
                 92: 0.94226,  91:-0.94158,  90:-0.47142,  89:-0.96338,  88:-0.83865,  87:-0.69073,  86:-0.77130,  85: 0.51308,
                 84: 0.87650,  83:-0.74239,  82: 0.18522,  81:-0.75495,  80: 0.19836,  79:-0.86825,  78:-0.48795,  77:-0.17510,
                 76: 0.89677,  75:-0.29301,  74:-0.96601,  73: 0.94685,  72: 0.52472,  71: 0.72395,  70:-0.18974,  69: 0.73573,
                 68:-0.92648,  67:-0.58304,  66:-0.15333,  65: 0.96965,  64: 0.12871,  63: 0.15252,  62:-0.06355,  61:-0.07168,
                 60: 0.52224,  59:-0.39583,  58:-0.16549,  57:-0.80295,  56:-0.72631,  55: 0.39628,  54:-0.63910,  53: 0.78615,
                 52: 0.46176,  51:-0.39543,  50:-0.71756,  49: 0.64820,  48:-0.11559,  47: 0.18022,  46: 0.95524,  45: 0.00538,
                 44: 0.79532,  43: 0.44962,  42:-0.47744,  41:-0.08993,  40:-0.47608,  39: 0.92098,  38:-0.96614,  37: 0.88088,
                 36: 0.80392,  35:-0.80426,  34: 0.04225,  33:-0.83060,  32: 0.59080,  31: 0.73782,  30:-0.80844,  29: 0.76054,
                 28:-0.98799,  27:-0.59598,  26:-0.05472,  25: 0.28846,  24: 0.86794,  23:-0.80315,  22: 0.14180,  21: 0.01517,
                 20: 0.31887,  19: 0.78583,  18: 0.47151,  17: 0.37850,  16: 0.61868,  15:-0.51918,  14: 0.52703,  13: 0.53746,
                 12: 0.08472,  11:-0.03790,  10:-0.17124,   9:-0.85286,   8: 0.05340,   7: 0.01525,   6: 0.50320,   5:-0.73781,
                  4:-0.98125,   3: 0.52795,   2:-0.79761,   1: 0.93058
   104 |      | 100:-0.76816,  99: 0.79255,  98: 0.49049,  97:-0.56294,  96: 0.17092,  95:-0.51841,  94: 0.76892,  93:-0.20781,
                 92:-0.88699,  91: 0.85443,  90:-0.09516,  89: 0.74156,  88:-0.53954,  87:-0.02208,  86: 0.14251,  85: 0.70578,
                 84:-0.56327,  83: 0.84102,  82:-0.92275,  81:-0.18322,  80:-0.89236,  79:-0.78968,  78: 0.05956,  77: 0.14591,
                 76:-0.77101,  75:-0.91486,  74: 0.00180,  73: 0.44950,  72:-0.01154,  71:-0.30783,  70:-0.92985,  69:-0.26699,
                 68: 0.83120,  67: 0.00986,  66: 0.72354,  65: 0.84708,  64:-0.96931,  63:-0.42008,  62:-0.52128,  61: 0.43292,
                 60:-0.79685,  59: 0.55476,  58:-0.51068,  57:-0.13667,  56: 0.18320,  55: 0.02903,  54: 0.53727,  53: 0.44317,
                 52: 0.60716,  51: 0.48104,  50: 0.01236,  49: 0.63663,  48:-0.88147,  47: 0.15174,  46: 0.72350,  45: 0.10235,
                 44: 0.65731,  43:-0.75188,  42: 0.42035,  41:-0.99686,  40:-0.93641,  39:-0.41731,  38: 0.34287,  37:-0.39953,
                 36:-0.13233,  35:-0.45341,  34:-0.75142,  33:-0.73134,  32:-0.79011,  31:-0.16793,  30: 0.64117,  29:-0.47976,
                 28:-0.70334,  27:-0.97224,  26:-0.55746,  25:-0.29417,  24: 0.52386,  23:-0.15759,  22: 0.37338,  21: 0.05338,
                 20:-0.34024,  19:-0.71271,  18:-0.24928,  17: 0.48933,  16: 0.45977,  15: 0.46391,  14:-0.65248,  13: 0.11339,
                 12: 0.37103,  11: 0.74091,  10: 0.11679,   9:-0.31052,   8: 0.07130,   7: 0.92453,   6: 0.84634,   5: 0.50543,
                  4: 0.37392,   3:-0.32767,   2:-0.27853,   1: 0.41582
   105 |      | 100:-0.20510,  99:-0.97252,  98:-0.18410,  97: 0.33502,  96:-0.56111,  95:-0.82237,  94: 0.23514,  93:-0.96164,
                 92:-0.56552,  91:-0.58789,  90:-0.25103,  89:-0.20035,  88:-0.41210,  87: 0.04856,  86: 0.58430,  85:-0.20580,
                 84: 0.45412,  83: 0.39456,  82: 0.26397,  81:-0.75392,  80: 0.46672,  79:-0.66259,  78:-0.94378,  77:-0.56702,
                 76:-0.65840,  75:-0.65983,  74: 0.05729,  73:-0.37421,  72: 0.80231,  71:-0.11256,  70:-0.84169,  69:-0.72602,
                 68: 0.07058,  67: 0.28567,  66: 0.68417,  65: 0.93951,  64:-0.31918,  63:-0.26458,  62: 0.42574,  61:-0.90871,
                 60:-0.75045,  59:-0.48342,  58: 0.93037,  57: 0.67498,  56: 0.37570,  55: 0.37740,  54: 0.61755,  53: 0.04922,
                 52: 0.16635,  51: 0.36784,  50:-0.07949,  49: 0.51951,  48:-0.44743,  47:-0.36614,  46:-0.86807,  45:-0.70319,
                 44:-0.05476,  43:-0.52083,  42: 0.88955,  41:-0.33884,  40:-0.47811,  39:-0.65730,  38: 0.74775,  37: 0.72763,
                 36:-0.04305,  35:-0.56648,  34: 0.54554,  33:-0.79459,  32:-0.58452,  31:-0.53801,  30:-0.66765,  29:-0.46996,
                 28: 0.60899,  27:-0.78300,  26:-0.48349,  25: 0.75912,  24:-0.56960,  23: 0.33016,  22: 0.25167,  21: 0.58505,
                 20:-0.30810,  19: 0.26085,  18:-0.49897,  17:-0.92805,  16: 0.61399,  15:-0.18983,  14:-0.12319,  13: 0.51269,
                 12: 0.56868,  11:-0.03933,  10: 0.43180,   9:-0.22460,   8:-0.94366,   7:-0.16501,   6: 0.80161,   5: 0.22471,
                  4: 0.66833,   3: 0.51564,   2: 0.21317,   1: 0.72288
   106 |      | 100:-0.52474,  99: 0.16961,  98:-0.78951,  97:-0.01908,  96: 0.69002,  95: 0.40825,  94:-0.79070,  93: 0.38599,
                 92:-0.93381,  91:-0.14621,  90: 0.46459,  89:-0.44974,  88:-0.32852,  87:-0.37196,  86:-0.56322,  85: 0.21510,
                 84: 0.15897,  83:-0.85883,  82:-0.04132,  81:-0.67824,  80:-0.41417,  79: 0.31461,  78: 0.99332,  77:-0.81407,
                 76:-0.89675,  75:-0.95510,  74: 0.86706,  73:-0.87341,  72: 0.42461,  71: 0.11221,  70:-0.17570,  69: 0.97648,
                 68:-0.07928,  67: 0.39953,  66: 0.37427,  65: 0.07005,  64: 0.15205,  63: 0.08465,  62: 0.20192,  61:-0.25649,
                 60: 0.79558,  59:-0.50888,  58:-0.17522,  57: 0.14039,  56:-0.41987,  55: 0.66423,  54:-0.46426,  53:-0.47612,
                 52:-0.01336,  51:-0.86810,  50:-0.78092,  49:-0.53400,  48: 0.23506,  47: 0.40715,  46:-0.48227,  45: 0.60638,
                 44:-0.74363,  43:-0.19017,  42: 0.61689,  41:-0.67747,  40:-0.11394,  39: 0.38191,  38:-0.94181,  37: 0.08584,
                 36: 0.01612,  35: 0.82675,  34:-0.12238,  33: 0.72794,  32: 0.66672,  31: 0.33200,  30: 0.74434,  29: 0.82913,
                 28:-0.69767,  27:-0.81547,  26: 0.34962,  25:-0.73776,  24: 0.79188,  23:-0.36899,  22:-0.85884,  21: 0.16284,
                 20:-0.57238,  19: 0.38657,  18:-0.38600,  17: 0.61000,  16: 0.75747,  15: 0.48770,  14: 0.15455,  13: 0.73455,
                 12: 0.69094,  11: 0.29311,  10:-0.80455,   9: 0.24760,   8: 0.60799,   7: 0.86052,   6:-0.11023,   5:-0.79477,
                  4: 0.88527,   3: 0.70167,   2:-0.72829,   1: 0.68351
   107 |      | 100: 0.10573,  99: 0.96334,  98:-0.30245,  97: 0.50671,  96:-0.58021,  95:-0.15536,  94: 0.70862,  93:-0.95718,
                 92:-0.49018,  91: 0.06474,  90: 0.25501,  89: 0.54772,  88: 0.25546,  87: 0.58054,  86:-0.77493,  85: 0.77439,
                 84: 0.54689,  83: 0.71449,  82:-0.04053,  81: 0.54811,  80:-0.42879,  79:-0.41655,  78:-0.60412,  77:-0.40599,
                 76:-0.04692,  75:-0.37204,  74:-0.19038,  73: 0.18095,  72:-0.16871,  71: 0.73462,  70:-0.90613,  69:-0.91238,
                 68: 0.52509,  67:-0.13001,  66:-0.01939,  65: 0.06661,  64: 0.91670,  63:-0.08700,  62: 0.92736,  61:-0.22969,
                 60:-0.07373,  59:-0.92708,  58:-0.33485,  57: 0.73652,  56: 0.89137,  55: 0.40553,  54:-0.51870,  53:-0.60300,
                 52: 0.72382,  51: 0.39126,  50:-0.66127,  49: 0.70950,  48:-0.62665,  47:-0.87719,  46: 0.83645,  45:-0.37929,
                 44:-0.61808,  43:-0.42098,  42: 0.99712,  41:-0.50320,  40: 0.69797,  39:-0.14516,  38:-0.08450,  37: 0.42098,
                 36: 0.00065,  35:-0.39878,  34:-0.31858,  33:-0.98200,  32: 0.65596,  31:-0.26684,  30: 0.75380,  29:-0.45260,
                 28: 0.21713,  27: 0.52874,  26:-0.56361,  25:-0.61118,  24:-0.25276,  23: 0.30979,  22:-0.59620,  21:-0.14206,
                 20:-0.12501,  19:-0.88361,  18: 0.74012,  17: 0.33220,  16:-0.38769,  15:-0.77981,  14: 0.85599,  13: 0.87909,
                 12:-0.17997,  11:-0.57321,  10: 0.39822,   9:-0.43171,   8:-0.41404,   7: 0.26638,   6: 0.09570,   5: 0.17454,
                  4: 0.49461,   3:-0.86210,   2: 0.91357,   1: 0.45445
   108 |      | 100: 0.93806,  99:-0.78640,  98:-0.81872,  97:-0.11995,  96:-0.23966,  95: 0.42211,  94: 0.87520,  93:-0.41843,
                 92: 0.88398,  91:-0.65062,  90:-0.94295,  89:-0.22403,  88: 0.89061,  87: 0.42858,  86:-0.07724,  85:-0.32691,
                 84: 0.65191,  83: 0.17177,  82: 0.78003,  81: 0.40726,  80: 0.83935,  79: 0.78036,  78: 0.26283,  77:-0.28430,
                 76:-0.86468,  75: 0.58439,  74: 0.25171,  73:-0.08606,  72: 0.49943,  71:-0.41418,  70: 0.24566,  69: 0.05532,
                 68: 0.59594,  67: 0.39581,  66:-0.52422,  65:-0.59382,  64: 0.15601,  63: 0.11313,  62: 0.80152,  61: 0.97165,
                 60:-0.12393,  59:-0.19655,  58:-0.97886,  57:-0.04401,  56: 0.09171,  55:-0.90146,  54:-0.04969,  53: 0.45933,
                 52:-0.52945,  51:-0.28514,  50: 0.92383,  49:-0.85072,  48:-0.69757,  47:-0.65224,  46: 0.35883,  45:-0.61401,
                 44: 0.49808,  43:-0.83384,  42: 0.94303,  41:-0.36367,  40: 0.41500,  39: 0.03202,  38: 0.79511,  37: 0.83315,
                 36:-0.70738,  35: 0.39632,  34: 0.65796,  33: 0.49555,  32: 0.98571,  31: 0.66025,  30: 0.55767,  29: 0.33467,
                 28: 0.33025,  27:-0.50270,  26:-0.72217,  25: 0.16523,  24:-0.24092,  23:-0.64852,  22: 0.99873,  21: 0.19760,
                 20: 0.51304,  19: 0.98379,  18: 0.23383,  17:-0.80060,  16:-0.82079,  15: 0.73663,  14: 0.11391,  13: 0.12397,
                 12:-0.54885,  11: 0.11273,  10: 0.63204,   9: 0.16889,   8: 0.47135,   7:-0.41361,   6: 0.83676,   5:-0.05267,
                  4:-0.68456,   3:-0.66842,   2: 0.46871,   1: 0.65526
   109 |      | 100:-0.90791,  99:-0.84482,  98: 0.45653,  97: 0.07750,  96: 0.84561,  95:-0.85653,  94:-0.52497,  93: 0.85474,
                 92:-0.38113,  91: 0.45786,  90: 0.99945,  89:-0.48965,  88:-0.03166,  87:-0.74595,  86: 0.02316,  85: 0.99678,
                 84: 0.70566,  83:-0.37788,  82:-0.15713,  81: 0.19242,  80:-0.34436,  79:-0.08476,  78:-0.06023,  77: 0.73705,
                 76: 0.10407,  75: 0.27077,  74:-0.88957,  73:-0.06130,  72:-0.57732,  71:-0.08250,  70:-0.81947,  69: 0.45132,
                 68: 0.72823,  67:-0.64594,  66: 0.52858,  65:-0.42230,  64:-0.29562,  63: 0.92505,  62:-0.98918,  61:-0.49907,
                 60:-0.46964,  59: 0.75380,  58:-0.81871,  57: 0.79876,  56:-0.35619,  55: 0.61096,  54: 0.44575,  53:-0.04083,
                 52:-0.47820,  51:-0.03975,  50: 0.00762,  49: 0.91403,  48: 0.27926,  47:-0.86394,  46: 0.22252,  45:-0.13655,
                 44:-0.57300,  43:-0.96163,  42:-0.12847,  41: 0.81069,  40: 0.14964,  39:-0.29888,  38:-0.48151,  37:-0.39797,
                 36: 0.78766,  35:-0.92141,  34: 0.69204,  33:-0.88673,  32: 0.44910,  31:-0.96370,  30:-0.68207,  29:-0.80566,
                 28:-0.27266,  27: 0.11822,  26: 0.34212,  25:-0.36740,  24: 0.03552,  23: 0.63924,  22: 0.58231,  21: 0.68688,
                 20: 0.04141,  19: 0.12318,  18:-0.19176,  17: 0.54687,  16: 0.83416,  15: 0.33290,  14:-0.80671,  13: 0.66209,
                 12:-0.20488,  11:-0.96430,  10:-0.55220,   9: 0.44228,   8:-0.52385,   7: 0.28650,   6:-0.98514,   5: 0.94551,
                  4:-0.80744,   3:-0.87774,   2: 0.09039,   1: 0.33444
   110 |      | 100: 0.02775,  99:-0.63981,  98: 0.99676,  97:-0.87819,  96: 0.89684,  95: 0.19902,  94: 0.09868,  93: 0.85364,
                 92:-0.82833,  91:-0.34911,  90:-0.81700,  89:-0.51336,  88: 0.74832,  87: 0.34104,  86: 0.35656,  85:-0.52923,
                 84: 0.60130,  83: 0.12079,  82: 0.15875,  81: 0.20287,  80: 0.06675,  79: 0.81391,  78: 0.79709,  77: 0.14449,
                 76: 0.65759,  75:-0.95660,  74:-0.08603,  73:-0.43260,  72: 0.14166,  71:-0.57058,  70:-0.84404,  69:-0.59302,
                 68: 0.53085,  67: 0.15131,  66: 0.70246,  65: 0.60051,  64: 0.39682,  63: 0.18045,  62:-0.36779,  61:-0.30171,
                 60: 0.49301,  59: 0.66836,  58:-0.97406,  57:-0.08278,  56:-0.37088,  55:-0.20233,  54:-0.60900,  53: 0.39332,
                 52:-0.12991,  51: 0.68917,  50:-0.87599,  49:-0.29897,  48: 0.83539,  47: 0.04929,  46: 0.98313,  45: 0.04089,
                 44: 0.72634,  43: 0.51814,  42: 0.00868,  41:-0.56670,  40:-0.06044,  39:-0.95477,  38:-0.99444,  37:-0.84344,
                 36: 0.11625,  35: 0.01911,  34:-0.01801,  33: 0.17439,  32:-0.72664,  31: 0.77744,  30:-0.86576,  29: 0.83504,
                 28: 0.45800,  27:-0.97092,  26: 0.78863,  25: 0.39750,  24: 0.01756,  23: 0.66194,  22: 0.77954,  21:-0.56586,
                 20: 0.09166,  19: 0.45358,  18: 0.08039,  17: 0.64383,  16:-0.02358,  15:-0.05683,  14:-0.95383,  13:-0.36891,
                 12: 0.40769,  11:-0.21149,  10:-0.29243,   9: 0.59777,   8: 0.03696,   7:-0.52011,   6:-0.57623,   5:-0.73653,
                  4: 0.06603,   3: 0.50260,   2: 0.50264,   1: 0.57343
   111 |      | 100:-0.34752,  99:-0.30920,  98:-0.45932,  97: 0.77341,  96:-0.03359,  95:-0.31562,  94:-0.14122,  93: 0.71582,
                 92:-0.08550,  91:-0.11634,  90:-0.55176,  89: 0.84623,  88:-0.57134,  87: 0.78605,  86: 0.88138,  85: 0.12570,
                 84: 0.85738,  83: 0.86449,  82:-0.53373,  81: 0.35862,  80:-0.08278,  79: 0.09927,  78: 0.73973,  77: 0.53427,
                 76:-0.43491,  75:-0.98456,  74:-0.91567,  73:-0.93997,  72:-0.11826,  71: 0.02540,  70: 0.28673,  69:-0.39035,
                 68:-0.49368,  67: 0.89344,  66:-0.98078,  65:-0.55587,  64:-0.10306,  63: 0.43921,  62:-0.34296,  61: 0.95695,
                 60:-0.75474,  59:-0.70078,  58: 0.52824,  57: 0.36028,  56: 0.80979,  55: 0.19508,  54:-0.10251,  53: 0.02935,
                 52:-0.15290,  51:-0.85464,  50: 0.75930,  49:-0.61865,  48: 0.34093,  47: 0.24382,  46:-0.81017,  45: 0.26148,
                 44:-0.98658,  43:-0.24722,  42: 0.69090,  41: 0.77632,  40:-0.65983,  39:-0.52148,  38:-0.95210,  37: 0.14558,
                 36: 0.70254,  35:-0.23854,  34: 0.88839,  33: 0.38337,  32: 0.64768,  31: 0.39081,  30: 0.82590,  29:-0.92543,
                 28: 0.27370,  27:-0.28970,  26: 0.03954,  25: 0.93893,  24: 0.82711,  23:-0.10571,  22:-0.10736,  21:-0.30800,
                 20:-0.96073,  19:-0.47709,  18: 0.03127,  17:-0.50951,  16:-0.08617,  15:-0.74016,  14:-0.09388,  13:-0.78258,
                 12: 0.51763,  11:-0.37004,  10:-0.80948,   9: 0.40559,   8: 0.76067,   7: 0.00763,   6: 0.76581,   5:-0.24308,
                  4:-0.35011,   3:-0.73437,   2: 0.23624,   1:-0.81318
   112 |      | 100:-0.18594,  99:-0.97507,  98:-0.03828,  97:-0.22307,  96:-0.40542,  95:-0.52409,  94:-0.18754,  93: 0.73246,
                 92: 0.01666,  91: 0.81247,  90:-0.43591,  89: 0.26890,  88: 0.75774,  87: 0.82836,  86:-0.35568,  85: 0.33392,
                 84: 0.13832,  83: 0.64496,  82: 0.29815,  81: 0.35758,  80: 0.66927,  79: 0.36669,  78:-0.92028,  77:-0.84659,
                 76:-0.99763,  75: 0.90062,  74:-0.49582,  73:-0.05743,  72:-0.54649,  71: 0.24823,  70: 0.07105,  69: 0.51204,
                 68: 0.47306,  67: 0.18327,  66: 0.31868,  65:-0.07436,  64: 0.78025,  63:-0.86473,  62: 0.39686,  61:-0.08100,
                 60: 0.63123,  59: 0.32137,  58: 0.76830,  57: 0.97321,  56: 0.03796,  55:-0.49101,  54:-0.85989,  53: 0.95215,
                 52: 0.28301,  51:-0.67264,  50:-0.68569,  49: 0.51505,  48:-0.72117,  47: 0.64018,  46:-0.78563,  45: 0.71708,
                 44: 0.09970,  43:-0.71488,  42: 0.43541,  41:-0.74186,  40: 0.17628,  39:-0.59551,  38: 0.97577,  37: 0.73497,
                 36:-0.60023,  35:-0.16146,  34: 0.68993,  33: 0.52775,  32: 0.85458,  31:-0.38411,  30: 0.96849,  29:-0.82621,
                 28:-0.39036,  27:-0.27842,  26:-0.63509,  25: 0.34350,  24: 0.38184,  23: 0.10131,  22:-0.32650,  21:-0.03556,
                 20:-0.22273,  19: 0.60052,  18: 0.29759,  17:-0.70362,  16:-0.03809,  15: 0.35027,  14:-0.23441,  13:-0.46722,
                 12: 0.16361,  11:-0.60858,  10: 0.74617,   9:-0.98656,   8: 0.41723,   7: 0.24753,   6:-0.16970,   5: 0.63062,
                  4: 0.89920,   3:-0.82889,   2:-0.70988,   1: 0.27998
   113 |      | 100:-0.86715,  99:-0.24731,  98:-0.93696,  97:-0.03078,  96: 0.81743,  95:-0.34360,  94: 0.73489,  93:-0.85796,
                 92:-0.76897,  91:-0.93802,  90: 0.98636,  89: 0.37756,  88:-0.40527,  87:-0.90375,  86:-0.53712,  85:-0.62222,
                 84:-0.64361,  83: 0.40062,  82:-0.10926,  81: 0.24154,  80:-0.95711,  79: 0.47858,  78:-0.22184,  77:-0.77829,
                 76: 0.72013,  75: 0.98402,  74:-0.61696,  73:-0.21884,  72: 0.73363,  71: 0.61914,  70: 0.02718,  69:-0.77457,
                 68:-0.34520,  67:-0.57340,  66: 0.45027,  65:-0.30737,  64: 0.72504,  63:-0.46908,  62:-0.66613,  61: 0.61136,
                 60: 0.11946,  59:-0.36764,  58: 0.01079,  57: 0.23348,  56:-0.12441,  55: 0.25969,  54: 0.86908,  53:-0.24591,
                 52:-0.03993,  51:-0.41743,  50:-0.75011,  49:-0.50272,  48:-0.42853,  47: 0.75941,  46:-0.55369,  45:-0.77131,
                 44:-0.92634,  43: 0.80094,  42:-0.51162,  41: 0.81856,  40: 0.87592,  39:-0.13379,  38:-0.97055,  37:-0.90985,
                 36: 0.86108,  35: 0.03593,  34: 0.14724,  33:-0.97596,  32:-0.37280,  31: 0.84502,  30:-0.91633,  29:-0.26990,
                 28: 0.65200,  27: 0.27237,  26:-0.25176,  25:-0.66564,  24: 0.59154,  23: 0.21211,  22: 0.60881,  21: 0.65089,
                 20: 0.14716,  19:-0.43068,  18: 0.83013,  17:-0.87952,  16: 0.42026,  15: 0.57723,  14:-0.83452,  13:-0.19609,
                 12:-0.65342,  11:-0.58168,  10:-0.83827,   9:-0.56770,   8:-0.13490,   7: 0.10306,   6:-0.76283,   5:-0.24213,
                  4: 0.91908,   3:-0.67416,   2: 0.69772,   1: 0.24194
   114 |      | 100:-0.15475,  99:-0.13260,  98:-0.10505,  97: 0.51684,  96:-0.85370,  95: 0.35013,  94: 0.68240,  93:-0.18332,
                 92:-0.28477,  91:-0.33097,  90: 0.07615,  89: 0.15042,  88:-0.67357,  87: 0.83759,  86:-0.78735,  85: 0.19145,
                 84: 0.09866,  83: 0.02391,  82: 0.77449,  81: 0.41342,  80:-0.33072,  79:-0.37333,  78: 0.60272,  77: 0.70115,
                 76:-0.73381,  75: 0.57371,  74:-0.45661,  73:-0.91798,  72:-0.51413,  71:-0.70599,  70: 0.90841,  69:-0.37326,
                 68: 0.62897,  67: 0.94901,  66:-0.13055,  65: 0.41398,  64: 0.07470,  63:-0.48525,  62: 0.19244,  61:-0.91111,
                 60: 0.62003,  59:-0.90846,  58:-0.04715,  57:-0.66760,  56: 0.35405,  55:-0.67749,  54:-0.35020,  53:-0.86048,
                 52:-0.47637,  51:-0.50462,  50:-0.23475,  49:-0.39609,  48: 0.16958,  47: 0.28779,  46:-0.99245,  45:-0.37235,
                 44:-0.07184,  43: 0.22604,  42: 0.85441,  41:-0.89307,  40:-0.69105,  39: 0.82637,  38:-0.40495,  37:-0.54790,
                 36: 0.64414,  35:-0.32784,  34: 0.79601,  33: 0.33465,  32:-0.42190,  31: 0.97610,  30: 0.31816,  29: 0.14338,
                 28:-0.09241,  27: 0.64248,  26: 0.93766,  25: 0.38858,  24: 0.42801,  23:-0.32993,  22:-0.07838,  21: 0.10980,
                 20: 0.47974,  19: 0.64190,  18: 0.13648,  17:-0.10746,  16:-0.43161,  15: 0.78584,  14:-0.61345,  13:-0.66207,
                 12: 0.85794,  11: 0.94315,  10: 0.56102,   9: 0.49301,   8: 0.76443,   7: 0.06519,   6:-0.91455,   5:-0.14496,
                  4:-0.77176,   3:-0.58327,   2: 0.30951,   1:-0.08908
   115 |      | 100: 0.37558,  99: 0.40500,  98: 0.84134,  97: 0.01901,  96: 0.98961,  95:-0.40883,  94:-0.12909,  93: 0.25487,
                 92:-0.27602,  91: 0.94720,  90: 0.92230,  89: 0.95567,  88:-0.92577,  87: 0.52330,  86:-0.34165,  85: 0.96318,
                 84: 0.93579,  83: 0.13255,  82:-0.12351,  81:-0.62966,  80:-0.65776,  79:-0.78338,  78: 0.54029,  77: 0.98525,
                 76:-0.02403,  75: 0.05416,  74:-0.23803,  73: 0.18615,  72:-0.18671,  71: 0.75242,  70:-0.16428,  69: 0.80325,
                 68:-0.48362,  67: 0.76953,  66:-0.70588,  65: 0.47434,  64: 0.38744,  63: 0.89966,  62: 0.03161,  61: 0.04109,
                 60:-0.45711,  59:-0.13268,  58:-0.79912,  57: 0.77365,  56: 0.67020,  55: 0.97661,  54: 0.01510,  53:-0.52141,
                 52:-0.45223,  51:-0.89079,  50: 0.23575,  49:-0.53546,  48:-0.77726,  47: 0.13060,  46: 0.22857,  45: 0.66907,
                 44:-0.83281,  43: 0.22229,  42:-0.45279,  41:-0.59281,  40: 0.21534,  39: 0.49155,  38:-0.64687,  37:-0.24309,
                 36: 0.00078,  35:-0.49458,  34:-0.81740,  33:-0.21940,  32: 0.87018,  31:-0.85150,  30: 0.98729,  29: 0.97624,
                 28: 0.78959,  27: 0.81335,  26: 0.64774,  25: 0.60100,  24:-0.94918,  23: 0.70555,  22: 0.71171,  21: 0.00944,
                 20:-0.86938,  19: 0.69524,  18:-0.35192,  17: 0.75156,  16: 0.88820,  15:-0.70762,  14: 0.91676,  13:-0.10644,
                 12:-0.52915,  11:-0.01034,  10:-0.59486,   9: 0.52121,   8:-0.57070,   7:-0.66370,   6: 0.81896,   5: 0.48536,
                  4:-0.74975,   3:-0.98402,   2:-0.72814,   1: 0.62889
   116 |      | 100: 0.14699,  99: 0.20339,  98: 0.63027,  97: 0.75308,  96: 0.65261,  95:-0.23681,  94:-0.49928,  93:-0.18571,
                 92: 0.42162,  91:-0.39698,  90: 0.12777,  89:-0.52150,  88:-0.94479,  87:-0.42682,  86:-0.82903,  85:-0.52414,
                 84:-0.85284,  83: 0.86239,  82: 0.34567,  81: 0.65601,  80:-0.45651,  79: 0.66765,  78:-0.40633,  77: 0.70241,
                 76:-0.94151,  75: 0.33172,  74:-0.09213,  73:-0.09171,  72:-0.72675,  71: 0.12127,  70:-0.61950,  69:-0.16207,
                 68:-0.19511,  67: 0.29891,  66:-0.73513,  65: 0.00339,  64: 0.71041,  63: 0.01075,  62: 0.02117,  61: 0.52768,
                 60: 0.28420,  59: 0.69086,  58:-0.84606,  57:-0.85989,  56: 0.63691,  55:-0.61923,  54: 0.49647,  53:-0.70581,
                 52:-0.77685,  51: 0.56160,  50: 0.96506,  49:-0.72502,  48: 0.44367,  47:-0.93311,  46:-0.14014,  45: 0.96838,
                 44: 0.01379,  43:-0.56619,  42:-0.14843,  41:-0.37380,  40: 0.80366,  39: 0.98977,  38: 0.84214,  37: 0.13554,
                 36: 0.06046,  35: 0.17152,  34: 0.05887,  33: 0.67925,  32:-0.53144,  31: 0.42758,  30:-0.17523,  29:-0.52342,
                 28: 0.44784,  27:-0.26454,  26: 0.39181,  25:-0.22919,  24: 0.89533,  23: 0.72855,  22:-0.36928,  21:-0.83189,
                 20: 0.61041,  19:-0.09073,  18: 0.00145,  17: 0.64238,  16: 0.68461,  15: 0.94331,  14:-0.50185,  13:-0.64914,
                 12: 0.86466,  11: 0.88309,  10: 0.74372,   9: 0.23155,   8: 0.40027,   7:-0.06346,   6:-0.66979,   5: 0.08383,
                  4:-0.83997,   3: 0.44287,   2: 0.24767,   1: 0.40854
   117 |      | 100:-0.31982,  99: 0.85578,  98: 0.17241,  97:-0.78908,  96: 0.43715,  95:-0.47204,  94: 0.36757,  93: 0.24315,
                 92:-0.36445,  91: 0.68907,  90:-0.20789,  89:-0.70877,  88: 0.17962,  87: 0.48619,  86: 0.94706,  85: 0.23358,
                 84:-0.60089,  83:-0.55770,  82:-0.07523,  81: 0.40485,  80:-0.50529,  79:-0.03208,  78:-0.72049,  77: 0.56148,
                 76: 0.11696,  75:-0.97588,  74: 0.28284,  73:-0.71079,  72: 0.22433,  71: 0.17682,  70: 0.86160,  69:-0.17701,
                 68: 0.56546,  67:-0.95281,  66: 0.61769,  65:-0.23402,  64: 0.18834,  63: 0.19498,  62: 0.38672,  61: 0.22776,
                 60:-0.74931,  59: 0.87245,  58: 0.09114,  57:-0.67794,  56:-0.17296,  55: 0.11780,  54: 0.49676,  53: 0.04572,
                 52:-0.60315,  51: 0.23287,  50:-0.26467,  49: 0.48554,  48:-0.94669,  47:-0.11554,  46: 0.98704,  45:-0.34353,
                 44:-0.72614,  43: 0.60869,  42:-0.06601,  41: 0.55555,  40: 0.20294,  39:-0.73043,  38:-0.06267,  37: 0.12429,
                 36:-0.04296,  35:-0.43340,  34: 0.32900,  33: 0.55160,  32: 0.39588,  31:-0.30116,  30: 0.74443,  29: 0.93493,
                 28: 0.31675,  27:-0.87068,  26:-0.41068,  25: 0.86705,  24:-0.89279,  23: 0.56156,  22:-0.90438,  21:-0.44449,
                 20: 0.80353,  19: 0.90761,  18:-0.92495,  17:-0.95705,  16: 0.29550,  15: 0.51473,  14:-0.45021,  13:-0.18297,
                 12:-0.57585,  11:-0.79439,  10:-0.41238,   9: 0.32290,   8:-0.95223,   7:-0.09145,   6: 0.58207,   5: 0.76901,
                  4:-0.80304,   3: 0.60117,   2: 0.11783,   1: 0.20583
   118 |      | 100:-0.08970,  99:-0.29984,  98: 0.61899,  97: 0.32960,  96: 0.60661,  95:-0.21350,  94: 0.08307,  93: 0.51859,
                 92:-0.83676,  91: 0.55450,  90:-0.35510,  89: 0.37985,  88: 0.93100,  87:-0.98157,  86: 0.22756,  85: 0.96264,
                 84:-0.11039,  83:-0.15810,  82:-0.44391,  81:-0.25934,  80: 0.59396,  79:-0.60150,  78: 0.89723,  77: 0.13651,
                 76: 0.23147,  75:-0.75866,  74: 0.67944,  73:-0.06735,  72: 0.68172,  71:-0.37081,  70: 0.12116,  69:-0.19422,
                 68: 0.32040,  67: 0.62277,  66: 0.55958,  65: 0.39273,  64:-0.11017,  63:-0.45748,  62:-0.14360,  61: 0.06422,
                 60: 0.07681,  59:-0.66591,  58: 0.08788,  57:-0.28511,  56: 0.16282,  55:-0.78550,  54: 0.63490,  53: 0.92396,
                 52:-0.93797,  51: 0.49858,  50: 0.11269,  49:-0.37059,  48: 0.71980,  47:-0.11099,  46: 0.56404,  45:-0.39759,
                 44: 0.84090,  43: 0.94437,  42: 0.63349,  41: 0.39920,  40: 0.54576,  39:-0.36191,  38:-0.39891,  37: 0.77931,
                 36: 0.25998,  35: 0.63952,  34: 0.14493,  33: 0.76716,  32: 0.03211,  31:-0.53056,  30: 0.39089,  29: 0.33376,
                 28:-0.19373,  27: 0.32086,  26: 0.47177,  25: 0.10603,  24:-0.13425,  23: 0.93717,  22: 0.63785,  21:-0.63004,
                 20: 0.78354,  19: 0.38149,  18: 0.52363,  17:-0.99793,  16:-0.50520,  15: 0.22023,  14: 0.97734,  13: 0.70156,
                 12: 0.42811,  11: 0.02144,  10: 0.79915,   9:-0.85306,   8: 0.53971,   7: 0.10376,   6: 0.61825,   5: 0.38840,
                  4:-0.71669,   3:-0.83211,   2:-0.81819,   1: 0.11658
   119 |      | 100: 0.33148,  99: 0.64772,  98: 0.40595,  97: 0.16152,  96: 0.73583,  95:-0.40510,  94:-0.61582,  93:-0.24790,
                 92: 0.39340,  91:-0.17942,  90:-0.92382,  89: 0.84492,  88:-0.57305,  87: 0.42158,  86: 0.74385,  85:-0.11606,
                 84: 0.97083,  83:-0.09979,  82:-0.49961,  81:-0.68903,  80:-0.54594,  79:-0.75441,  78:-0.78558,  77: 0.56006,
                 76: 0.98176,  75:-0.82591,  74: 0.90791,  73: 0.71575,  72:-0.66982,  71: 0.43187,  70:-0.55215,  69: 0.14291,
                 68: 0.45277,  67:-0.36325,  66:-0.42870,  65:-0.37172,  64:-0.82390,  63: 0.34101,  62:-0.31558,  61: 0.06952,
                 60:-0.71080,  59:-0.48600,  58: 0.73721,  57:-0.91908,  56: 0.87697,  55:-0.44016,  54: 0.37661,  53:-0.71767,
                 52: 0.42370,  51: 0.29685,  50: 0.88360,  49:-0.11407,  48:-0.14208,  47: 0.43070,  46:-0.25344,  45:-0.46628,
                 44: 0.79386,  43: 0.26009,  42: 0.53763,  41:-0.63453,  40:-0.74907,  39:-0.62526,  38:-0.25318,  37: 0.86494,
                 36:-0.86702,  35: 0.55936,  34:-0.12489,  33: 0.15209,  32: 0.78927,  31:-0.96992,  30:-0.83819,  29:-0.27413,
                 28:-0.34661,  27:-0.56726,  26: 0.37107,  25:-0.96103,  24:-0.10695,  23:-0.93641,  22:-0.08267,  21: 0.18097,
                 20:-0.63953,  19: 0.77632,  18:-0.11767,  17: 0.99403,  16:-0.90133,  15: 0.66531,  14: 0.05824,  13:-0.56267,
                 12:-0.04429,  11:-0.57941,  10:-0.28316,   9: 0.39928,   8: 0.23716,   7: 0.19750,   6: 0.30943,   5: 0.53472,
                  4:-0.92934,   3: 0.80294,   2: 0.48084,   1: 0.33640
   120 |      | 100: 0.24584,  99: 0.65262,  98:-0.54695,  97:-0.08080,  96:-0.58619,  95: 0.79386,  94:-0.68794,  93:-0.44714,
                 92:-0.59223,  91: 0.93187,  90:-0.87831,  89:-0.63616,  88: 0.38771,  87:-0.67735,  86:-0.79899,  85:-0.45946,
                 84:-0.44609,  83:-0.85687,  82: 0.85568,  81:-0.13761,  80:-0.08284,  79: 0.00910,  78: 0.38244,  77: 0.84142,
                 76:-0.98910,  75: 0.76814,  74: 0.59761,  73: 0.79454,  72: 0.78685,  71: 0.85374,  70: 0.05465,  69: 0.85298,
                 68: 0.13976,  67: 0.28083,  66:-0.99002,  65:-0.73626,  64:-0.74329,  63: 0.16478,  62:-0.46441,  61:-0.77031,
                 60: 0.12145,  59:-0.21589,  58: 0.94113,  57:-0.37234,  56: 0.76694,  55: 0.79435,  54:-0.00856,  53:-0.07228,
                 52: 0.41195,  51:-0.37215,  50:-0.92084,  49: 0.73167,  48: 0.49452,  47: 0.55742,  46:-0.51740,  45:-0.19235,
                 44:-0.70805,  43:-0.18633,  42: 0.71161,  41: 0.10248,  40: 0.66004,  39:-0.23515,  38:-0.52354,  37: 0.77985,
                 36:-0.78840,  35:-0.99005,  34:-0.57544,  33:-0.79484,  32:-0.33487,  31: 0.60136,  30: 0.04834,  29: 0.35467,
                 28: 0.21879,  27: 0.08027,  26:-0.69632,  25:-0.72510,  24: 0.63513,  23:-0.05987,  22:-0.12305,  21: 0.89862,
                 20: 0.65970,  19:-0.82855,  18:-0.25964,  17:-0.79475,  16: 0.74804,  15:-0.89033,  14:-0.16221,  13: 0.89986,
                 12: 0.55324,  11:-0.38794,  10: 0.29994,   9:-0.49167,   8:-0.14986,   7:-0.88478,   6:-0.49209,   5: 0.11071,
                  4:-0.43340,   3: 0.14014,   2:-0.72520,   1:-0.54225
   121 |      | 100:-0.13484,  99: 0.21747,  98: 0.56192,  97: 0.35664,  96:-0.69135,  95: 0.52365,  94: 0.18335,  93:-0.35151,
                 92:-0.93504,  91: 0.41849,  90:-0.86714,  89:-0.80733,  88: 0.31019,  87: 0.98958,  86: 0.70758,  85:-0.90723,
                 84: 0.61440,  83:-0.91156,  82: 0.61361,  81:-0.76124,  80: 0.91703,  79:-0.10735,  78: 0.69661,  77: 0.46420,
                 76:-0.41944,  75: 0.64581,  74:-0.99037,  73:-0.35082,  72:-0.24933,  71: 0.00888,  70:-0.95524,  69: 0.87551,
                 68:-0.88241,  67: 0.42758,  66:-0.78360,  65:-0.28145,  64: 0.67469,  63:-0.32364,  62:-0.68078,  61: 0.59981,
                 60: 0.06588,  59:-0.83728,  58:-0.86886,  57:-0.27141,  56:-0.25234,  55:-0.79042,  54:-0.43727,  53: 0.33410,
                 52: 0.38687,  51: 0.07351,  50:-0.22968,  49: 0.84619,  48:-0.12235,  47:-0.74275,  46: 0.98493,  45:-0.45909,
                 44:-0.92386,  43:-0.75390,  42: 0.02648,  41:-0.54685,  40:-0.91234,  39:-0.69560,  38:-0.33095,  37:-0.49683,
                 36:-0.25378,  35: 0.73390,  34:-0.67537,  33: 0.62550,  32:-0.86877,  31:-0.00163,  30:-0.42152,  29: 0.97153,
                 28: 0.68204,  27: 0.49233,  26:-0.37211,  25:-0.86902,  24: 0.09017,  23:-0.73077,  22:-0.13111,  21:-0.16008,
                 20: 0.84545,  19:-0.30936,  18:-0.00565,  17: 0.27595,  16:-0.45865,  15:-0.68146,  14: 0.79431,  13:-0.84557,
                 12:-0.95804,  11: 0.20627,  10: 0.20102,   9:-0.79138,   8:-0.10282,   7:-0.53341,   6: 0.34163,   5:-0.05792,
                  4: 0.26130,   3:-0.82056,   2: 0.82819,   1:-0.12693
   122 |      | 100: 0.57674,  99: 0.13607,  98: 0.84027,  97:-0.93491,  96:-0.60941,  95:-0.36325,  94:-0.29078,  93:-0.97251,
                 92: 0.31634,  91: 0.13081,  90:-0.68566,  89: 0.81835,  88:-0.07960,  87: 0.07298,  86:-0.59340,  85:-0.94777,
                 84: 0.86731,  83:-0.87279,  82:-0.63021,  81:-0.45166,  80:-0.93816,  79:-0.70028,  78: 0.54531,  77:-0.29642,
                 76:-0.13434,  75: 0.26789,  74: 0.09731,  73: 0.26260,  72: 0.77625,  71: 0.28009,  70:-0.20478,  69:-0.58631,
                 68:-0.67262,  67:-0.69713,  66: 0.13306,  65:-0.33018,  64:-0.88017,  63:-0.87113,  62: 0.49526,  61: 0.95888,
                 60: 0.10948,  59: 0.64994,  58:-0.82696,  57: 0.42057,  56: 0.01456,  55:-0.80092,  54: 0.89700,  53:-0.45538,
                 52:-0.94172,  51: 0.05350,  50:-0.95018,  49: 0.22170,  48: 0.49696,  47:-0.81450,  46:-0.86743,  45: 0.03324,
                 44: 0.41317,  43: 0.99175,  42:-0.43877,  41: 0.47661,  40: 0.15078,  39:-0.09614,  38: 0.05469,  37: 0.88991,
                 36: 0.26241,  35: 0.89051,  34: 0.23504,  33:-0.53477,  32:-0.18597,  31:-0.65606,  30: 0.49685,  29: 0.06445,
                 28: 0.88891,  27: 0.67250,  26: 0.52010,  25: 0.50132,  24: 0.84846,  23: 0.09673,  22:-0.78516,  21:-0.26793,
                 20: 0.69700,  19:-0.79588,  18:-0.48634,  17:-0.00921,  16: 0.26901,  15:-0.67977,  14:-0.20414,  13: 0.58353,
                 12:-0.92255,  11: 0.79753,  10: 0.26612,   9:-0.13602,   8: 0.85326,   7:-0.96444,   6:-0.84017,   5: 0.18512,
                  4: 0.04665,   3:-0.91600,   2: 0.94874,   1:-0.53422
   123 |      | 100:-0.26581,  99: 0.92731,  98:-0.17821,  97:-0.21343,  96: 0.29525,  95:-0.27355,  94:-0.33843,  93: 0.43743,
                 92:-0.97048,  91:-0.10812,  90: 0.19158,  89:-0.68419,  88:-0.72736,  87: 0.04685,  86: 0.65309,  85:-0.45274,
                 84:-0.59997,  83:-0.89017,  82: 0.33716,  81: 0.43814,  80: 0.36973,  79: 0.23842,  78: 0.79739,  77: 0.33112,
                 76: 0.94850,  75: 0.70813,  74: 0.28033,  73: 0.84313,  72: 0.82216,  71:-0.19503,  70: 0.58305,  69: 0.94556,
                 68: 0.54103,  67:-0.58809,  66:-0.03200,  65: 0.77505,  64: 0.12916,  63: 0.60985,  62:-0.15795,  61:-0.38273,
                 60:-0.30824,  59: 0.00573,  58:-0.65688,  57:-0.96105,  56:-0.47545,  55: 0.26291,  54:-0.73838,  53: 0.66567,
                 52: 0.12339,  51: 0.46799,  50: 0.62180,  49: 0.27973,  48: 0.71053,  47:-0.54551,  46:-0.69043,  45:-0.43348,
                 44: 0.06086,  43:-0.64378,  42: 0.18758,  41: 0.44769,  40: 0.68586,  39: 0.72519,  38: 0.79765,  37: 0.13935,
                 36: 0.00466,  35:-0.82920,  34:-0.09307,  33:-0.84424,  32:-0.27916,  31:-0.78354,  30:-0.51850,  29: 0.88878,
                 28:-0.01755,  27: 0.88807,  26: 0.12453,  25: 0.23662,  24: 0.31449,  23: 0.31661,  22: 0.33202,  21:-0.71036,
                 20:-0.90788,  19: 0.62887,  18:-0.88500,  17:-0.77580,  16: 0.31516,  15: 0.79794,  14:-0.58821,  13: 0.37795,
                 12: 0.52605,  11:-0.48351,  10: 0.34742,   9: 0.71257,   8:-0.70592,   7:-0.96450,   6: 0.65149,   5:-0.60534,
                  4:-0.79368,   3: 0.17847,   2:-0.43820,   1:-0.41394
   124 |      | 100: 0.20395,  99:-0.75474,  98:-0.57360,  97: 0.66211,  96: 0.05963,  95: 0.36168,  94:-0.03183,  93:-0.38887,
                 92:-0.03133,  91: 0.86998,  90:-0.00306,  89: 0.84512,  88: 0.73882,  87:-0.20549,  86: 0.40271,  85: 0.60508,
                 84:-0.88146,  83: 0.48254,  82:-0.61419,  81:-0.79407,  80:-0.21980,  79: 0.22179,  78:-0.74082,  77: 0.20778,
                 76:-0.16779,  75: 0.06032,  74: 0.08482,  73:-0.45644,  72:-0.70017,  71: 0.67313,  70: 0.64548,  69: 0.87559,
                 68:-0.17382,  67:-0.67586,  66:-0.74918,  65: 0.89234,  64:-0.60845,  63:-0.16604,  62: 0.21439,  61: 0.53000,
                 60:-0.49789,  59:-0.78106,  58: 0.27258,  57: 0.02491,  56: 0.83132,  55:-0.16622,  54: 0.16636,  53: 0.61893,
                 52:-0.60734,  51: 0.72663,  50:-0.35783,  49: 0.02685,  48: 0.06726,  47:-0.91788,  46:-0.52016,  45: 0.34158,
                 44: 0.69890,  43:-0.55336,  42:-0.79431,  41:-0.16188,  40: 0.40280,  39:-0.45810,  38: 0.94102,  37: 0.61253,
                 36: 0.51942,  35:-0.69637,  34:-0.43422,  33:-0.34171,  32: 0.49342,  31:-0.96490,  30: 0.89871,  29: 0.87407,
                 28:-0.50987,  27: 0.72809,  26:-0.08212,  25: 0.67704,  24: 0.80288,  23: 0.44288,  22: 0.83600,  21:-0.03865,
                 20: 0.98534,  19:-0.29551,  18: 0.92449,  17: 0.71844,  16: 0.50247,  15: 0.99283,  14:-0.17139,  13: 0.88325,
                 12:-0.22490,  11: 0.19284,  10: 0.36664,   9: 0.07676,   8:-0.55254,   7: 0.21819,   6:-0.24854,   5: 0.60256,
                  4: 0.09022,   3:-0.39659,   2: 0.25882,   1: 0.07386
   125 |      | 100: 0.62927,  99: 0.69768,  98:-0.31787,  97: 0.41554,  96:-0.75923,  95: 0.87347,  94: 0.68226,  93: 0.86550,
                 92: 0.65468,  91: 0.49110,  90:-0.99044,  89:-0.98618,  88: 0.93189,  87:-0.30653,  86: 0.93528,  85:-0.98164,
                 84: 0.99007,  83:-0.59879,  82:-0.27897,  81: 0.17654,  80:-0.58528,  79:-0.30429,  78: 0.78485,  77:-0.44816,
                 76:-0.86508,  75:-0.78917,  74:-0.08432,  73: 0.50470,  72:-0.51279,  71:-0.43388,  70:-0.43020,  69: 0.05152,
                 68: 0.60252,  67: 0.64028,  66:-0.21500,  65:-0.85823,  64:-0.59690,  63: 0.45641,  62: 0.32153,  61: 0.47567,
                 60:-0.94364,  59: 0.79772,  58:-0.62221,  57:-0.18727,  56:-0.45011,  55:-0.28508,  54: 0.76134,  53: 0.68463,
                 52:-0.54416,  51: 0.80393,  50: 0.37875,  49:-0.23310,  48: 0.05533,  47:-0.34129,  46:-0.96724,  45:-0.96583,
                 44: 0.18711,  43:-0.96916,  42:-0.99972,  41:-0.72047,  40: 0.64287,  39: 0.90148,  38: 0.96450,  37: 0.08300,
                 36: 0.10950,  35:-0.50349,  34:-0.63038,  33:-0.76452,  32: 0.79292,  31:-0.98855,  30:-0.02618,  29: 0.73995,
                 28: 0.46623,  27:-0.12451,  26:-0.36048,  25:-0.49923,  24: 0.06516,  23: 0.34572,  22: 0.59726,  21:-0.23590,
                 20:-0.31264,  19:-0.68828,  18: 0.45874,  17:-0.71881,  16:-0.70098,  15:-0.20754,  14: 0.07511,  13:-0.56824,
                 12:-0.74373,  11: 0.76244,  10:-0.59069,   9: 0.47441,   8:-0.66710,   7:-0.15074,   6:-0.58225,   5: 0.39689,
                  4:-0.98446,   3:-0.04511,   2:-0.44921,   1: 0.14064
   126 |      | 100: 0.97617,  99:-0.05324,  98:-0.70286,  97: 0.55587,  96:-0.79632,  95:-0.69251,  94: 0.64902,  93:-0.83944,
                 92:-0.51617,  91:-0.56956,  90:-0.50475,  89:-0.33823,  88:-0.68481,  87: 0.59259,  86:-0.19935,  85: 0.30596,
                 84:-0.64796,  83:-0.37722,  82: 0.49642,  81:-0.81973,  80: 0.59638,  79: 0.28415,  78: 0.28612,  77: 0.11513,
                 76: 0.32140,  75: 0.26714,  74:-0.95533,  73: 0.13400,  72: 0.58907,  71: 0.95090,  70: 0.20425,  69:-0.25881,
                 68: 0.36038,  67:-0.55991,  66: 0.67692,  65:-0.58245,  64:-0.43365,  63: 0.07158,  62: 0.05074,  61: 0.57608,
                 60: 0.18236,  59: 0.48791,  58: 0.60128,  57: 0.99618,  56:-0.94318,  55: 0.89971,  54: 0.57924,  53: 0.26683,
                 52: 0.87217,  51:-0.25223,  50:-0.83355,  49: 0.16836,  48:-0.29708,  47: 0.59646,  46: 0.24414,  45: 0.13389,
                 44: 0.87858,  43: 0.74743,  42:-0.09791,  41:-0.84106,  40: 0.61351,  39: 0.28736,  38: 0.55361,  37:-0.24086,
                 36:-0.36058,  35:-0.35815,  34:-0.86479,  33:-0.92299,  32:-0.96350,  31:-0.70553,  30: 0.59281,  29:-0.93993,
                 28:-0.07229,  27:-0.72797,  26:-0.47418,  25: 0.10299,  24: 0.65614,  23:-0.04629,  22: 0.22166,  21:-0.22210,
                 20:-0.35742,  19:-0.57915,  18:-0.48483,  17: 0.66165,  16:-0.88947,  15: 0.14769,  14:-0.99216,  13: 0.98132,
                 12: 0.21537,  11: 0.59262,  10: 0.64307,   9:-0.70687,   8: 0.42827,   7:-0.03214,   6: 0.82511,   5: 0.92373,
                  4:-0.93835,   3:-0.04248,   2: 0.96591,   1:-0.04849
   127 |      | 100: 0.76511,  99: 0.22864,  98: 0.39079,  97:-0.41822,  96: 0.97904,  95:-0.60488,  94: 0.54055,  93: 0.42401,
                 92:-0.74346,  91: 0.21298,  90: 0.53641,  89: 0.09750,  88: 0.68203,  87: 0.67605,  86:-0.36120,  85: 0.12366,
                 84: 0.32650,  83:-0.23481,  82:-0.87088,  81: 0.80943,  80: 0.52089,  79:-0.05975,  78:-0.42864,  77: 0.95271,
                 76:-0.30648,  75:-0.25535,  74:-0.88303,  73:-0.63007,  72: 0.37187,  71:-0.71067,  70:-0.74676,  69: 0.21473,
                 68:-0.28996,  67:-0.94726,  66: 0.46825,  65: 0.98821,  64: 0.30038,  63: 0.70682,  62:-0.44090,  61: 0.46594,
                 60: 0.22053,  59:-0.20022,  58: 0.35626,  57: 0.11916,  56:-0.55613,  55:-0.25563,  54:-0.63296,  53:-0.72039,
                 52:-0.37607,  51: 0.23313,  50:-0.06945,  49:-0.26517,  48:-0.39766,  47: 0.89200,  46:-0.12098,  45: 0.74845,
                 44:-0.93029,  43:-0.44045,  42: 0.15300,  41: 0.93715,  40: 0.94361,  39: 0.31716,  38: 0.33798,  37: 0.91826,
                 36:-0.93756,  35:-0.52323,  34: 0.47640,  33: 0.24273,  32: 0.60682,  31: 0.74533,  30:-0.15796,  29: 0.57450,
                 28: 0.65818,  27:-0.77711,  26: 0.50398,  25: 0.25541,  24:-0.07248,  23: 0.65545,  22:-0.40142,  21: 0.84445,
                 20: 0.90644,  19: 0.25935,  18: 0.19274,  17:-0.36057,  16: 0.50952,  15:-0.32390,  14:-0.33395,  13:-0.06874,
                 12: 0.22482,  11:-0.67791,  10: 0.64922,   9: 0.31589,   8:-0.56704,   7: 0.09394,   6:-0.00089,   5: 0.96202,
                  4:-0.01090,   3: 0.50723,   2:-0.88439,   1:-0.37247
   128 |      | 100: 0.72370,  99:-0.55746,  98:-0.58924,  97:-0.22022,  96: 0.30167,  95: 0.35506,  94: 0.85136,  93:-0.26831,
                 92: 0.03946,  91: 0.21221,  90:-0.15204,  89:-0.55329,  88: 0.02580,  87: 0.31935,  86: 0.88624,  85:-0.34920,
                 84: 0.42988,  83:-0.64381,  82:-0.12798,  81:-0.56322,  80: 0.02457,  79: 0.71776,  78:-0.79792,  77: 0.06193,
                 76: 0.71518,  75: 0.70697,  74:-0.00608,  73:-0.32486,  72:-0.87537,  71: 0.90544,  70:-0.79030,  69:-0.16073,
                 68:-0.34789,  67: 0.91542,  66:-0.02517,  65: 0.69883,  64:-0.63013,  63: 0.37060,  62: 0.09507,  61: 0.53435,
                 60:-0.94720,  59:-0.69969,  58: 0.65769,  57: 0.71227,  56:-0.14635,  55:-0.97647,  54:-0.14105,  53:-0.81341,
                 52:-0.64300,  51:-0.54848,  50:-0.31317,  49: 0.76736,  48: 0.58591,  47:-0.52275,  46: 0.81276,  45: 0.40742,
                 44:-0.97801,  43: 0.79343,  42:-0.32372,  41:-0.63348,  40:-0.23570,  39:-0.44220,  38:-0.89621,  37: 0.92017,
                 36:-0.06710,  35: 0.64436,  34: 0.36542,  33:-0.55468,  32:-0.43696,  31: 0.39417,  30:-0.02261,  29:-0.57277,
                 28: 0.18596,  27:-0.29887,  26: 0.09204,  25: 0.91199,  24: 0.60982,  23:-0.38885,  22: 0.43145,  21:-0.07177,
                 20:-0.93925,  19: 0.33233,  18: 0.51606,  17: 0.70438,  16:-0.31009,  15: 0.38494,  14: 0.67789,  13:-0.57277,
                 12: 0.77228,  11:-0.41811,  10:-0.05649,   9:-0.32958,   8: 0.89867,   7:-0.57969,   6:-0.60169,   5:-0.65609,
                  4:-0.31784,   3:-0.63558,   2: 0.82851,   1:-0.51327
   129 |      | 100: 0.26917,  99:-0.83428,  98:-0.11678,  97: 0.04807,  96: 0.97639,  95: 0.07245,  94:-0.69971,  93:-0.28486,
                 92: 0.83440,  91:-0.39855,  90: 0.11989,  89: 0.10393,  88:-0.24772,  87: 0.59259,  86: 0.81160,  85: 0.47495,
                 84:-0.61092,  83: 0.84621,  82:-0.38125,  81:-0.71149,  80: 0.46249,  79:-0.70125,  78: 0.11340,  77:-0.27874,
                 76:-0.00993,  75: 0.74645,  74: 0.03853,  73: 0.77789,  72: 0.87989,  71: 0.09504,  70: 0.75696,  69:-0.93905,
                 68:-0.22373,  67:-0.20800,  66:-0.64352,  65:-0.87211,  64:-0.16580,  63: 0.81460,  62:-0.76077,  61:-0.24598,
                 60:-0.68431,  59: 0.28814,  58:-0.89689,  57: 0.79530,  56:-0.97107,  55: 0.09899,  54:-0.61341,  53:-0.92465,
                 52: 0.90167,  51: 0.50518,  50: 0.31055,  49:-0.41794,  48: 0.91273,  47: 0.14966,  46:-0.04262,  45:-0.06795,
                 44: 0.49771,  43: 0.62071,  42: 0.75531,  41:-0.36528,  40:-0.02260,  39: 0.00767,  38: 0.19298,  37: 0.15442,
                 36: 0.89139,  35:-0.84541,  34: 0.51546,  33:-0.46850,  32:-0.00275,  31:-0.44131,  30:-0.98159,  29: 0.68567,
                 28: 0.54181,  27: 0.29390,  26: 0.86427,  25: 0.20254,  24: 0.92951,  23: 0.81386,  22:-0.87378,  21: 0.01423,
                 20: 0.59142,  19: 0.01497,  18:-0.91325,  17: 0.95406,  16: 0.46329,  15: 0.18321,  14:-0.72657,  13:-0.37545,
                 12:-0.43828,  11: 0.23169,  10: 0.93264,   9:-0.29483,   8: 0.53444,   7:-0.56334,   6: 0.77932,   5:-0.01393,
                  4:-0.63620,   3:-0.66564,   2:-0.89136,   1:-0.30363
   130 |      | 100:-0.16119,  99:-0.56734,  98: 0.65692,  97:-0.57150,  96: 0.43015,  95: 0.46479,  94:-0.60813,  93: 0.25205,
                 92:-0.45281,  91:-0.19986,  90:-0.55204,  89:-0.00281,  88:-0.64347,  87: 0.34422,  86:-0.92707,  85:-0.39073,
                 84: 0.77959,  83:-0.72661,  82: 0.27440,  81: 0.91314,  80:-0.88906,  79:-0.05737,  78: 0.70753,  77: 0.82307,
                 76: 0.48471,  75: 0.10039,  74:-0.68362,  73: 0.61468,  72:-0.27524,  71:-0.53684,  70:-0.91783,  69:-0.47048,
                 68: 0.29134,  67:-0.88246,  66: 0.41661,  65:-0.54477,  64: 0.80714,  63: 0.35422,  62:-0.10587,  61: 0.10181,
                 60: 0.36476,  59: 0.93193,  58:-0.73781,  57:-0.03844,  56:-0.00627,  55:-0.01741,  54: 0.52829,  53: 0.66668,
                 52:-0.53490,  51: 0.89924,  50:-0.17053,  49: 0.19055,  48: 0.35780,  47:-0.27940,  46:-0.41974,  45:-0.99096,
                 44:-0.01907,  43:-0.59939,  42:-0.18509,  41: 0.95591,  40:-0.52404,  39: 0.61619,  38:-0.16194,  37: 0.46557,
                 36: 0.00242,  35: 0.64266,  34: 0.33146,  33:-0.62963,  32: 0.28792,  31:-0.43393,  30: 0.39749,  29: 0.86299,
                 28: 0.60167,  27:-0.51182,  26:-0.98063,  25:-0.11516,  24:-0.85052,  23:-0.77298,  22: 0.86164,  21:-0.42574,
                 20:-0.59578,  19: 0.67040,  18: 0.90162,  17:-0.19468,  16:-0.44963,  15: 0.77729,  14: 0.16292,  13:-0.15383,
                 12:-0.73610,  11: 0.15231,  10:-0.19130,   9:-0.87083,   8: 0.85309,   7: 0.07920,   6: 0.44650,   5:-0.30578,
                  4:-0.60552,   3: 0.36284,   2:-0.99635,   1: 0.46660
   131 |      | 100: 0.79648,  99: 0.66669,  98: 0.86585,  97:-0.33515,  96:-0.42471,  95: 0.75794,  94:-0.20066,  93:-0.50395,
                 92: 0.58390,  91:-0.92658,  90:-0.35937,  89: 0.93063,  88: 0.78870,  87:-0.94005,  86: 0.87730,  85: 0.32055,
                 84: 0.59400,  83: 0.60376,  82:-0.43391,  81:-0.74630,  80:-0.86850,  79:-0.61787,  78:-0.83458,  77: 0.50850,
                 76: 0.23494,  75: 0.34374,  74: 0.62052,  73:-0.34813,  72:-0.97295,  71: 0.48979,  70:-0.57325,  69: 0.64886,
                 68: 0.36573,  67:-0.31114,  66:-0.25100,  65:-0.37531,  64:-0.85585,  63:-0.35699,  62: 0.26397,  61:-0.74066,
                 60: 0.92922,  59:-0.39321,  58: 0.23668,  57: 0.11735,  56: 0.50128,  55: 0.22562,  54:-0.75935,  53:-0.40694,
                 52:-0.59955,  51:-0.50623,  50:-0.03680,  49:-0.18692,  48:-0.99857,  47:-0.17155,  46:-0.43539,  45:-0.33192,
                 44: 0.36734,  43: 0.51674,  42:-0.77497,  41:-0.31454,  40: 0.14513,  39:-0.87842,  38:-0.26022,  37: 0.40115,
                 36: 0.06255,  35:-0.95410,  34:-0.48287,  33: 0.59573,  32: 0.70257,  31:-0.53141,  30:-0.92088,  29:-0.26276,
                 28: 0.72985,  27: 0.80780,  26:-0.56661,  25:-0.61404,  24:-0.27876,  23: 0.16829,  22: 0.52014,  21:-0.51138,
                 20: 0.33549,  19:-0.27265,  18: 0.67509,  17: 0.39768,  16:-0.59607,  15: 0.45278,  14:-0.20422,  13: 0.23174,
                 12:-0.67587,  11:-0.92321,  10: 0.04928,   9:-0.36356,   8:-0.88757,   7: 0.92799,   6: 0.68726,   5: 0.05774,
                  4:-0.12882,   3: 0.51339,   2: 0.29397,   1:-0.09361
   132 |      | 100: 0.01143,  99:-0.17809,  98:-0.76789,  97: 0.39762,  96: 0.86233,  95:-0.41515,  94:-0.84520,  93:-0.09387,
                 92:-0.89594,  91:-0.72234,  90: 0.89114,  89: 0.99064,  88:-0.91047,  87: 0.65812,  86: 0.99526,  85:-0.44136,
                 84:-0.27326,  83:-0.88263,  82:-0.21222,  81:-0.18767,  80: 0.80954,  79:-0.37357,  78:-0.08095,  77: 0.09214,
                 76: 0.65900,  75: 0.90001,  74: 0.79655,  73: 0.58134,  72: 0.88615,  71:-0.22939,  70: 0.05776,  69: 0.93355,
                 68:-0.76357,  67:-0.79829,  66: 0.39723,  65: 0.77620,  64: 0.20938,  63: 0.85670,  62:-0.47367,  61:-0.80579,
                 60: 0.39498,  59:-0.77092,  58:-0.32103,  57:-0.66362,  56: 0.56978,  55:-0.14162,  54: 0.35407,  53:-0.63006,
                 52:-0.20542,  51: 0.71799,  50: 0.54147,  49:-0.67348,  48:-0.29828,  47: 0.35734,  46: 0.80243,  45:-0.34448,
                 44:-0.58910,  43:-0.51488,  42:-0.28292,  41:-0.71904,  40:-0.96978,  39:-0.65086,  38: 0.47147,  37:-0.07202,
                 36:-0.64648,  35: 0.23595,  34:-0.00261,  33: 0.76073,  32:-0.56890,  31:-0.30025,  30:-0.98650,  29: 0.79861,
                 28: 0.35017,  27:-0.46854,  26: 0.62023,  25:-0.96866,  24:-0.59771,  23: 0.07801,  22: 0.50025,  21: 0.04183,
                 20:-0.66905,  19: 0.17735,  18:-0.84236,  17: 0.70994,  16:-0.55561,  15:-0.16809,  14:-0.46844,  13: 0.17989,
                 12:-0.14685,  11:-0.27667,  10:-0.55721,   9: 0.73172,   8: 0.16156,   7:-0.01850,   6: 0.02663,   5:-0.96465,
                  4:-0.27375,   3: 0.24633,   2: 0.08349,   1:-0.94960
   133 |      | 100:-0.73098,  99:-0.69481,  98:-0.34081,  97: 0.12843,  96: 0.14047,  95:-0.06779,  94:-0.88579,  93:-0.16707,
                 92: 0.03675,  91: 0.54425,  90:-0.79950,  89:-0.24984,  88:-0.75239,  87: 0.51733,  86:-0.65159,  85: 0.91268,
                 84: 0.59577,  83:-0.01278,  82: 0.00448,  81: 0.05684,  80: 0.33659,  79: 0.88754,  78:-0.37260,  77: 0.35121,
                 76: 0.70382,  75:-0.61421,  74: 0.50856,  73:-0.36821,  72: 0.67525,  71:-0.41875,  70:-0.96627,  69: 0.21834,
                 68: 0.78810,  67:-0.92929,  66: 0.35229,  65: 0.74248,  64:-0.76177,  63:-0.49519,  62:-0.92145,  61: 0.61271,
                 60:-0.37115,  59: 0.77636,  58:-0.47524,  57:-0.23295,  56:-0.04503,  55: 0.38847,  54:-0.00294,  53:-0.37780,
                 52:-0.63779,  51:-0.11498,  50:-0.65599,  49: 0.92464,  48:-0.67392,  47: 0.18602,  46: 0.73508,  45: 0.25701,
                 44: 0.86589,  43: 0.11003,  42:-0.40371,  41:-0.12740,  40:-0.27741,  39:-0.70608,  38:-0.19331,  37:-0.65482,
                 36: 0.85870,  35:-0.19664,  34:-0.74170,  33: 0.16473,  32:-0.26860,  31:-0.21196,  30: 0.33032,  29: 0.21780,
                 28: 0.37525,  27: 0.05133,  26:-0.11568,  25:-0.69063,  24: 0.02165,  23: 0.01073,  22: 0.23981,  21: 0.16196,
                 20: 0.66951,  19: 0.51349,  18: 0.96021,  17: 0.22239,  16:-0.61956,  15: 0.78833,  14:-0.08089,  13:-0.91802,
                 12:-0.94392,  11:-0.43697,  10:-0.68986,   9: 0.23962,   8: 0.80282,   7:-0.68088,   6: 0.32365,   5:-0.41483,
                  4:-0.28433,   3: 0.70308,   2:-0.01303,   1:-0.46539
   134 |      | 100: 0.34362,  99:-0.97166,  98: 0.79611,  97:-0.92885,  96:-0.53803,  95:-0.01418,  94:-0.21819,  93: 0.60809,
                 92:-0.40573,  91:-0.41821,  90: 0.60381,  89:-0.01650,  88: 0.01128,  87: 0.59104,  86: 0.21220,  85:-0.14567,
                 84:-0.28142,  83:-0.95207,  82:-0.24088,  81:-0.27851,  80: 0.60429,  79:-0.80035,  78:-0.17296,  77:-0.17761,
                 76:-0.12030,  75:-0.31888,  74: 0.26505,  73:-0.57281,  72:-0.40186,  71:-0.93942,  70:-0.53255,  69: 0.63419,
                 68:-0.93940,  67:-0.69256,  66:-0.15950,  65:-0.37119,  64:-0.69813,  63:-0.47328,  62:-0.31851,  61:-0.62444,
                 60:-0.26726,  59:-0.82555,  58:-0.11146,  57:-0.75450,  56:-0.81667,  55: 0.13774,  54:-0.11286,  53: 0.31739,
                 52: 0.99756,  51:-0.21635,  50: 0.36292,  49: 0.48345,  48:-0.92867,  47:-0.86502,  46:-0.80142,  45: 0.27746,
                 44: 0.56868,  43: 0.53436,  42:-0.79782,  41:-0.95959,  40: 0.90586,  39: 0.85497,  38:-0.53501,  37:-0.05279,
                 36:-0.96495,  35:-0.11551,  34: 0.58844,  33: 0.11571,  32: 0.31720,  31: 0.85694,  30: 0.56511,  29:-0.13101,
                 28:-0.26985,  27:-0.82648,  26:-0.81154,  25:-0.13444,  24: 0.85619,  23: 0.60979,  22: 0.80749,  21: 0.67334,
                 20:-0.77053,  19:-0.74550,  18: 0.74730,  17:-0.85167,  16: 0.05101,  15:-0.90243,  14:-0.59458,  13:-0.82808,
                 12:-0.99176,  11: 0.64669,  10: 0.93048,   9:-0.32774,   8:-0.36753,   7: 0.79826,   6:-0.57265,   5: 0.95084,
                  4: 0.11385,   3:-0.95275,   2: 0.14833,   1:-0.01201
   135 |      | 100: 0.14842,  99: 0.36756,  98: 0.22019,  97:-0.15802,  96: 0.72985,  95: 0.24658,  94: 0.16094,  93:-0.22765,
                 92:-0.17249,  91:-0.46150,  90: 0.84959,  89: 0.35269,  88: 0.61004,  87:-0.58980,  86:-0.58637,  85:-0.06009,
                 84:-0.02146,  83: 0.85561,  82: 0.75573,  81:-0.07723,  80:-0.42828,  79: 0.40286,  78: 0.54570,  77: 0.41197,
                 76:-0.17248,  75: 0.26668,  74:-0.89298,  73: 0.10251,  72:-0.97400,  71: 0.35232,  70: 0.51927,  69: 0.65559,
                 68: 0.07236,  67:-0.92781,  66: 0.17132,  65: 0.43021,  64:-0.38704,  63:-0.30765,  62: 0.24002,  61: 0.02369,
                 60:-0.11734,  59:-0.31017,  58:-0.94301,  57: 0.55468,  56:-0.54076,  55:-0.41528,  54: 0.26944,  53:-0.70628,
                 52: 0.38486,  51:-0.96487,  50:-0.91641,  49:-0.37399,  48:-0.53163,  47:-0.82975,  46: 0.97119,  45: 0.58408,
                 44:-0.89687,  43: 0.62222,  42: 0.06746,  41: 0.63703,  40: 0.74799,  39: 0.33574,  38:-0.57533,  37:-0.95346,
                 36: 0.98438,  35:-0.26742,  34:-0.58128,  33:-0.96749,  32: 0.46746,  31: 0.33395,  30:-0.66856,  29:-0.97612,
                 28:-0.64330,  27: 0.55641,  26:-0.37997,  25: 0.35085,  24:-0.80866,  23:-0.44322,  22: 0.09517,  21:-0.53425,
                 20: 0.45340,  19: 0.08037,  18: 0.39389,  17: 0.92225,  16:-0.95137,  15:-0.96282,  14:-0.72648,  13: 0.31123,
                 12:-0.01896,  11: 0.67710,  10:-0.33609,   9: 0.71986,   8:-0.02528,   7:-0.15695,   6: 0.68026,   5:-0.72434,
                  4:-0.38254,   3:-0.15411,   2: 0.27703,   1: 0.34543
   136 |      | 100: 0.42715,  99: 0.55856,  98:-0.98000,  97:-0.70304,  96:-0.63902,  95:-0.62274,  94: 0.82760,  93: 0.17950,
                 92: 0.20940,  91: 0.45159,  90: 0.03450,  89:-0.32722,  88:-0.79762,  87: 0.30799,  86:-0.57849,  85:-0.34176,
                 84: 0.19388,  83:-0.33604,  82: 0.73463,  81: 0.24282,  80: 0.07656,  79: 0.96877,  78: 0.91996,  77:-0.17799,
                 76: 0.26037,  75: 0.53774,  74:-0.75436,  73: 0.28264,  72: 0.07781,  71:-0.33638,  70: 0.12170,  69:-0.98731,
                 68:-0.07928,  67: 0.15927,  66:-0.85693,  65:-0.04943,  64: 0.09813,  63:-0.34795,  62:-0.95070,  61:-0.13271,
                 60: 0.79346,  59: 0.56821,  58: 0.02021,  57:-0.28699,  56: 0.96245,  55: 0.84984,  54: 0.26892,  53: 0.49009,
                 52: 0.82507,  51: 0.05767,  50:-0.83059,  49:-0.41650,  48: 0.94781,  47:-0.57398,  46:-0.76322,  45: 0.66289,
                 44: 0.37461,  43: 0.73447,  42: 0.89262,  41:-0.42237,  40:-0.66102,  39:-0.59665,  38:-0.01843,  37:-0.46484,
                 36: 0.67847,  35: 0.15108,  34: 0.99774,  33:-0.74376,  32:-0.02009,  31: 0.79369,  30:-0.37057,  29: 0.73802,
                 28:-0.07486,  27:-0.47404,  26:-0.10938,  25:-0.73706,  24: 0.39946,  23: 0.28585,  22: 0.28805,  21:-0.06949,
                 20:-0.80488,  19:-0.16351,  18: 0.33881,  17:-0.64279,  16:-0.97857,  15:-0.94752,  14:-0.37150,  13: 0.41335,
                 12:-0.14094,  11:-0.10118,  10:-0.53854,   9:-0.39688,   8:-0.78694,   7:-0.14639,   6: 0.13818,   5: 0.63500,
                  4:-0.32228,   3:-0.55846,   2: 0.79103,   1: 0.09381
   137 |      | 100: 0.28874,  99:-0.53425,  98:-0.83318,  97: 0.80983,  96:-0.86483,  95:-0.64434,  94:-0.12444,  93: 0.00865,
                 92: 0.78512,  91: 0.53838,  90: 0.03830,  89:-0.79004,  88: 0.55698,  87: 0.64743,  86:-0.41928,  85:-0.14571,
                 84: 0.70928,  83: 0.20415,  82: 0.20076,  81:-0.51430,  80: 0.15078,  79:-0.93002,  78: 0.68704,  77: 0.73635,
                 76:-0.15028,  75:-0.96294,  74:-0.67314,  73: 0.18446,  72: 0.38395,  71:-0.99993,  70:-0.70836,  69:-0.00244,
                 68:-0.55722,  67: 0.63953,  66: 0.15557,  65:-0.30738,  64: 0.50888,  63:-0.04878,  62:-0.17893,  61:-0.42798,
                 60: 0.89998,  59: 0.28676,  58:-0.84336,  57: 0.45543,  56: 0.60382,  55: 0.49354,  54: 0.19467,  53:-0.84585,
                 52:-0.55619,  51: 0.07991,  50: 0.41533,  49:-0.93613,  48:-0.10203,  47:-0.43772,  46: 0.61648,  45: 0.52890,
                 44:-0.02940,  43: 0.90965,  42: 0.32798,  41:-0.09500,  40:-0.22159,  39: 0.57899,  38:-0.60818,  37:-0.92270,
                 36:-0.36760,  35: 0.47883,  34: 0.95066,  33: 0.53536,  32:-0.66856,  31:-0.58789,  30: 0.94780,  29:-0.15974,
                 28:-0.13320,  27:-0.60703,  26:-0.34225,  25:-0.28773,  24: 0.78848,  23:-0.37953,  22:-0.41727,  21: 0.20566,
                 20:-0.09818,  19:-0.10056,  18: 0.14413,  17: 0.10573,  16:-0.17316,  15:-0.34882,  14:-0.62246,  13:-0.72269,
                 12: 0.12477,  11: 0.24088,  10: 0.74431,   9:-0.88577,   8:-0.68183,   7: 0.70482,   6: 0.17317,   5:-0.70841,
                  4:-0.87248,   3:-0.21415,   2: 0.54350,   1: 0.92033
   138 |      | 100: 0.83390,  99:-0.44911,  98:-0.93370,  97: 0.72721,  96: 0.10938,  95:-0.17960,  94: 0.94758,  93:-0.10671,
                 92: 0.50705,  91:-0.65156,  90:-0.60190,  89: 0.80994,  88:-0.98175,  87: 0.98813,  86: 0.21809,  85:-0.91064,
                 84:-0.65036,  83: 0.40293,  82:-0.43104,  81: 0.45666,  80: 0.15083,  79:-0.61059,  78:-0.23960,  77: 0.48129,
                 76:-0.93755,  75: 0.93207,  74: 0.67877,  73:-0.51596,  72: 0.22840,  71: 0.05391,  70: 0.18037,  69:-0.60390,
                 68:-0.37608,  67: 0.24885,  66:-0.60969,  65:-0.73052,  64:-0.70540,  63: 0.84025,  62: 0.78295,  61:-0.83934,
                 60: 0.79713,  59: 0.35005,  58: 0.85449,  57:-0.47156,  56: 0.35214,  55: 0.26193,  54: 0.22088,  53: 0.68479,
                 52: 0.69128,  51:-0.67259,  50: 0.07788,  49: 0.57325,  48:-0.30955,  47:-0.26382,  46: 0.54646,  45: 0.86760,
                 44:-0.33134,  43: 0.52109,  42: 0.80117,  41: 0.50679,  40:-0.10470,  39: 0.99630,  38: 0.75566,  37: 0.01545,
                 36:-0.75863,  35:-0.13210,  34: 0.07642,  33:-0.20961,  32: 0.04122,  31:-0.02706,  30: 0.43908,  29: 0.72779,
                 28:-0.23190,  27: 0.99295,  26:-0.83753,  25:-0.32561,  24:-0.11025,  23: 0.57636,  22: 0.99224,  21:-0.96299,
                 20:-0.26002,  19:-0.74895,  18:-0.89781,  17: 0.09096,  16:-0.94867,  15:-0.49862,  14: 0.98803,  13: 0.98103,
                 12:-0.76474,  11: 0.14543,  10: 0.40166,   9: 0.78278,   8: 0.01600,   7: 0.42863,   6:-0.22296,   5: 0.24260,
                  4: 0.72635,   3: 0.33408,   2: 0.60084,   1: 0.67724
   139 |      | 100: 0.81006,  99:-0.84302,  98:-0.99340,  97:-0.16143,  96: 0.78009,  95:-0.79345,  94: 0.81504,  93:-0.13090,
                 92: 0.80384,  91:-0.95994,  90: 0.76695,  89: 0.88852,  88:-0.48975,  87: 0.45302,  86:-0.49702,  85:-0.31046,
                 84:-0.13701,  83:-0.55217,  82: 0.45715,  81:-0.92880,  80:-0.08280,  79: 0.66175,  78: 0.78480,  77:-0.15586,
                 76:-0.01576,  75:-0.12413,  74:-0.01630,  73:-0.98188,  72:-0.42675,  71: 0.59166,  70: 0.81030,  69:-0.57598,
                 68:-0.31211,  67: 0.09575,  66: 0.00894,  65: 0.11503,  64: 0.12012,  63: 0.10206,  62:-0.76843,  61: 0.61823,
                 60:-0.57337,  59:-0.19986,  58:-0.33953,  57: 0.44629,  56: 0.95665,  55: 0.69512,  54: 0.36674,  53: 0.36354,
                 52:-0.68966,  51: 0.14679,  50: 0.73615,  49:-0.47616,  48: 0.16747,  47:-0.93869,  46:-0.45468,  45: 0.70523,
                 44:-0.21359,  43: 0.22047,  42:-0.07052,  41:-0.93774,  40:-0.58115,  39:-0.37984,  38:-0.21446,  37:-0.13802,
                 36:-0.77104,  35:-0.29310,  34:-0.38276,  33: 0.97762,  32:-0.60661,  31: 0.23057,  30: 0.75312,  29: 0.05994,
                 28:-0.73219,  27:-0.33906,  26: 0.83152,  25: 0.51605,  24: 0.74377,  23: 0.73890,  22:-0.18816,  21: 0.08613,
                 20:-0.87287,  19: 0.15160,  18:-0.81900,  17:-0.04081,  16: 0.51619,  15: 0.83979,  14:-0.09938,  13: 0.20838,
                 12: 0.24586,  11: 0.77913,  10:-0.30892,   9: 0.70704,   8:-0.47248,   7:-0.15630,   6: 0.95763,   5: 0.61884,
                  4: 0.01643,   3:-0.41478,   2:-0.19971,   1: 0.70495
   140 |      | 100: 0.37697,  99: 0.66117,  98:-0.11951,  97: 0.60515,  96:-0.28515,  95:-0.91946,  94: 0.15977,  93:-0.37844,
                 92: 0.78414,  91: 0.36823,  90: 0.99052,  89:-0.49283,  88:-0.66109,  87:-0.35896,  86:-0.71872,  85:-0.30016,
                 84:-0.94100,  83:-0.69460,  82:-0.37790,  81: 0.74093,  80: 0.80965,  79: 0.63110,  78:-0.61127,  77: 0.30244,
                 76: 0.50014,  75: 0.30327,  74:-0.13442,  73:-0.59871,  72:-0.20371,  71:-0.22546,  70:-0.86203,  69: 0.32004,
                 68:-0.03199,  67:-0.33582,  66:-0.63754,  65:-0.33231,  64: 0.23602,  63: 0.44831,  62: 0.85351,  61: 0.73864,
                 60:-0.38481,  59: 0.11469,  58: 0.11034,  57:-0.69701,  56: 0.33607,  55: 0.46078,  54:-0.00942,  53:-0.84302,
                 52: 0.26755,  51:-0.78245,  50:-0.58585,  49: 0.18064,  48: 0.57551,  47: 0.39009,  46:-0.39394,  45:-0.17540,
                 44:-0.74612,  43: 0.10489,  42:-0.53105,  41: 0.44235,  40: 0.68044,  39:-0.88948,  38:-0.61709,  37:-0.20427,
                 36:-0.58753,  35: 0.94263,  34:-0.11834,  33:-0.48472,  32: 0.88476,  31:-0.03504,  30:-0.76859,  29: 0.95248,
                 28:-0.75225,  27: 0.14764,  26:-0.92610,  25: 0.40727,  24:-0.56157,  23: 0.93412,  22: 0.78146,  21:-0.62846,
                 20: 0.76669,  19: 0.05327,  18:-0.04453,  17: 0.45057,  16:-0.71150,  15: 0.10827,  14: 0.18369,  13:-0.20821,
                 12:-0.60657,  11: 0.45460,  10: 0.51769,   9:-0.02094,   8: 0.13334,   7:-0.21528,   6: 0.55328,   5:-0.21406,
                  4:-0.45716,   3:-0.73578,   2:-0.93199,   1: 0.30077
   141 |      | 100: 0.59442,  99: 0.11868,  98:-0.35270,  97:-0.07272,  96: 0.37031,  95: 0.71229,  94:-0.23299,  93:-0.49683,
                 92:-0.79622,  91: 0.67873,  90:-0.02601,  89: 0.47787,  88: 0.71260,  87: 0.38814,  86:-0.25849,  85: 0.27802,
                 84:-0.65742,  83: 0.32479,  82:-0.53452,  81:-0.11949,  80:-0.42156,  79: 0.26275,  78: 0.83715,  77:-0.63682,
                 76: 0.17666,  75: 0.55095,  74: 0.54257,  73:-0.84135,  72:-0.83041,  71:-0.36936,  70:-0.08486,  69:-0.55046,
                 68: 0.37410,  67: 0.85370,  66: 0.05982,  65: 0.47884,  64: 0.60210,  63:-0.41824,  62: 0.03064,  61:-0.18025,
                 60: 0.60611,  59:-0.28675,  58: 0.60027,  57:-0.58824,  56:-0.32490,  55: 0.65743,  54: 0.76097,  53: 0.38687,
                 52:-0.32096,  51:-0.54740,  50: 0.62540,  49:-0.74922,  48:-0.01899,  47:-0.52841,  46:-0.83296,  45: 0.12433,
                 44: 0.01141,  43:-0.11370,  42:-0.90086,  41:-0.32873,  40:-0.77184,  39:-0.15312,  38: 0.01538,  37:-0.37135,
                 36: 0.74994,  35:-0.10085,  34: 0.11282,  33:-0.99139,  32: 0.00839,  31:-0.60001,  30:-0.17222,  29:-0.04312,
                 28:-0.53883,  27:-0.86346,  26:-0.49146,  25:-0.26110,  24: 0.66597,  23:-0.29208,  22: 0.82746,  21: 0.59362,
                 20: 0.04044,  19:-0.15883,  18: 0.53208,  17: 0.36608,  16:-0.58964,  15:-0.80340,  14:-0.08488,  13: 0.42760,
                 12:-0.75272,  11:-0.46266,  10:-0.85851,   9:-0.14970,   8:-0.63563,   7: 0.71546,   6: 0.43517,   5: 0.95621,
                  4:-0.89330,   3: 0.74223,   2:-0.24350,   1: 0.95692
   142 |      | 100: 0.39653,  99: 0.68196,  98: 0.58611,  97:-0.69183,  96: 0.17458,  95: 0.95378,  94: 0.46183,  93:-0.10755,
                 92: 0.84366,  91: 0.84761,  90: 0.86157,  89: 0.68933,  88:-0.96496,  87:-0.10292,  86:-0.98174,  85:-0.35680,
                 84:-0.04251,  83:-0.57221,  82:-0.27287,  81:-0.09108,  80:-0.15194,  79: 0.13620,  78:-0.32844,  77: 0.25429,
                 76: 0.77368,  75: 0.97845,  74:-0.48078,  73: 0.49367,  72: 0.08392,  71:-0.18233,  70:-0.49713,  69: 0.55648,
                 68:-0.42276,  67:-0.44392,  66: 0.28185,  65: 0.58618,  64: 0.32054,  63: 0.32015,  62:-0.31111,  61:-0.14952,
                 60:-0.74760,  59: 0.17610,  58: 0.21423,  57: 0.92631,  56:-0.94190,  55: 0.86110,  54:-0.61545,  53: 0.09045,
                 52: 0.33779,  51: 0.18839,  50: 0.58371,  49:-0.13430,  48:-0.53434,  47: 0.71693,  46: 0.26659,  45:-0.20762,
                 44:-0.42131,  43:-0.40430,  42: 0.27511,  41:-0.45445,  40:-0.68267,  39:-0.64323,  38:-0.67955,  37: 0.11093,
                 36: 0.90286,  35: 0.03066,  34:-0.70187,  33: 0.76017,  32: 0.16664,  31: 0.01118,  30:-0.49052,  29: 0.70175,
                 28: 0.69387,  27: 0.35839,  26:-0.96261,  25:-0.51633,  24:-0.58861,  23:-0.02013,  22:-0.66545,  21:-0.77694,
                 20:-0.00457,  19: 0.68680,  18:-0.19522,  17:-0.44462,  16:-0.68301,  15:-0.67150,  14: 0.97375,  13:-0.37124,
                 12: 0.85278,  11:-0.05688,  10:-0.65794,   9:-0.40119,   8: 0.29507,   7: 0.53263,   6: 0.68632,   5: 0.76690,
                  4: 0.38155,   3:-0.88500,   2:-0.67819,   1:-0.10767
   143 |      | 100:-0.90217,  99: 0.47096,  98: 0.22102,  97: 0.35216,  96: 0.75627,  95: 0.60775,  94: 0.61430,  93: 0.86009,
                 92:-0.78215,  91: 0.58865,  90: 0.81818,  89: 0.08735,  88:-0.57796,  87: 0.06091,  86: 0.65317,  85: 0.62396,
                 84:-0.87121,  83: 0.49087,  82: 0.77660,  81: 0.29281,  80:-0.67545,  79: 0.01595,  78: 0.00320,  77: 0.38573,
                 76:-0.02490,  75: 0.93904,  74:-0.92327,  73:-0.92444,  72: 0.69101,  71: 0.20234,  70: 0.65881,  69:-0.41200,
                 68:-0.27575,  67: 0.65705,  66:-0.68627,  65: 0.85213,  64:-0.94378,  63: 0.84810,  62: 0.87592,  61:-0.99054,
                 60:-0.05021,  59: 0.72820,  58: 0.02562,  57: 0.10819,  56: 0.03752,  55: 0.97893,  54:-0.31402,  53:-0.04195,
                 52: 0.14853,  51:-0.87055,  50:-0.71000,  49:-0.95637,  48: 0.01627,  47:-0.48620,  46: 0.62868,  45:-0.18061,
                 44:-0.33447,  43: 0.29000,  42: 0.24375,  41:-0.97804,  40: 0.58999,  39: 0.65817,  38:-0.18840,  37: 0.87649,
                 36:-0.72853,  35: 0.36785,  34: 0.10399,  33: 0.43989,  32:-0.33941,  31:-0.69093,  30:-0.38934,  29: 0.66991,
                 28: 0.97004,  27: 0.05707,  26: 0.25463,  25: 0.14301,  24: 0.58917,  23: 0.71150,  22:-0.40788,  21: 0.33388,
                 20:-0.29123,  19:-0.82957,  18:-0.98798,  17:-0.16438,  16: 0.97458,  15:-0.55619,  14: 0.56763,  13: 0.32219,
                 12: 0.32494,  11: 0.98576,  10:-0.20571,   9:-0.93259,   8: 0.30217,   7:-0.04035,   6: 0.08590,   5: 0.72873,
                  4:-0.72119,   3:-0.59863,   2:-0.40715,   1: 0.32733
   144 |      | 100: 0.37746,  99: 0.11991,  98: 0.01111,  97:-0.49029,  96: 0.31489,  95:-0.11899,  94:-0.46585,  93:-0.05356,
                 92: 0.98339,  91: 0.22618,  90:-0.65814,  89: 0.09629,  88: 0.32157,  87: 0.39318,  86: 0.78621,  85: 0.92616,
                 84:-0.99804,  83: 0.03238,  82: 0.04002,  81: 0.31015,  80: 0.82207,  79:-0.43017,  78:-0.38300,  77: 0.31898,
                 76:-0.41149,  75:-0.44735,  74: 0.57713,  73: 0.12314,  72:-0.06333,  71:-0.11319,  70: 0.20075,  69: 0.49802,
                 68:-0.28891,  67: 0.53451,  66:-0.49482,  65: 0.26164,  64: 0.24179,  63:-0.22554,  62: 0.96204,  61: 0.32597,
                 60: 0.61420,  59: 0.80932,  58:-0.68016,  57: 0.49673,  56:-0.72372,  55: 0.38012,  54:-0.13439,  53:-0.15870,
                 52:-0.10484,  51: 0.44803,  50:-0.24885,  49:-0.98242,  48: 0.00938,  47:-0.96038,  46:-0.70286,  45: 0.10830,
                 44:-0.12609,  43:-0.58348,  42:-0.73544,  41: 0.45599,  40: 0.01855,  39:-0.00320,  38: 0.89351,  37: 0.99506,
                 36: 0.90026,  35:-0.61978,  34: 0.65891,  33:-0.58683,  32: 0.99472,  31: 0.64639,  30: 0.94020,  29: 0.95821,
                 28: 0.51768,  27:-0.67514,  26: 0.56389,  25: 0.18558,  24: 0.37414,  23: 0.37468,  22:-0.97360,  21:-0.21006,
                 20:-0.00904,  19:-0.25943,  18:-0.63191,  17:-0.20500,  16: 0.38999,  15: 0.93357,  14: 0.53255,  13:-0.27762,
                 12: 0.60506,  11:-0.74096,  10:-0.35037,   9: 0.39841,   8: 0.64373,   7: 0.20731,   6:-0.77723,   5: 0.28650,
                  4:-0.64427,   3: 0.83854,   2:-0.46493,   1: 0.68671
   145 |      | 100:-0.78215,  99:-0.27583,  98:-0.11321,  97:-0.82234,  96:-0.14089,  95: 0.57812,  94:-0.02303,  93: 0.36290,
                 92:-0.73672,  91: 0.99738,  90: 0.18044,  89: 0.69387,  88:-0.17959,  87:-0.27165,  86:-0.63903,  85: 0.00665,
                 84: 0.19538,  83:-0.96275,  82: 0.03864,  81: 0.62039,  80: 0.72723,  79:-0.24896,  78:-0.50636,  77:-0.55126,
                 76: 0.01594,  75:-0.00972,  74: 0.12006,  73: 0.42331,  72: 0.70283,  71: 0.06279,  70: 0.38818,  69:-0.85057,
                 68: 0.20793,  67:-0.36537,  66: 0.90068,  65:-0.39953,  64: 0.88760,  63: 0.36354,  62: 0.93030,  61: 0.26204,
                 60: 0.51652,  59:-0.25865,  58: 0.38128,  57:-0.95186,  56:-0.73892,  55: 0.67437,  54: 0.73218,  53: 0.02285,
                 52:-0.74393,  51: 0.21971,  50: 0.63324,  49:-0.62673,  48: 0.66740,  47:-0.56901,  46: 0.41768,  45:-0.00078,
                 44: 0.64321,  43: 0.14724,  42: 0.84546,  41: 0.72496,  40: 0.02971,  39: 0.13693,  38: 0.46321,  37:-0.38200,
                 36:-0.85757,  35: 0.79447,  34: 0.59924,  33: 0.74398,  32:-0.49342,  31: 0.74604,  30:-0.68539,  29:-0.67201,
                 28: 0.35926,  27:-0.42299,  26: 0.72549,  25:-0.43277,  24: 0.17338,  23: 0.42248,  22: 0.65855,  21: 0.99455,
                 20: 0.62779,  19:-0.49805,  18: 0.28755,  17:-0.52568,  16: 0.70430,  15:-0.38236,  14:-0.55243,  13:-0.31911,
                 12:-0.88728,  11: 0.12321,  10: 0.98524,   9:-0.27351,   8:-0.51417,   7:-0.49335,   6: 0.56112,   5: 0.83972,
                  4: 0.98276,   3:-0.71999,   2: 0.58999,   1: 0.42316
   146 |      | 100:-0.25666,  99: 0.83084,  98: 0.12076,  97: 0.01082,  96:-0.03510,  95: 0.89792,  94: 0.78974,  93: 0.27470,
                 92:-0.77910,  91: 0.56619,  90:-0.50640,  89:-0.18206,  88:-0.44725,  87:-0.87271,  86:-0.78972,  85: 0.26565,
                 84:-0.93331,  83: 0.68753,  82:-0.80796,  81: 0.90158,  80:-0.68089,  79: 0.68846,  78: 0.53181,  77:-0.61007,
                 76: 0.45290,  75: 0.10683,  74: 0.10516,  73:-0.42471,  72: 0.68623,  71:-0.18074,  70: 0.69224,  69: 0.01078,
                 68:-0.02890,  67:-0.90813,  66:-0.32773,  65: 0.99566,  64: 0.95743,  63: 0.70534,  62:-0.43803,  61:-0.84620,
                 60: 0.29684,  59: 0.00810,  58: 0.08259,  57:-0.43638,  56:-0.56501,  55:-0.60537,  54: 0.03941,  53: 0.05187,
                 52:-0.33809,  51:-0.94706,  50: 0.63755,  49: 0.16118,  48: 0.76422,  47: 0.06716,  46: 0.90373,  45: 0.45016,
                 44: 0.25505,  43:-0.61953,  42: 0.50245,  41: 0.92090,  40: 0.10608,  39: 0.03564,  38: 0.70337,  37: 0.51002,
                 36:-0.91197,  35:-0.63964,  34:-0.24382,  33: 0.52426,  32: 0.31295,  31: 0.22928,  30: 0.04697,  29:-0.26919,
                 28:-0.90737,  27:-0.37724,  26:-0.35864,  25: 0.38635,  24: 0.66694,  23:-0.14700,  22: 0.06348,  21: 0.95121,
                 20:-0.74512,  19:-0.98796,  18:-0.77546,  17: 0.50827,  16:-0.06264,  15:-0.58429,  14:-0.48864,  13: 0.19681,
                 12: 0.44658,  11: 0.60485,  10:-0.70547,   9:-0.73510,   8:-0.47613,   7:-0.61380,   6: 0.04196,   5:-0.09204,
                  4: 0.28010,   3: 0.54443,   2:-0.74076,   1:-0.05563
   147 |      | 100: 0.36180,  99: 0.46026,  98:-0.08747,  97:-0.20905,  96: 0.60051,  95:-0.95496,  94: 0.46714,  93:-0.80235,
                 92: 0.82476,  91: 0.47634,  90:-0.59983,  89:-0.95636,  88: 0.08556,  87:-0.44044,  86:-0.61364,  85: 0.75197,
                 84: 0.31285,  83: 0.40404,  82: 0.11026,  81:-0.14021,  80: 0.04073,  79: 0.14798,  78:-0.99276,  77:-0.37733,
                 76:-0.85442,  75:-0.46155,  74:-0.03704,  73:-0.21624,  72: 0.45113,  71:-0.34567,  70:-0.73747,  69: 0.00888,
                 68: 0.72399,  67: 0.53199,  66:-0.55687,  65: 0.12908,  64:-0.34230,  63:-0.80638,  62:-0.15809,  61: 0.29646,
                 60: 0.86169,  59:-0.01101,  58: 0.18920,  57: 0.49051,  56: 0.10407,  55:-0.45271,  54: 0.99739,  53:-0.29459,
                 52: 0.60669,  51: 0.71181,  50: 0.44431,  49: 0.45964,  48: 0.08992,  47: 0.21341,  46:-0.56695,  45:-0.99416,
                 44: 0.57787,  43: 0.55671,  42:-0.70530,  41: 0.44828,  40:-0.70225,  39: 0.57492,  38: 0.73599,  37:-0.28080,
                 36:-0.03276,  35: 0.69575,  34: 0.95008,  33:-0.49778,  32: 0.51868,  31: 0.39318,  30:-0.08292,  29:-0.64349,
                 28: 0.04823,  27: 0.23129,  26:-0.28625,  25: 0.77895,  24:-0.77678,  23: 0.89090,  22: 0.80379,  21:-0.80777,
                 20: 0.28238,  19: 0.57252,  18:-0.25520,  17: 0.96658,  16: 0.40618,  15:-0.94261,  14:-0.73652,  13:-0.16745,
                 12: 0.93128,  11:-0.24100,  10:-0.76713,   9: 0.33716,   8: 0.48088,   7: 0.49118,   6: 0.53479,   5: 0.40891,
                  4:-0.54250,   3: 0.00392,   2: 0.18543,   1:-0.64406
   148 |      | 100: 0.08856,  99:-0.69433,  98:-0.38768,  97: 0.93762,  96:-0.86983,  95: 0.67062,  94:-0.19056,  93:-0.30331,
                 92:-0.80615,  91: 0.60075,  90: 0.98151,  89:-0.78729,  88: 0.28542,  87: 0.06351,  86:-0.73150,  85:-0.98608,
                 84: 0.44597,  83: 0.02683,  82: 0.86746,  81:-0.43433,  80: 0.34752,  79:-0.38882,  78:-0.63149,  77:-0.39661,
                 76:-0.51236,  75:-0.52568,  74:-0.68067,  73:-0.65789,  72:-0.23043,  71: 0.46237,  70: 0.86756,  69: 0.03630,
                 68:-0.05235,  67: 0.98355,  66:-0.22856,  65: 0.12077,  64:-0.73554,  63:-0.80036,  62:-0.26551,  61: 0.40704,
                 60: 0.66339,  59:-0.84109,  58: 0.85830,  57:-0.20855,  56:-0.30861,  55: 0.86741,  54: 0.62171,  53: 0.43475,
                 52:-0.02026,  51:-0.74993,  50: 0.94434,  49:-0.78717,  48: 0.78241,  47:-0.49333,  46: 0.99457,  45: 0.75910,
                 44:-0.85764,  43:-0.18191,  42:-0.97252,  41:-0.00034,  40:-0.06510,  39: 0.28718,  38: 0.91675,  37:-0.37091,
                 36:-0.70272,  35:-0.23393,  34: 0.56021,  33:-0.57199,  32: 0.19619,  31:-0.52941,  30: 0.03262,  29:-0.84561,
                 28: 0.41551,  27:-0.56270,  26:-0.57090,  25:-0.55050,  24: 0.77962,  23: 0.64323,  22: 0.64096,  21:-0.17821,
                 20:-0.41951,  19: 0.47057,  18:-0.15614,  17:-0.63037,  16:-0.02352,  15:-0.07564,  14:-0.07966,  13:-0.92465,
                 12: 0.50778,  11:-0.84919,  10: 0.20861,   9:-0.12747,   8:-0.83367,   7:-0.81362,   6:-0.65495,   5:-0.58332,
                  4:-0.08939,   3:-0.89498,   2:-0.81655,   1:-0.23637
   149 |      | 100: 0.71557,  99:-0.87846,  98:-0.29723,  97:-0.61849,  96:-0.63343,  95: 0.09140,  94: 0.05394,  93: 0.52100,
                 92:-0.80268,  91: 0.07862,  90: 0.10183,  89:-0.17063,  88:-0.93180,  87:-0.41460,  86: 0.82397,  85:-0.03366,
                 84:-0.57284,  83: 0.86111,  82: 0.51336,  81:-0.80704,  80: 0.32187,  79: 0.06271,  78: 0.68230,  77:-0.32396,
                 76: 0.72930,  75: 0.50454,  74: 0.16690,  73:-0.85390,  72: 0.20585,  71: 0.69840,  70: 0.57319,  69:-0.55953,
                 68:-0.29347,  67:-0.48979,  66: 0.58449,  65: 0.81610,  64:-0.79738,  63:-0.83274,  62:-0.81024,  61: 0.92793,
                 60:-0.34920,  59: 0.39281,  58:-0.87468,  57:-0.84334,  56: 0.91778,  55:-0.86713,  54: 0.31350,  53:-0.93979,
                 52:-0.28884,  51:-0.66077,  50:-0.07361,  49: 0.54757,  48: 0.45901,  47:-0.59478,  46:-0.97209,  45:-0.22983,
                 44:-0.25412,  43: 0.09555,  42:-0.78839,  41: 0.43807,  40: 0.46527,  39:-0.69744,  38:-0.05630,  37: 0.44742,
                 36:-0.32179,  35:-0.50984,  34: 0.66213,  33:-0.59288,  32: 0.45043,  31:-0.79897,  30: 0.32454,  29:-0.65918,
                 28:-0.86989,  27:-0.89537,  26:-0.17590,  25: 0.88312,  24: 0.86172,  23:-0.48527,  22: 0.31722,  21: 0.46224,
                 20: 0.12619,  19:-0.48017,  18: 0.37570,  17:-0.05271,  16: 0.05239,  15:-0.57831,  14:-0.63323,  13:-0.87650,
                 12: 0.73985,  11: 0.29343,  10:-0.51658,   9: 0.13880,   8: 0.22908,   7: 0.53566,   6: 0.33660,   5: 0.13926,
                  4: 0.69636,   3: 0.36571,   2: 0.44846,   1:-0.01328
   150 |      | 100: 0.42103,  99: 0.85579,  98:-0.05896,  97:-0.84726,  96:-0.05551,  95: 0.37703,  94:-0.88717,  93: 0.00313,
                 92: 0.35788,  91: 0.97982,  90:-0.62661,  89: 0.14170,  88: 0.08565,  87: 0.70436,  86:-0.81915,  85:-0.89101,
                 84:-0.91345,  83:-0.62152,  82:-0.21923,  81: 0.49715,  80: 0.16437,  79:-0.93984,  78:-0.28784,  77: 0.87036,
                 76:-0.60428,  75: 0.95354,  74:-0.85567,  73: 0.47130,  72: 0.22335,  71: 0.18414,  70: 0.84424,  69:-0.01757,
                 68:-0.63461,  67:-0.95873,  66:-0.50949,  65: 0.70842,  64: 0.78748,  63:-0.61663,  62: 0.47765,  61: 0.81911,
                 60: 0.83583,  59:-0.83108,  58:-0.43111,  57: 0.75794,  56:-0.84910,  55: 0.36887,  54:-0.06138,  53:-0.62281,
                 52: 0.24595,  51: 0.71156,  50:-0.11553,  49:-0.11026,  48: 0.37032,  47: 0.21718,  46: 0.27888,  45:-0.81199,
                 44:-0.63089,  43:-0.26504,  42: 0.57013,  41: 0.61673,  40:-0.75987,  39:-0.32679,  38: 0.64052,  37:-0.17844,
                 36:-0.32814,  35: 0.81200,  34: 0.29781,  33:-0.96454,  32: 0.37776,  31:-0.95602,  30: 0.73325,  29:-0.90559,
                 28: 0.03074,  27:-0.33499,  26: 0.45228,  25:-0.13751,  24:-0.78579,  23: 0.52854,  22:-0.59722,  21:-0.35816,
                 20:-0.63538,  19: 0.11288,  18:-0.87068,  17:-0.12536,  16:-0.83710,  15: 0.98751,  14: 0.51334,  13:-0.87447,
                 12:-0.62529,  11:-0.00850,  10: 0.17071,   9:-0.64608,   8:-0.46885,   7: 0.87644,   6:-0.07615,   5:-0.97772,
                  4: 0.03176,   3:-0.53189,   2:-0.58911,   1:-0.90740
   151 |      | 100:-0.64963,  99:-0.79334,  98:-0.32459,  97:-0.29037,  96:-0.51567,  95:-0.41408,  94: 0.53206,  93:-0.84933,
                 92: 0.39273,  91: 0.93900,  90:-0.91049,  89: 0.93683,  88:-0.06011,  87: 0.94318,  86: 0.68840,  85: 0.66649,
                 84: 0.22973,  83: 0.89187,  82:-0.18986,  81:-0.37786,  80: 0.66825,  79: 0.49047,  78:-0.33883,  77: 0.53610,
                 76: 0.26244,  75: 0.24747,  74: 0.15443,  73: 0.30796,  72:-0.74246,  71:-0.96372,  70: 0.72597,  69: 0.99229,
                 68: 0.28155,  67: 0.09540,  66:-0.95558,  65: 0.51466,  64: 0.33445,  63:-0.30179,  62:-0.72038,  61: 0.24283,
                 60:-0.17408,  59: 0.88970,  58:-0.25589,  57:-0.43858,  56:-0.94425,  55: 0.39460,  54:-0.76328,  53: 0.45025,
                 52:-0.79622,  51:-0.70728,  50: 0.91222,  49:-0.61599,  48:-0.75825,  47:-0.01541,  46:-0.13136,  45: 0.94484,
                 44:-0.08338,  43:-0.11140,  42:-0.44316,  41: 0.81690,  40:-0.16247,  39:-0.81505,  38: 0.53149,  37:-0.58297,
                 36:-0.99135,  35:-0.38182,  34:-0.28578,  33: 0.56737,  32: 0.20272,  31:-0.83274,  30:-0.75313,  29:-0.74911,
                 28:-0.78946,  27: 0.46895,  26: 0.97281,  25:-0.31914,  24:-0.89278,  23: 0.82693,  22:-0.32046,  21:-0.61072,
                 20: 0.65448,  19: 0.94753,  18: 0.32507,  17:-0.31772,  16: 0.24987,  15: 0.11602,  14:-0.30163,  13: 0.16205,
                 12: 0.40797,  11:-0.83090,  10:-0.74655,   9:-0.22528,   8: 0.61888,   7:-0.45534,   6:-0.58744,   5: 0.36233,
                  4:-0.89263,   3: 0.01718,   2:-0.55699,   1:-0.51289
   152 |      | 100: 0.98114,  99:-0.65803,  98:-0.47814,  97:-0.43238,  96:-0.24119,  95:-0.93775,  94:-0.01564,  93:-0.81468,
                 92: 0.21895,  91: 0.21133,  90: 0.81487,  89: 0.40289,  88:-0.25568,  87:-0.83504,  86:-0.11134,  85: 0.45442,
                 84:-0.57094,  83: 0.74978,  82: 0.31100,  81: 0.41358,  80: 0.37760,  79: 0.43966,  78:-0.09258,  77:-0.00689,
                 76:-0.42109,  75: 0.83303,  74:-0.59862,  73: 0.77832,  72:-0.58817,  71: 0.26961,  70: 0.82345,  69:-0.19761,
                 68:-0.82526,  67: 0.32262,  66:-0.86219,  65:-0.06469,  64: 0.80732,  63: 0.86515,  62:-0.52487,  61:-0.13110,
                 60: 0.27212,  59:-0.96321,  58:-0.04630,  57: 0.44553,  56:-0.11783,  55:-0.90848,  54:-0.76090,  53:-0.36333,
                 52:-0.40058,  51: 0.43032,  50:-0.22370,  49: 0.10108,  48:-0.70670,  47:-0.46096,  46:-0.77491,  45: 0.44235,
                 44:-0.14759,  43: 0.76554,  42:-0.10665,  41:-0.92496,  40: 0.50423,  39: 0.36897,  38:-0.09732,  37:-0.93722,
                 36:-0.25686,  35: 0.82444,  34:-0.89678,  33:-0.99488,  32: 0.82799,  31: 0.51707,  30: 0.20160,  29:-0.34906,
                 28:-0.77569,  27: 0.54175,  26: 0.65623,  25: 0.56134,  24: 0.87730,  23: 0.94838,  22: 0.26224,  21: 0.02561,
                 20: 0.46089,  19: 0.33156,  18:-0.71426,  17:-0.73120,  16:-0.68880,  15:-0.16964,  14: 0.96019,  13: 0.53209,
                 12:-0.41681,  11: 0.33506,  10:-0.76880,   9:-0.86005,   8:-0.86392,   7:-0.27193,   6: 0.08837,   5:-0.49417,
                  4:-0.96844,   3: 0.33465,   2: 0.57131,   1: 0.01610
   153 |      | 100: 0.22369,  99:-0.34726,  98: 0.74771,  97:-0.60977,  96: 0.65947,  95: 0.41407,  94:-0.57351,  93: 0.92089,
                 92:-0.27576,  91:-0.87789,  90:-0.64095,  89:-0.99136,  88: 0.05052,  87:-0.46877,  86:-0.75619,  85:-0.83094,
                 84:-0.35509,  83:-0.33006,  82: 0.78673,  81:-0.57880,  80: 0.15792,  79:-0.12134,  78:-0.55197,  77:-0.30283,
                 76: 0.64200,  75: 0.45600,  74:-0.00711,  73: 0.60190,  72: 0.11109,  71: 0.10955,  70:-0.09335,  69: 0.37553,
                 68: 0.11820,  67:-0.18251,  66:-0.70929,  65: 0.42823,  64: 0.43223,  63: 0.66643,  62: 0.23704,  61:-0.41174,
                 60: 0.83412,  59:-0.12533,  58: 0.57752,  57:-0.62105,  56:-0.54367,  55:-0.67123,  54:-0.46229,  53:-0.72426,
                 52: 0.13412,  51: 0.50272,  50: 0.44795,  49: 0.45348,  48:-0.62404,  47: 0.19621,  46: 0.05836,  45: 0.38551,
                 44: 0.03050,  43:-0.11838,  42: 0.98474,  41:-0.42419,  40:-0.95343,  39: 0.00408,  38:-0.27563,  37: 0.37453,
                 36: 0.18914,  35:-0.09185,  34: 0.90145,  33:-0.66613,  32: 0.76822,  31:-0.60432,  30:-0.16068,  29: 0.89984,
                 28: 0.72101,  27:-0.36137,  26:-0.84898,  25: 0.80560,  24: 0.40221,  23:-0.68256,  22: 0.26030,  21:-0.35874,
                 20:-0.39245,  19: 0.62852,  18: 0.11587,  17: 0.43594,  16: 0.38613,  15: 0.05610,  14: 0.87348,  13:-0.68112,
                 12: 0.57467,  11: 0.54461,  10: 0.05982,   9:-0.54570,   8:-0.52157,   7: 0.60335,   6:-0.70650,   5:-0.60007,
                  4:-0.72148,   3:-0.25207,   2: 0.64902,   1: 0.15987
