SNNS network definition file V1.4-3D
generated at Tue Oct 27 06:30:16 2015

network name : default
source files :
no. of units : 223
no. of connections : 12360
no. of unit types : 0
no. of site types : 0


learning function : Std_Backpropagation
update function   : Topological_Order


unit default section :

act      | bias     | st | subnet | layer | act func     | out func
---------|----------|----|--------|-------|--------------|-------------
 0.00000 |  0.00000 | h  |      0 |     1 | Act_Logistic | Out_Identity 
---------|----------|----|--------|-------|--------------|-------------


unit definition section :

no. | typeName | unitName | act      | bias     | st | position    | act func | out func | sites
----|----------|----------|----------|----------|----|-------------|----------|----------|-------
  1 |          | noName   |  0.00000 |  0.00000 | i  |   1,  1,  1 |||
  2 |          | noName   |  0.00000 |  0.00000 | i  |   2,  1,  1 |||
  3 |          | noName   |  0.00000 |  0.00000 | i  |   3,  1,  1 |||
  4 |          | noName   |  0.00000 |  0.00000 | i  |   4,  1,  1 |||
  5 |          | noName   |  0.00000 |  0.00000 | i  |   5,  1,  1 |||
  6 |          | noName   |  0.00000 |  0.00000 | i  |   6,  1,  1 |||
  7 |          | noName   |  0.00000 |  0.00000 | i  |   7,  1,  1 |||
  8 |          | noName   |  0.00000 |  0.00000 | i  |   8,  1,  1 |||
  9 |          | noName   |  0.00000 |  0.00000 | i  |   9,  1,  1 |||
 10 |          | noName   |  0.00000 |  0.00000 | i  |  10,  1,  1 |||
 11 |          | noName   |  0.00000 |  0.00000 | i  |  11,  1,  1 |||
 12 |          | noName   |  0.00000 |  0.00000 | i  |  12,  1,  1 |||
 13 |          | noName   |  0.00000 |  0.00000 | i  |  13,  1,  1 |||
 14 |          | noName   |  0.00000 |  0.00000 | i  |  14,  1,  1 |||
 15 |          | noName   |  0.00000 |  0.00000 | i  |  15,  1,  1 |||
 16 |          | noName   |  0.00000 |  0.00000 | i  |  16,  1,  1 |||
 17 |          | noName   |  0.00000 |  0.00000 | i  |  17,  1,  1 |||
 18 |          | noName   |  0.00000 |  0.00000 | i  |  18,  1,  1 |||
 19 |          | noName   |  0.00000 |  0.00000 | i  |  19,  1,  1 |||
 20 |          | noName   |  0.00000 |  0.00000 | i  |  20,  1,  1 |||
 21 |          | noName   |  0.00000 |  0.00000 | i  |  21,  1,  1 |||
 22 |          | noName   |  0.00000 |  0.00000 | i  |  22,  1,  1 |||
 23 |          | noName   |  0.00000 |  0.00000 | i  |  23,  1,  1 |||
 24 |          | noName   |  0.00000 |  0.00000 | i  |  24,  1,  1 |||
 25 |          | noName   |  0.00000 |  0.00000 | i  |  25,  1,  1 |||
 26 |          | noName   |  0.00000 |  0.00000 | i  |  26,  1,  1 |||
 27 |          | noName   |  0.00000 |  0.00000 | i  |  27,  1,  1 |||
 28 |          | noName   |  0.00000 |  0.00000 | i  |  28,  1,  1 |||
 29 |          | noName   |  0.00000 |  0.00000 | i  |  29,  1,  1 |||
 30 |          | noName   |  0.00000 |  0.00000 | i  |  30,  1,  1 |||
 31 |          | noName   |  0.00000 |  0.00000 | i  |  31,  1,  1 |||
 32 |          | noName   |  0.00000 |  0.00000 | i  |  32,  1,  1 |||
 33 |          | noName   |  0.00000 |  0.00000 | i  |  33,  1,  1 |||
 34 |          | noName   |  0.00000 |  0.00000 | i  |  34,  1,  1 |||
 35 |          | noName   |  0.00000 |  0.00000 | i  |  35,  1,  1 |||
 36 |          | noName   |  0.00000 |  0.00000 | i  |  36,  1,  1 |||
 37 |          | noName   |  0.00000 |  0.00000 | i  |  37,  1,  1 |||
 38 |          | noName   |  0.00000 |  0.00000 | i  |  38,  1,  1 |||
 39 |          | noName   |  0.00000 |  0.00000 | i  |  39,  1,  1 |||
 40 |          | noName   |  0.00000 |  0.00000 | i  |  40,  1,  1 |||
 41 |          | noName   |  0.00000 |  0.00000 | i  |  41,  1,  1 |||
 42 |          | noName   |  0.00000 |  0.00000 | i  |  42,  1,  1 |||
 43 |          | noName   |  0.00000 |  0.00000 | i  |  43,  1,  1 |||
 44 |          | noName   |  0.00000 |  0.00000 | i  |  44,  1,  1 |||
 45 |          | noName   |  0.00000 |  0.00000 | i  |  45,  1,  1 |||
 46 |          | noName   |  0.00000 |  0.00000 | i  |  46,  1,  1 |||
 47 |          | noName   |  0.00000 |  0.00000 | i  |  47,  1,  1 |||
 48 |          | noName   |  0.00000 |  0.00000 | i  |  48,  1,  1 |||
 49 |          | noName   |  0.00000 |  0.00000 | i  |  49,  1,  1 |||
 50 |          | noName   |  0.00000 |  0.00000 | i  |  50,  1,  1 |||
 51 |          | noName   |  0.00000 |  0.00000 | i  |  51,  1,  1 |||
 52 |          | noName   |  0.00000 |  0.00000 | i  |  52,  1,  1 |||
 53 |          | noName   |  0.00000 |  0.00000 | i  |  53,  1,  1 |||
 54 |          | noName   |  0.00000 |  0.00000 | i  |  54,  1,  1 |||
 55 |          | noName   |  0.00000 |  0.00000 | i  |  55,  1,  1 |||
 56 |          | noName   |  0.00000 |  0.00000 | i  |  56,  1,  1 |||
 57 |          | noName   |  0.00000 |  0.00000 | i  |  57,  1,  1 |||
 58 |          | noName   |  0.00000 |  0.00000 | i  |  58,  1,  1 |||
 59 |          | noName   |  0.00000 |  0.00000 | i  |  59,  1,  1 |||
 60 |          | noName   |  0.00000 |  0.00000 | i  |  60,  1,  1 |||
 61 |          | noName   |  0.00000 |  0.00000 | i  |  61,  1,  1 |||
 62 |          | noName   |  0.00000 |  0.00000 | i  |  62,  1,  1 |||
 63 |          | noName   |  0.00000 |  0.00000 | i  |  63,  1,  1 |||
 64 |          | noName   |  0.00000 |  0.00000 | i  |  64,  1,  1 |||
 65 |          | noName   |  0.00000 |  0.00000 | i  |  65,  1,  1 |||
 66 |          | noName   |  0.00000 |  0.00000 | i  |  66,  1,  1 |||
 67 |          | noName   |  0.00000 |  0.00000 | i  |  67,  1,  1 |||
 68 |          | noName   |  0.00000 |  0.00000 | i  |  68,  1,  1 |||
 69 |          | noName   |  0.00000 |  0.00000 | i  |  69,  1,  1 |||
 70 |          | noName   |  0.00000 |  0.00000 | i  |  70,  1,  1 |||
 71 |          | noName   |  0.00000 |  0.00000 | i  |  71,  1,  1 |||
 72 |          | noName   |  0.00000 |  0.00000 | i  |  72,  1,  1 |||
 73 |          | noName   |  0.00000 |  0.00000 | i  |  73,  1,  1 |||
 74 |          | noName   |  0.00000 |  0.00000 | i  |  74,  1,  1 |||
 75 |          | noName   |  0.00000 |  0.00000 | i  |  75,  1,  1 |||
 76 |          | noName   |  0.00000 |  0.00000 | i  |  76,  1,  1 |||
 77 |          | noName   |  0.00000 |  0.00000 | i  |  77,  1,  1 |||
 78 |          | noName   |  0.00000 |  0.00000 | i  |  78,  1,  1 |||
 79 |          | noName   |  0.00000 |  0.00000 | i  |  79,  1,  1 |||
 80 |          | noName   |  0.00000 |  0.00000 | i  |  80,  1,  1 |||
 81 |          | noName   |  0.00000 |  0.00000 | i  |  81,  1,  1 |||
 82 |          | noName   |  0.00000 |  0.00000 | i  |  82,  1,  1 |||
 83 |          | noName   |  0.00000 |  0.00000 | i  |  83,  1,  1 |||
 84 |          | noName   |  0.00000 |  0.00000 | i  |  84,  1,  1 |||
 85 |          | noName   |  0.00000 |  0.00000 | i  |  85,  1,  1 |||
 86 |          | noName   |  0.00000 |  0.00000 | i  |  86,  1,  1 |||
 87 |          | noName   |  0.00000 |  0.00000 | i  |  87,  1,  1 |||
 88 |          | noName   |  0.00000 |  0.00000 | i  |  88,  1,  1 |||
 89 |          | noName   |  0.00000 |  0.00000 | i  |  89,  1,  1 |||
 90 |          | noName   |  0.00000 |  0.00000 | i  |  90,  1,  1 |||
 91 |          | noName   |  0.00000 |  0.00000 | i  |  91,  1,  1 |||
 92 |          | noName   |  0.00000 |  0.00000 | i  |  92,  1,  1 |||
 93 |          | noName   |  0.00000 |  0.00000 | i  |  93,  1,  1 |||
 94 |          | noName   |  0.00000 |  0.00000 | i  |  94,  1,  1 |||
 95 |          | noName   |  0.00000 |  0.00000 | i  |  95,  1,  1 |||
 96 |          | noName   |  0.00000 |  0.00000 | i  |  96,  1,  1 |||
 97 |          | noName   |  0.00000 |  0.00000 | i  |  97,  1,  1 |||
 98 |          | noName   |  0.00000 |  0.00000 | i  |  98,  1,  1 |||
 99 |          | noName   |  0.00000 |  0.00000 | i  |  99,  1,  1 |||
100 |          | noName   |  0.00000 |  0.00000 | i  | 100,  1,  1 |||
101 |          | noName   |  0.00000 |  0.00000 | h  |   1,  2,  2 |||
102 |          | noName   |  0.00000 |  0.00000 | h  |   2,  2,  2 |||
103 |          | noName   |  0.00000 |  0.00000 | h  |   3,  2,  2 |||
104 |          | noName   |  0.00000 |  0.00000 | h  |   4,  2,  2 |||
105 |          | noName   |  0.00000 |  0.00000 | h  |   5,  2,  2 |||
106 |          | noName   |  0.00000 |  0.00000 | h  |   6,  2,  2 |||
107 |          | noName   |  0.00000 |  0.00000 | h  |   7,  2,  2 |||
108 |          | noName   |  0.00000 |  0.00000 | h  |   8,  2,  2 |||
109 |          | noName   |  0.00000 |  0.00000 | h  |   9,  2,  2 |||
110 |          | noName   |  0.00000 |  0.00000 | h  |  10,  2,  2 |||
111 |          | noName   |  0.00000 |  0.00000 | h  |  11,  2,  2 |||
112 |          | noName   |  0.00000 |  0.00000 | h  |  12,  2,  2 |||
113 |          | noName   |  0.00000 |  0.00000 | h  |  13,  2,  2 |||
114 |          | noName   |  0.00000 |  0.00000 | h  |  14,  2,  2 |||
115 |          | noName   |  0.00000 |  0.00000 | h  |  15,  2,  2 |||
116 |          | noName   |  0.00000 |  0.00000 | h  |  16,  2,  2 |||
117 |          | noName   |  0.00000 |  0.00000 | h  |  17,  2,  2 |||
118 |          | noName   |  0.00000 |  0.00000 | h  |  18,  2,  2 |||
119 |          | noName   |  0.00000 |  0.00000 | h  |  19,  2,  2 |||
120 |          | noName   |  0.00000 |  0.00000 | h  |  20,  2,  2 |||
121 |          | noName   |  0.00000 |  0.00000 | h  |  21,  2,  2 |||
122 |          | noName   |  0.00000 |  0.00000 | h  |  22,  2,  2 |||
123 |          | noName   |  0.00000 |  0.00000 | h  |  23,  2,  2 |||
124 |          | noName   |  0.00000 |  0.00000 | h  |  24,  2,  2 |||
125 |          | noName   |  0.00000 |  0.00000 | h  |  25,  2,  2 |||
126 |          | noName   |  0.00000 |  0.00000 | h  |  26,  2,  2 |||
127 |          | noName   |  0.00000 |  0.00000 | h  |  27,  2,  2 |||
128 |          | noName   |  0.00000 |  0.00000 | h  |  28,  2,  2 |||
129 |          | noName   |  0.00000 |  0.00000 | h  |  29,  2,  2 |||
130 |          | noName   |  0.00000 |  0.00000 | h  |  30,  2,  2 |||
131 |          | noName   |  0.00000 |  0.00000 | h  |  31,  2,  2 |||
132 |          | noName   |  0.00000 |  0.00000 | h  |  32,  2,  2 |||
133 |          | noName   |  0.00000 |  0.00000 | h  |  33,  2,  2 |||
134 |          | noName   |  0.00000 |  0.00000 | h  |  34,  2,  2 |||
135 |          | noName   |  0.00000 |  0.00000 | h  |  35,  2,  2 |||
136 |          | noName   |  0.00000 |  0.00000 | h  |  36,  2,  2 |||
137 |          | noName   |  0.00000 |  0.00000 | h  |  37,  2,  2 |||
138 |          | noName   |  0.00000 |  0.00000 | h  |  38,  2,  2 |||
139 |          | noName   |  0.00000 |  0.00000 | h  |  39,  2,  2 |||
140 |          | noName   |  0.00000 |  0.00000 | h  |  40,  2,  2 |||
141 |          | noName   |  0.00000 |  0.00000 | h  |  41,  2,  2 |||
142 |          | noName   |  0.00000 |  0.00000 | h  |  42,  2,  2 |||
143 |          | noName   |  0.00000 |  0.00000 | h  |  43,  2,  2 |||
144 |          | noName   |  0.00000 |  0.00000 | h  |  44,  2,  2 |||
145 |          | noName   |  0.00000 |  0.00000 | h  |  45,  2,  2 |||
146 |          | noName   |  0.00000 |  0.00000 | h  |  46,  2,  2 |||
147 |          | noName   |  0.00000 |  0.00000 | h  |  47,  2,  2 |||
148 |          | noName   |  0.00000 |  0.00000 | h  |  48,  2,  2 |||
149 |          | noName   |  0.00000 |  0.00000 | h  |  49,  2,  2 |||
150 |          | noName   |  0.00000 |  0.00000 | h  |  50,  2,  2 |||
151 |          | noName   |  0.00000 |  0.00000 | h  |  51,  2,  2 |||
152 |          | noName   |  0.00000 |  0.00000 | h  |  52,  2,  2 |||
153 |          | noName   |  0.00000 |  0.00000 | h  |  53,  2,  2 |||
154 |          | noName   |  0.00000 |  0.00000 | h  |  54,  2,  2 |||
155 |          | noName   |  0.00000 |  0.00000 | h  |  55,  2,  2 |||
156 |          | noName   |  0.00000 |  0.00000 | h  |  56,  2,  2 |||
157 |          | noName   |  0.00000 |  0.00000 | h  |  57,  2,  2 |||
158 |          | noName   |  0.00000 |  0.00000 | h  |  58,  2,  2 |||
159 |          | noName   |  0.00000 |  0.00000 | h  |  59,  2,  2 |||
160 |          | noName   |  0.00000 |  0.00000 | h  |  60,  2,  2 |||
161 |          | noName   |  0.00000 |  0.00000 | h  |  61,  2,  2 |||
162 |          | noName   |  0.00000 |  0.00000 | h  |  62,  2,  2 |||
163 |          | noName   |  0.00000 |  0.00000 | h  |  63,  2,  2 |||
164 |          | noName   |  0.00000 |  0.00000 | h  |  64,  2,  2 |||
165 |          | noName   |  0.00000 |  0.00000 | h  |  65,  2,  2 |||
166 |          | noName   |  0.00000 |  0.00000 | h  |  66,  2,  2 |||
167 |          | noName   |  0.00000 |  0.00000 | h  |  67,  2,  2 |||
168 |          | noName   |  0.00000 |  0.00000 | h  |  68,  2,  2 |||
169 |          | noName   |  0.00000 |  0.00000 | h  |  69,  2,  2 |||
170 |          | noName   |  0.00000 |  0.00000 | h  |  70,  2,  2 |||
171 |          | noName   |  0.00000 |  0.00000 | h  |  71,  2,  2 |||
172 |          | noName   |  0.00000 |  0.00000 | h  |  72,  2,  2 |||
173 |          | noName   |  0.00000 |  0.00000 | h  |  73,  2,  2 |||
174 |          | noName   |  0.00000 |  0.00000 | h  |  74,  2,  2 |||
175 |          | noName   |  0.00000 |  0.00000 | h  |  75,  2,  2 |||
176 |          | noName   |  0.00000 |  0.00000 | h  |  76,  2,  2 |||
177 |          | noName   |  0.00000 |  0.00000 | h  |  77,  2,  2 |||
178 |          | noName   |  0.00000 |  0.00000 | h  |  78,  2,  2 |||
179 |          | noName   |  0.00000 |  0.00000 | h  |  79,  2,  2 |||
180 |          | noName   |  0.00000 |  0.00000 | h  |  80,  2,  2 |||
181 |          | noName   |  0.00000 |  0.00000 | h  |  81,  2,  2 |||
182 |          | noName   |  0.00000 |  0.00000 | h  |  82,  2,  2 |||
183 |          | noName   |  0.00000 |  0.00000 | h  |  83,  2,  2 |||
184 |          | noName   |  0.00000 |  0.00000 | h  |  84,  2,  2 |||
185 |          | noName   |  0.00000 |  0.00000 | h  |  85,  2,  2 |||
186 |          | noName   |  0.00000 |  0.00000 | h  |  86,  2,  2 |||
187 |          | noName   |  0.00000 |  0.00000 | h  |  87,  2,  2 |||
188 |          | noName   |  0.00000 |  0.00000 | h  |  88,  2,  2 |||
189 |          | noName   |  0.00000 |  0.00000 | h  |  89,  2,  2 |||
190 |          | noName   |  0.00000 |  0.00000 | h  |  90,  2,  2 |||
191 |          | noName   |  0.00000 |  0.00000 | h  |  91,  2,  2 |||
192 |          | noName   |  0.00000 |  0.00000 | h  |  92,  2,  2 |||
193 |          | noName   |  0.00000 |  0.00000 | h  |  93,  2,  2 |||
194 |          | noName   |  0.00000 |  0.00000 | h  |  94,  2,  2 |||
195 |          | noName   |  0.00000 |  0.00000 | h  |  95,  2,  2 |||
196 |          | noName   |  0.00000 |  0.00000 | h  |  96,  2,  2 |||
197 |          | noName   |  0.00000 |  0.00000 | h  |  97,  2,  2 |||
198 |          | noName   |  0.00000 |  0.00000 | h  |  98,  2,  2 |||
199 |          | noName   |  0.00000 |  0.00000 | h  |  99,  2,  2 |||
200 |          | noName   |  0.00000 |  0.00000 | h  | 100,  2,  2 |||
201 |          | noName   |  0.00000 |  0.00000 | h  | 101,  2,  2 |||
202 |          | noName   |  0.00000 |  0.00000 | h  | 102,  2,  2 |||
203 |          | noName   |  0.00000 |  0.00000 | h  | 103,  2,  2 |||
204 |          | noName   |  0.00000 |  0.00000 | h  | 104,  2,  2 |||
205 |          | noName   |  0.00000 |  0.00000 | h  | 105,  2,  2 |||
206 |          | noName   |  0.00000 |  0.00000 | h  | 106,  2,  2 |||
207 |          | noName   |  0.00000 |  0.00000 | h  | 107,  2,  2 |||
208 |          | noName   |  0.00000 |  0.00000 | h  | 108,  2,  2 |||
209 |          | noName   |  0.00000 |  0.00000 | h  | 109,  2,  2 |||
210 |          | noName   |  0.00000 |  0.00000 | h  | 110,  2,  2 |||
211 |          | noName   |  0.00000 |  0.00000 | h  | 111,  2,  2 |||
212 |          | noName   |  0.00000 |  0.00000 | h  | 112,  2,  2 |||
213 |          | noName   |  0.00000 |  0.00000 | h  | 113,  2,  2 |||
214 |          | noName   |  0.00000 |  0.00000 | h  | 114,  2,  2 |||
215 |          | noName   |  0.00000 |  0.00000 | h  | 115,  2,  2 |||
216 |          | noName   |  0.00000 |  0.00000 | h  | 116,  2,  2 |||
217 |          | noName   |  0.00000 |  0.00000 | h  | 117,  2,  2 |||
218 |          | noName   |  0.00000 |  0.00000 | h  | 118,  2,  2 |||
219 |          | noName   |  0.00000 |  0.00000 | h  | 119,  2,  2 |||
220 |          | noName   |  0.00000 |  0.00000 | h  | 120,  2,  2 |||
221 |          | noName   |  0.00000 |  0.00000 | o  |   1,  3,  3 |||
222 |          | noName   |  0.00000 |  0.00000 | o  |   2,  3,  3 |||
223 |          | noName   |  0.00000 |  0.00000 | o  |   3,  3,  3 |||
----|----------|----------|----------|----------|----|-------------|----------|----------|-------


connection definition section :

target | site | source:weight
-------|------|----------------------------------------------------------------------------------------------------------------
   101 |      | 100: 0.00000,  99: 0.00000,  98: 0.00000,  97: 0.00000,  96: 0.00000,  95: 0.00000,  94: 0.00000,  93: 0.00000,
                 92: 0.00000,  91: 0.00000,  90: 0.00000,  89: 0.00000,  88: 0.00000,  87: 0.00000,  86: 0.00000,  85: 0.00000,
                 84: 0.00000,  83: 0.00000,  82: 0.00000,  81: 0.00000,  80: 0.00000,  79: 0.00000,  78: 0.00000,  77: 0.00000,
                 76: 0.00000,  75: 0.00000,  74: 0.00000,  73: 0.00000,  72: 0.00000,  71: 0.00000,  70: 0.00000,  69: 0.00000,
                 68: 0.00000,  67: 0.00000,  66: 0.00000,  65: 0.00000,  64: 0.00000,  63: 0.00000,  62: 0.00000,  61: 0.00000,
                 60: 0.00000,  59: 0.00000,  58: 0.00000,  57: 0.00000,  56: 0.00000,  55: 0.00000,  54: 0.00000,  53: 0.00000,
                 52: 0.00000,  51: 0.00000,  50: 0.00000,  49: 0.00000,  48: 0.00000,  47: 0.00000,  46: 0.00000,  45: 0.00000,
                 44: 0.00000,  43: 0.00000,  42: 0.00000,  41: 0.00000,  40: 0.00000,  39: 0.00000,  38: 0.00000,  37: 0.00000,
                 36: 0.00000,  35: 0.00000,  34: 0.00000,  33: 0.00000,  32: 0.00000,  31: 0.00000,  30: 0.00000,  29: 0.00000,
                 28: 0.00000,  27: 0.00000,  26: 0.00000,  25: 0.00000,  24: 0.00000,  23: 0.00000,  22: 0.00000,  21: 0.00000,
                 20: 0.00000,  19: 0.00000,  18: 0.00000,  17: 0.00000,  16: 0.00000,  15: 0.00000,  14: 0.00000,  13: 0.00000,
                 12: 0.00000,  11: 0.00000,  10: 0.00000,   9: 0.00000,   8: 0.00000,   7: 0.00000,   6: 0.00000,   5: 0.00000,
                  4: 0.00000,   3: 0.00000,   2: 0.00000,   1: 0.00000
   102 |      | 100: 0.00000,  99: 0.00000,  98: 0.00000,  97: 0.00000,  96: 0.00000,  95: 0.00000,  94: 0.00000,  93: 0.00000,
                 92: 0.00000,  91: 0.00000,  90: 0.00000,  89: 0.00000,  88: 0.00000,  87: 0.00000,  86: 0.00000,  85: 0.00000,
                 84: 0.00000,  83: 0.00000,  82: 0.00000,  81: 0.00000,  80: 0.00000,  79: 0.00000,  78: 0.00000,  77: 0.00000,
                 76: 0.00000,  75: 0.00000,  74: 0.00000,  73: 0.00000,  72: 0.00000,  71: 0.00000,  70: 0.00000,  69: 0.00000,
                 68: 0.00000,  67: 0.00000,  66: 0.00000,  65: 0.00000,  64: 0.00000,  63: 0.00000,  62: 0.00000,  61: 0.00000,
                 60: 0.00000,  59: 0.00000,  58: 0.00000,  57: 0.00000,  56: 0.00000,  55: 0.00000,  54: 0.00000,  53: 0.00000,
                 52: 0.00000,  51: 0.00000,  50: 0.00000,  49: 0.00000,  48: 0.00000,  47: 0.00000,  46: 0.00000,  45: 0.00000,
                 44: 0.00000,  43: 0.00000,  42: 0.00000,  41: 0.00000,  40: 0.00000,  39: 0.00000,  38: 0.00000,  37: 0.00000,
                 36: 0.00000,  35: 0.00000,  34: 0.00000,  33: 0.00000,  32: 0.00000,  31: 0.00000,  30: 0.00000,  29: 0.00000,
                 28: 0.00000,  27: 0.00000,  26: 0.00000,  25: 0.00000,  24: 0.00000,  23: 0.00000,  22: 0.00000,  21: 0.00000,
                 20: 0.00000,  19: 0.00000,  18: 0.00000,  17: 0.00000,  16: 0.00000,  15: 0.00000,  14: 0.00000,  13: 0.00000,
                 12: 0.00000,  11: 0.00000,  10: 0.00000,   9: 0.00000,   8: 0.00000,   7: 0.00000,   6: 0.00000,   5: 0.00000,
                  4: 0.00000,   3: 0.00000,   2: 0.00000,   1: 0.00000
   103 |      | 100: 0.00000,  99: 0.00000,  98: 0.00000,  97: 0.00000,  96: 0.00000,  95: 0.00000,  94: 0.00000,  93: 0.00000,
                 92: 0.00000,  91: 0.00000,  90: 0.00000,  89: 0.00000,  88: 0.00000,  87: 0.00000,  86: 0.00000,  85: 0.00000,
                 84: 0.00000,  83: 0.00000,  82: 0.00000,  81: 0.00000,  80: 0.00000,  79: 0.00000,  78: 0.00000,  77: 0.00000,
                 76: 0.00000,  75: 0.00000,  74: 0.00000,  73: 0.00000,  72: 0.00000,  71: 0.00000,  70: 0.00000,  69: 0.00000,
                 68: 0.00000,  67: 0.00000,  66: 0.00000,  65: 0.00000,  64: 0.00000,  63: 0.00000,  62: 0.00000,  61: 0.00000,
                 60: 0.00000,  59: 0.00000,  58: 0.00000,  57: 0.00000,  56: 0.00000,  55: 0.00000,  54: 0.00000,  53: 0.00000,
                 52: 0.00000,  51: 0.00000,  50: 0.00000,  49: 0.00000,  48: 0.00000,  47: 0.00000,  46: 0.00000,  45: 0.00000,
                 44: 0.00000,  43: 0.00000,  42: 0.00000,  41: 0.00000,  40: 0.00000,  39: 0.00000,  38: 0.00000,  37: 0.00000,
                 36: 0.00000,  35: 0.00000,  34: 0.00000,  33: 0.00000,  32: 0.00000,  31: 0.00000,  30: 0.00000,  29: 0.00000,
                 28: 0.00000,  27: 0.00000,  26: 0.00000,  25: 0.00000,  24: 0.00000,  23: 0.00000,  22: 0.00000,  21: 0.00000,
                 20: 0.00000,  19: 0.00000,  18: 0.00000,  17: 0.00000,  16: 0.00000,  15: 0.00000,  14: 0.00000,  13: 0.00000,
                 12: 0.00000,  11: 0.00000,  10: 0.00000,   9: 0.00000,   8: 0.00000,   7: 0.00000,   6: 0.00000,   5: 0.00000,
                  4: 0.00000,   3: 0.00000,   2: 0.00000,   1: 0.00000
   104 |      | 100: 0.00000,  99: 0.00000,  98: 0.00000,  97: 0.00000,  96: 0.00000,  95: 0.00000,  94: 0.00000,  93: 0.00000,
                 92: 0.00000,  91: 0.00000,  90: 0.00000,  89: 0.00000,  88: 0.00000,  87: 0.00000,  86: 0.00000,  85: 0.00000,
                 84: 0.00000,  83: 0.00000,  82: 0.00000,  81: 0.00000,  80: 0.00000,  79: 0.00000,  78: 0.00000,  77: 0.00000,
                 76: 0.00000,  75: 0.00000,  74: 0.00000,  73: 0.00000,  72: 0.00000,  71: 0.00000,  70: 0.00000,  69: 0.00000,
                 68: 0.00000,  67: 0.00000,  66: 0.00000,  65: 0.00000,  64: 0.00000,  63: 0.00000,  62: 0.00000,  61: 0.00000,
                 60: 0.00000,  59: 0.00000,  58: 0.00000,  57: 0.00000,  56: 0.00000,  55: 0.00000,  54: 0.00000,  53: 0.00000,
                 52: 0.00000,  51: 0.00000,  50: 0.00000,  49: 0.00000,  48: 0.00000,  47: 0.00000,  46: 0.00000,  45: 0.00000,
                 44: 0.00000,  43: 0.00000,  42: 0.00000,  41: 0.00000,  40: 0.00000,  39: 0.00000,  38: 0.00000,  37: 0.00000,
                 36: 0.00000,  35: 0.00000,  34: 0.00000,  33: 0.00000,  32: 0.00000,  31: 0.00000,  30: 0.00000,  29: 0.00000,
                 28: 0.00000,  27: 0.00000,  26: 0.00000,  25: 0.00000,  24: 0.00000,  23: 0.00000,  22: 0.00000,  21: 0.00000,
                 20: 0.00000,  19: 0.00000,  18: 0.00000,  17: 0.00000,  16: 0.00000,  15: 0.00000,  14: 0.00000,  13: 0.00000,
                 12: 0.00000,  11: 0.00000,  10: 0.00000,   9: 0.00000,   8: 0.00000,   7: 0.00000,   6: 0.00000,   5: 0.00000,
                  4: 0.00000,   3: 0.00000,   2: 0.00000,   1: 0.00000
   105 |      | 100: 0.00000,  99: 0.00000,  98: 0.00000,  97: 0.00000,  96: 0.00000,  95: 0.00000,  94: 0.00000,  93: 0.00000,
                 92: 0.00000,  91: 0.00000,  90: 0.00000,  89: 0.00000,  88: 0.00000,  87: 0.00000,  86: 0.00000,  85: 0.00000,
                 84: 0.00000,  83: 0.00000,  82: 0.00000,  81: 0.00000,  80: 0.00000,  79: 0.00000,  78: 0.00000,  77: 0.00000,
                 76: 0.00000,  75: 0.00000,  74: 0.00000,  73: 0.00000,  72: 0.00000,  71: 0.00000,  70: 0.00000,  69: 0.00000,
                 68: 0.00000,  67: 0.00000,  66: 0.00000,  65: 0.00000,  64: 0.00000,  63: 0.00000,  62: 0.00000,  61: 0.00000,
                 60: 0.00000,  59: 0.00000,  58: 0.00000,  57: 0.00000,  56: 0.00000,  55: 0.00000,  54: 0.00000,  53: 0.00000,
                 52: 0.00000,  51: 0.00000,  50: 0.00000,  49: 0.00000,  48: 0.00000,  47: 0.00000,  46: 0.00000,  45: 0.00000,
                 44: 0.00000,  43: 0.00000,  42: 0.00000,  41: 0.00000,  40: 0.00000,  39: 0.00000,  38: 0.00000,  37: 0.00000,
                 36: 0.00000,  35: 0.00000,  34: 0.00000,  33: 0.00000,  32: 0.00000,  31: 0.00000,  30: 0.00000,  29: 0.00000,
                 28: 0.00000,  27: 0.00000,  26: 0.00000,  25: 0.00000,  24: 0.00000,  23: 0.00000,  22: 0.00000,  21: 0.00000,
                 20: 0.00000,  19: 0.00000,  18: 0.00000,  17: 0.00000,  16: 0.00000,  15: 0.00000,  14: 0.00000,  13: 0.00000,
                 12: 0.00000,  11: 0.00000,  10: 0.00000,   9: 0.00000,   8: 0.00000,   7: 0.00000,   6: 0.00000,   5: 0.00000,
                  4: 0.00000,   3: 0.00000,   2: 0.00000,   1: 0.00000
   106 |      | 100: 0.00000,  99: 0.00000,  98: 0.00000,  97: 0.00000,  96: 0.00000,  95: 0.00000,  94: 0.00000,  93: 0.00000,
                 92: 0.00000,  91: 0.00000,  90: 0.00000,  89: 0.00000,  88: 0.00000,  87: 0.00000,  86: 0.00000,  85: 0.00000,
                 84: 0.00000,  83: 0.00000,  82: 0.00000,  81: 0.00000,  80: 0.00000,  79: 0.00000,  78: 0.00000,  77: 0.00000,
                 76: 0.00000,  75: 0.00000,  74: 0.00000,  73: 0.00000,  72: 0.00000,  71: 0.00000,  70: 0.00000,  69: 0.00000,
                 68: 0.00000,  67: 0.00000,  66: 0.00000,  65: 0.00000,  64: 0.00000,  63: 0.00000,  62: 0.00000,  61: 0.00000,
                 60: 0.00000,  59: 0.00000,  58: 0.00000,  57: 0.00000,  56: 0.00000,  55: 0.00000,  54: 0.00000,  53: 0.00000,
                 52: 0.00000,  51: 0.00000,  50: 0.00000,  49: 0.00000,  48: 0.00000,  47: 0.00000,  46: 0.00000,  45: 0.00000,
                 44: 0.00000,  43: 0.00000,  42: 0.00000,  41: 0.00000,  40: 0.00000,  39: 0.00000,  38: 0.00000,  37: 0.00000,
                 36: 0.00000,  35: 0.00000,  34: 0.00000,  33: 0.00000,  32: 0.00000,  31: 0.00000,  30: 0.00000,  29: 0.00000,
                 28: 0.00000,  27: 0.00000,  26: 0.00000,  25: 0.00000,  24: 0.00000,  23: 0.00000,  22: 0.00000,  21: 0.00000,
                 20: 0.00000,  19: 0.00000,  18: 0.00000,  17: 0.00000,  16: 0.00000,  15: 0.00000,  14: 0.00000,  13: 0.00000,
                 12: 0.00000,  11: 0.00000,  10: 0.00000,   9: 0.00000,   8: 0.00000,   7: 0.00000,   6: 0.00000,   5: 0.00000,
                  4: 0.00000,   3: 0.00000,   2: 0.00000,   1: 0.00000
   107 |      | 100: 0.00000,  99: 0.00000,  98: 0.00000,  97: 0.00000,  96: 0.00000,  95: 0.00000,  94: 0.00000,  93: 0.00000,
                 92: 0.00000,  91: 0.00000,  90: 0.00000,  89: 0.00000,  88: 0.00000,  87: 0.00000,  86: 0.00000,  85: 0.00000,
                 84: 0.00000,  83: 0.00000,  82: 0.00000,  81: 0.00000,  80: 0.00000,  79: 0.00000,  78: 0.00000,  77: 0.00000,
                 76: 0.00000,  75: 0.00000,  74: 0.00000,  73: 0.00000,  72: 0.00000,  71: 0.00000,  70: 0.00000,  69: 0.00000,
                 68: 0.00000,  67: 0.00000,  66: 0.00000,  65: 0.00000,  64: 0.00000,  63: 0.00000,  62: 0.00000,  61: 0.00000,
                 60: 0.00000,  59: 0.00000,  58: 0.00000,  57: 0.00000,  56: 0.00000,  55: 0.00000,  54: 0.00000,  53: 0.00000,
                 52: 0.00000,  51: 0.00000,  50: 0.00000,  49: 0.00000,  48: 0.00000,  47: 0.00000,  46: 0.00000,  45: 0.00000,
                 44: 0.00000,  43: 0.00000,  42: 0.00000,  41: 0.00000,  40: 0.00000,  39: 0.00000,  38: 0.00000,  37: 0.00000,
                 36: 0.00000,  35: 0.00000,  34: 0.00000,  33: 0.00000,  32: 0.00000,  31: 0.00000,  30: 0.00000,  29: 0.00000,
                 28: 0.00000,  27: 0.00000,  26: 0.00000,  25: 0.00000,  24: 0.00000,  23: 0.00000,  22: 0.00000,  21: 0.00000,
                 20: 0.00000,  19: 0.00000,  18: 0.00000,  17: 0.00000,  16: 0.00000,  15: 0.00000,  14: 0.00000,  13: 0.00000,
                 12: 0.00000,  11: 0.00000,  10: 0.00000,   9: 0.00000,   8: 0.00000,   7: 0.00000,   6: 0.00000,   5: 0.00000,
                  4: 0.00000,   3: 0.00000,   2: 0.00000,   1: 0.00000
   108 |      | 100: 0.00000,  99: 0.00000,  98: 0.00000,  97: 0.00000,  96: 0.00000,  95: 0.00000,  94: 0.00000,  93: 0.00000,
                 92: 0.00000,  91: 0.00000,  90: 0.00000,  89: 0.00000,  88: 0.00000,  87: 0.00000,  86: 0.00000,  85: 0.00000,
                 84: 0.00000,  83: 0.00000,  82: 0.00000,  81: 0.00000,  80: 0.00000,  79: 0.00000,  78: 0.00000,  77: 0.00000,
                 76: 0.00000,  75: 0.00000,  74: 0.00000,  73: 0.00000,  72: 0.00000,  71: 0.00000,  70: 0.00000,  69: 0.00000,
                 68: 0.00000,  67: 0.00000,  66: 0.00000,  65: 0.00000,  64: 0.00000,  63: 0.00000,  62: 0.00000,  61: 0.00000,
                 60: 0.00000,  59: 0.00000,  58: 0.00000,  57: 0.00000,  56: 0.00000,  55: 0.00000,  54: 0.00000,  53: 0.00000,
                 52: 0.00000,  51: 0.00000,  50: 0.00000,  49: 0.00000,  48: 0.00000,  47: 0.00000,  46: 0.00000,  45: 0.00000,
                 44: 0.00000,  43: 0.00000,  42: 0.00000,  41: 0.00000,  40: 0.00000,  39: 0.00000,  38: 0.00000,  37: 0.00000,
                 36: 0.00000,  35: 0.00000,  34: 0.00000,  33: 0.00000,  32: 0.00000,  31: 0.00000,  30: 0.00000,  29: 0.00000,
                 28: 0.00000,  27: 0.00000,  26: 0.00000,  25: 0.00000,  24: 0.00000,  23: 0.00000,  22: 0.00000,  21: 0.00000,
                 20: 0.00000,  19: 0.00000,  18: 0.00000,  17: 0.00000,  16: 0.00000,  15: 0.00000,  14: 0.00000,  13: 0.00000,
                 12: 0.00000,  11: 0.00000,  10: 0.00000,   9: 0.00000,   8: 0.00000,   7: 0.00000,   6: 0.00000,   5: 0.00000,
                  4: 0.00000,   3: 0.00000,   2: 0.00000,   1: 0.00000
   109 |      | 100: 0.00000,  99: 0.00000,  98: 0.00000,  97: 0.00000,  96: 0.00000,  95: 0.00000,  94: 0.00000,  93: 0.00000,
                 92: 0.00000,  91: 0.00000,  90: 0.00000,  89: 0.00000,  88: 0.00000,  87: 0.00000,  86: 0.00000,  85: 0.00000,
                 84: 0.00000,  83: 0.00000,  82: 0.00000,  81: 0.00000,  80: 0.00000,  79: 0.00000,  78: 0.00000,  77: 0.00000,
                 76: 0.00000,  75: 0.00000,  74: 0.00000,  73: 0.00000,  72: 0.00000,  71: 0.00000,  70: 0.00000,  69: 0.00000,
                 68: 0.00000,  67: 0.00000,  66: 0.00000,  65: 0.00000,  64: 0.00000,  63: 0.00000,  62: 0.00000,  61: 0.00000,
                 60: 0.00000,  59: 0.00000,  58: 0.00000,  57: 0.00000,  56: 0.00000,  55: 0.00000,  54: 0.00000,  53: 0.00000,
                 52: 0.00000,  51: 0.00000,  50: 0.00000,  49: 0.00000,  48: 0.00000,  47: 0.00000,  46: 0.00000,  45: 0.00000,
                 44: 0.00000,  43: 0.00000,  42: 0.00000,  41: 0.00000,  40: 0.00000,  39: 0.00000,  38: 0.00000,  37: 0.00000,
                 36: 0.00000,  35: 0.00000,  34: 0.00000,  33: 0.00000,  32: 0.00000,  31: 0.00000,  30: 0.00000,  29: 0.00000,
                 28: 0.00000,  27: 0.00000,  26: 0.00000,  25: 0.00000,  24: 0.00000,  23: 0.00000,  22: 0.00000,  21: 0.00000,
                 20: 0.00000,  19: 0.00000,  18: 0.00000,  17: 0.00000,  16: 0.00000,  15: 0.00000,  14: 0.00000,  13: 0.00000,
                 12: 0.00000,  11: 0.00000,  10: 0.00000,   9: 0.00000,   8: 0.00000,   7: 0.00000,   6: 0.00000,   5: 0.00000,
                  4: 0.00000,   3: 0.00000,   2: 0.00000,   1: 0.00000
   110 |      | 100: 0.00000,  99: 0.00000,  98: 0.00000,  97: 0.00000,  96: 0.00000,  95: 0.00000,  94: 0.00000,  93: 0.00000,
                 92: 0.00000,  91: 0.00000,  90: 0.00000,  89: 0.00000,  88: 0.00000,  87: 0.00000,  86: 0.00000,  85: 0.00000,
                 84: 0.00000,  83: 0.00000,  82: 0.00000,  81: 0.00000,  80: 0.00000,  79: 0.00000,  78: 0.00000,  77: 0.00000,
                 76: 0.00000,  75: 0.00000,  74: 0.00000,  73: 0.00000,  72: 0.00000,  71: 0.00000,  70: 0.00000,  69: 0.00000,
                 68: 0.00000,  67: 0.00000,  66: 0.00000,  65: 0.00000,  64: 0.00000,  63: 0.00000,  62: 0.00000,  61: 0.00000,
                 60: 0.00000,  59: 0.00000,  58: 0.00000,  57: 0.00000,  56: 0.00000,  55: 0.00000,  54: 0.00000,  53: 0.00000,
                 52: 0.00000,  51: 0.00000,  50: 0.00000,  49: 0.00000,  48: 0.00000,  47: 0.00000,  46: 0.00000,  45: 0.00000,
                 44: 0.00000,  43: 0.00000,  42: 0.00000,  41: 0.00000,  40: 0.00000,  39: 0.00000,  38: 0.00000,  37: 0.00000,
                 36: 0.00000,  35: 0.00000,  34: 0.00000,  33: 0.00000,  32: 0.00000,  31: 0.00000,  30: 0.00000,  29: 0.00000,
                 28: 0.00000,  27: 0.00000,  26: 0.00000,  25: 0.00000,  24: 0.00000,  23: 0.00000,  22: 0.00000,  21: 0.00000,
                 20: 0.00000,  19: 0.00000,  18: 0.00000,  17: 0.00000,  16: 0.00000,  15: 0.00000,  14: 0.00000,  13: 0.00000,
                 12: 0.00000,  11: 0.00000,  10: 0.00000,   9: 0.00000,   8: 0.00000,   7: 0.00000,   6: 0.00000,   5: 0.00000,
                  4: 0.00000,   3: 0.00000,   2: 0.00000,   1: 0.00000
   111 |      | 100: 0.00000,  99: 0.00000,  98: 0.00000,  97: 0.00000,  96: 0.00000,  95: 0.00000,  94: 0.00000,  93: 0.00000,
                 92: 0.00000,  91: 0.00000,  90: 0.00000,  89: 0.00000,  88: 0.00000,  87: 0.00000,  86: 0.00000,  85: 0.00000,
                 84: 0.00000,  83: 0.00000,  82: 0.00000,  81: 0.00000,  80: 0.00000,  79: 0.00000,  78: 0.00000,  77: 0.00000,
                 76: 0.00000,  75: 0.00000,  74: 0.00000,  73: 0.00000,  72: 0.00000,  71: 0.00000,  70: 0.00000,  69: 0.00000,
                 68: 0.00000,  67: 0.00000,  66: 0.00000,  65: 0.00000,  64: 0.00000,  63: 0.00000,  62: 0.00000,  61: 0.00000,
                 60: 0.00000,  59: 0.00000,  58: 0.00000,  57: 0.00000,  56: 0.00000,  55: 0.00000,  54: 0.00000,  53: 0.00000,
                 52: 0.00000,  51: 0.00000,  50: 0.00000,  49: 0.00000,  48: 0.00000,  47: 0.00000,  46: 0.00000,  45: 0.00000,
                 44: 0.00000,  43: 0.00000,  42: 0.00000,  41: 0.00000,  40: 0.00000,  39: 0.00000,  38: 0.00000,  37: 0.00000,
                 36: 0.00000,  35: 0.00000,  34: 0.00000,  33: 0.00000,  32: 0.00000,  31: 0.00000,  30: 0.00000,  29: 0.00000,
                 28: 0.00000,  27: 0.00000,  26: 0.00000,  25: 0.00000,  24: 0.00000,  23: 0.00000,  22: 0.00000,  21: 0.00000,
                 20: 0.00000,  19: 0.00000,  18: 0.00000,  17: 0.00000,  16: 0.00000,  15: 0.00000,  14: 0.00000,  13: 0.00000,
                 12: 0.00000,  11: 0.00000,  10: 0.00000,   9: 0.00000,   8: 0.00000,   7: 0.00000,   6: 0.00000,   5: 0.00000,
                  4: 0.00000,   3: 0.00000,   2: 0.00000,   1: 0.00000
   112 |      | 100: 0.00000,  99: 0.00000,  98: 0.00000,  97: 0.00000,  96: 0.00000,  95: 0.00000,  94: 0.00000,  93: 0.00000,
                 92: 0.00000,  91: 0.00000,  90: 0.00000,  89: 0.00000,  88: 0.00000,  87: 0.00000,  86: 0.00000,  85: 0.00000,
                 84: 0.00000,  83: 0.00000,  82: 0.00000,  81: 0.00000,  80: 0.00000,  79: 0.00000,  78: 0.00000,  77: 0.00000,
                 76: 0.00000,  75: 0.00000,  74: 0.00000,  73: 0.00000,  72: 0.00000,  71: 0.00000,  70: 0.00000,  69: 0.00000,
                 68: 0.00000,  67: 0.00000,  66: 0.00000,  65: 0.00000,  64: 0.00000,  63: 0.00000,  62: 0.00000,  61: 0.00000,
                 60: 0.00000,  59: 0.00000,  58: 0.00000,  57: 0.00000,  56: 0.00000,  55: 0.00000,  54: 0.00000,  53: 0.00000,
                 52: 0.00000,  51: 0.00000,  50: 0.00000,  49: 0.00000,  48: 0.00000,  47: 0.00000,  46: 0.00000,  45: 0.00000,
                 44: 0.00000,  43: 0.00000,  42: 0.00000,  41: 0.00000,  40: 0.00000,  39: 0.00000,  38: 0.00000,  37: 0.00000,
                 36: 0.00000,  35: 0.00000,  34: 0.00000,  33: 0.00000,  32: 0.00000,  31: 0.00000,  30: 0.00000,  29: 0.00000,
                 28: 0.00000,  27: 0.00000,  26: 0.00000,  25: 0.00000,  24: 0.00000,  23: 0.00000,  22: 0.00000,  21: 0.00000,
                 20: 0.00000,  19: 0.00000,  18: 0.00000,  17: 0.00000,  16: 0.00000,  15: 0.00000,  14: 0.00000,  13: 0.00000,
                 12: 0.00000,  11: 0.00000,  10: 0.00000,   9: 0.00000,   8: 0.00000,   7: 0.00000,   6: 0.00000,   5: 0.00000,
                  4: 0.00000,   3: 0.00000,   2: 0.00000,   1: 0.00000
   113 |      | 100: 0.00000,  99: 0.00000,  98: 0.00000,  97: 0.00000,  96: 0.00000,  95: 0.00000,  94: 0.00000,  93: 0.00000,
                 92: 0.00000,  91: 0.00000,  90: 0.00000,  89: 0.00000,  88: 0.00000,  87: 0.00000,  86: 0.00000,  85: 0.00000,
                 84: 0.00000,  83: 0.00000,  82: 0.00000,  81: 0.00000,  80: 0.00000,  79: 0.00000,  78: 0.00000,  77: 0.00000,
                 76: 0.00000,  75: 0.00000,  74: 0.00000,  73: 0.00000,  72: 0.00000,  71: 0.00000,  70: 0.00000,  69: 0.00000,
                 68: 0.00000,  67: 0.00000,  66: 0.00000,  65: 0.00000,  64: 0.00000,  63: 0.00000,  62: 0.00000,  61: 0.00000,
                 60: 0.00000,  59: 0.00000,  58: 0.00000,  57: 0.00000,  56: 0.00000,  55: 0.00000,  54: 0.00000,  53: 0.00000,
                 52: 0.00000,  51: 0.00000,  50: 0.00000,  49: 0.00000,  48: 0.00000,  47: 0.00000,  46: 0.00000,  45: 0.00000,
                 44: 0.00000,  43: 0.00000,  42: 0.00000,  41: 0.00000,  40: 0.00000,  39: 0.00000,  38: 0.00000,  37: 0.00000,
                 36: 0.00000,  35: 0.00000,  34: 0.00000,  33: 0.00000,  32: 0.00000,  31: 0.00000,  30: 0.00000,  29: 0.00000,
                 28: 0.00000,  27: 0.00000,  26: 0.00000,  25: 0.00000,  24: 0.00000,  23: 0.00000,  22: 0.00000,  21: 0.00000,
                 20: 0.00000,  19: 0.00000,  18: 0.00000,  17: 0.00000,  16: 0.00000,  15: 0.00000,  14: 0.00000,  13: 0.00000,
                 12: 0.00000,  11: 0.00000,  10: 0.00000,   9: 0.00000,   8: 0.00000,   7: 0.00000,   6: 0.00000,   5: 0.00000,
                  4: 0.00000,   3: 0.00000,   2: 0.00000,   1: 0.00000
   114 |      | 100: 0.00000,  99: 0.00000,  98: 0.00000,  97: 0.00000,  96: 0.00000,  95: 0.00000,  94: 0.00000,  93: 0.00000,
                 92: 0.00000,  91: 0.00000,  90: 0.00000,  89: 0.00000,  88: 0.00000,  87: 0.00000,  86: 0.00000,  85: 0.00000,
                 84: 0.00000,  83: 0.00000,  82: 0.00000,  81: 0.00000,  80: 0.00000,  79: 0.00000,  78: 0.00000,  77: 0.00000,
                 76: 0.00000,  75: 0.00000,  74: 0.00000,  73: 0.00000,  72: 0.00000,  71: 0.00000,  70: 0.00000,  69: 0.00000,
                 68: 0.00000,  67: 0.00000,  66: 0.00000,  65: 0.00000,  64: 0.00000,  63: 0.00000,  62: 0.00000,  61: 0.00000,
                 60: 0.00000,  59: 0.00000,  58: 0.00000,  57: 0.00000,  56: 0.00000,  55: 0.00000,  54: 0.00000,  53: 0.00000,
                 52: 0.00000,  51: 0.00000,  50: 0.00000,  49: 0.00000,  48: 0.00000,  47: 0.00000,  46: 0.00000,  45: 0.00000,
                 44: 0.00000,  43: 0.00000,  42: 0.00000,  41: 0.00000,  40: 0.00000,  39: 0.00000,  38: 0.00000,  37: 0.00000,
                 36: 0.00000,  35: 0.00000,  34: 0.00000,  33: 0.00000,  32: 0.00000,  31: 0.00000,  30: 0.00000,  29: 0.00000,
                 28: 0.00000,  27: 0.00000,  26: 0.00000,  25: 0.00000,  24: 0.00000,  23: 0.00000,  22: 0.00000,  21: 0.00000,
                 20: 0.00000,  19: 0.00000,  18: 0.00000,  17: 0.00000,  16: 0.00000,  15: 0.00000,  14: 0.00000,  13: 0.00000,
                 12: 0.00000,  11: 0.00000,  10: 0.00000,   9: 0.00000,   8: 0.00000,   7: 0.00000,   6: 0.00000,   5: 0.00000,
                  4: 0.00000,   3: 0.00000,   2: 0.00000,   1: 0.00000
   115 |      | 100: 0.00000,  99: 0.00000,  98: 0.00000,  97: 0.00000,  96: 0.00000,  95: 0.00000,  94: 0.00000,  93: 0.00000,
                 92: 0.00000,  91: 0.00000,  90: 0.00000,  89: 0.00000,  88: 0.00000,  87: 0.00000,  86: 0.00000,  85: 0.00000,
                 84: 0.00000,  83: 0.00000,  82: 0.00000,  81: 0.00000,  80: 0.00000,  79: 0.00000,  78: 0.00000,  77: 0.00000,
                 76: 0.00000,  75: 0.00000,  74: 0.00000,  73: 0.00000,  72: 0.00000,  71: 0.00000,  70: 0.00000,  69: 0.00000,
                 68: 0.00000,  67: 0.00000,  66: 0.00000,  65: 0.00000,  64: 0.00000,  63: 0.00000,  62: 0.00000,  61: 0.00000,
                 60: 0.00000,  59: 0.00000,  58: 0.00000,  57: 0.00000,  56: 0.00000,  55: 0.00000,  54: 0.00000,  53: 0.00000,
                 52: 0.00000,  51: 0.00000,  50: 0.00000,  49: 0.00000,  48: 0.00000,  47: 0.00000,  46: 0.00000,  45: 0.00000,
                 44: 0.00000,  43: 0.00000,  42: 0.00000,  41: 0.00000,  40: 0.00000,  39: 0.00000,  38: 0.00000,  37: 0.00000,
                 36: 0.00000,  35: 0.00000,  34: 0.00000,  33: 0.00000,  32: 0.00000,  31: 0.00000,  30: 0.00000,  29: 0.00000,
                 28: 0.00000,  27: 0.00000,  26: 0.00000,  25: 0.00000,  24: 0.00000,  23: 0.00000,  22: 0.00000,  21: 0.00000,
                 20: 0.00000,  19: 0.00000,  18: 0.00000,  17: 0.00000,  16: 0.00000,  15: 0.00000,  14: 0.00000,  13: 0.00000,
                 12: 0.00000,  11: 0.00000,  10: 0.00000,   9: 0.00000,   8: 0.00000,   7: 0.00000,   6: 0.00000,   5: 0.00000,
                  4: 0.00000,   3: 0.00000,   2: 0.00000,   1: 0.00000
   116 |      | 100: 0.00000,  99: 0.00000,  98: 0.00000,  97: 0.00000,  96: 0.00000,  95: 0.00000,  94: 0.00000,  93: 0.00000,
                 92: 0.00000,  91: 0.00000,  90: 0.00000,  89: 0.00000,  88: 0.00000,  87: 0.00000,  86: 0.00000,  85: 0.00000,
                 84: 0.00000,  83: 0.00000,  82: 0.00000,  81: 0.00000,  80: 0.00000,  79: 0.00000,  78: 0.00000,  77: 0.00000,
                 76: 0.00000,  75: 0.00000,  74: 0.00000,  73: 0.00000,  72: 0.00000,  71: 0.00000,  70: 0.00000,  69: 0.00000,
                 68: 0.00000,  67: 0.00000,  66: 0.00000,  65: 0.00000,  64: 0.00000,  63: 0.00000,  62: 0.00000,  61: 0.00000,
                 60: 0.00000,  59: 0.00000,  58: 0.00000,  57: 0.00000,  56: 0.00000,  55: 0.00000,  54: 0.00000,  53: 0.00000,
                 52: 0.00000,  51: 0.00000,  50: 0.00000,  49: 0.00000,  48: 0.00000,  47: 0.00000,  46: 0.00000,  45: 0.00000,
                 44: 0.00000,  43: 0.00000,  42: 0.00000,  41: 0.00000,  40: 0.00000,  39: 0.00000,  38: 0.00000,  37: 0.00000,
                 36: 0.00000,  35: 0.00000,  34: 0.00000,  33: 0.00000,  32: 0.00000,  31: 0.00000,  30: 0.00000,  29: 0.00000,
                 28: 0.00000,  27: 0.00000,  26: 0.00000,  25: 0.00000,  24: 0.00000,  23: 0.00000,  22: 0.00000,  21: 0.00000,
                 20: 0.00000,  19: 0.00000,  18: 0.00000,  17: 0.00000,  16: 0.00000,  15: 0.00000,  14: 0.00000,  13: 0.00000,
                 12: 0.00000,  11: 0.00000,  10: 0.00000,   9: 0.00000,   8: 0.00000,   7: 0.00000,   6: 0.00000,   5: 0.00000,
                  4: 0.00000,   3: 0.00000,   2: 0.00000,   1: 0.00000
   117 |      | 100: 0.00000,  99: 0.00000,  98: 0.00000,  97: 0.00000,  96: 0.00000,  95: 0.00000,  94: 0.00000,  93: 0.00000,
                 92: 0.00000,  91: 0.00000,  90: 0.00000,  89: 0.00000,  88: 0.00000,  87: 0.00000,  86: 0.00000,  85: 0.00000,
                 84: 0.00000,  83: 0.00000,  82: 0.00000,  81: 0.00000,  80: 0.00000,  79: 0.00000,  78: 0.00000,  77: 0.00000,
                 76: 0.00000,  75: 0.00000,  74: 0.00000,  73: 0.00000,  72: 0.00000,  71: 0.00000,  70: 0.00000,  69: 0.00000,
                 68: 0.00000,  67: 0.00000,  66: 0.00000,  65: 0.00000,  64: 0.00000,  63: 0.00000,  62: 0.00000,  61: 0.00000,
                 60: 0.00000,  59: 0.00000,  58: 0.00000,  57: 0.00000,  56: 0.00000,  55: 0.00000,  54: 0.00000,  53: 0.00000,
                 52: 0.00000,  51: 0.00000,  50: 0.00000,  49: 0.00000,  48: 0.00000,  47: 0.00000,  46: 0.00000,  45: 0.00000,
                 44: 0.00000,  43: 0.00000,  42: 0.00000,  41: 0.00000,  40: 0.00000,  39: 0.00000,  38: 0.00000,  37: 0.00000,
                 36: 0.00000,  35: 0.00000,  34: 0.00000,  33: 0.00000,  32: 0.00000,  31: 0.00000,  30: 0.00000,  29: 0.00000,
                 28: 0.00000,  27: 0.00000,  26: 0.00000,  25: 0.00000,  24: 0.00000,  23: 0.00000,  22: 0.00000,  21: 0.00000,
                 20: 0.00000,  19: 0.00000,  18: 0.00000,  17: 0.00000,  16: 0.00000,  15: 0.00000,  14: 0.00000,  13: 0.00000,
                 12: 0.00000,  11: 0.00000,  10: 0.00000,   9: 0.00000,   8: 0.00000,   7: 0.00000,   6: 0.00000,   5: 0.00000,
                  4: 0.00000,   3: 0.00000,   2: 0.00000,   1: 0.00000
   118 |      | 100: 0.00000,  99: 0.00000,  98: 0.00000,  97: 0.00000,  96: 0.00000,  95: 0.00000,  94: 0.00000,  93: 0.00000,
                 92: 0.00000,  91: 0.00000,  90: 0.00000,  89: 0.00000,  88: 0.00000,  87: 0.00000,  86: 0.00000,  85: 0.00000,
                 84: 0.00000,  83: 0.00000,  82: 0.00000,  81: 0.00000,  80: 0.00000,  79: 0.00000,  78: 0.00000,  77: 0.00000,
                 76: 0.00000,  75: 0.00000,  74: 0.00000,  73: 0.00000,  72: 0.00000,  71: 0.00000,  70: 0.00000,  69: 0.00000,
                 68: 0.00000,  67: 0.00000,  66: 0.00000,  65: 0.00000,  64: 0.00000,  63: 0.00000,  62: 0.00000,  61: 0.00000,
                 60: 0.00000,  59: 0.00000,  58: 0.00000,  57: 0.00000,  56: 0.00000,  55: 0.00000,  54: 0.00000,  53: 0.00000,
                 52: 0.00000,  51: 0.00000,  50: 0.00000,  49: 0.00000,  48: 0.00000,  47: 0.00000,  46: 0.00000,  45: 0.00000,
                 44: 0.00000,  43: 0.00000,  42: 0.00000,  41: 0.00000,  40: 0.00000,  39: 0.00000,  38: 0.00000,  37: 0.00000,
                 36: 0.00000,  35: 0.00000,  34: 0.00000,  33: 0.00000,  32: 0.00000,  31: 0.00000,  30: 0.00000,  29: 0.00000,
                 28: 0.00000,  27: 0.00000,  26: 0.00000,  25: 0.00000,  24: 0.00000,  23: 0.00000,  22: 0.00000,  21: 0.00000,
                 20: 0.00000,  19: 0.00000,  18: 0.00000,  17: 0.00000,  16: 0.00000,  15: 0.00000,  14: 0.00000,  13: 0.00000,
                 12: 0.00000,  11: 0.00000,  10: 0.00000,   9: 0.00000,   8: 0.00000,   7: 0.00000,   6: 0.00000,   5: 0.00000,
                  4: 0.00000,   3: 0.00000,   2: 0.00000,   1: 0.00000
   119 |      | 100: 0.00000,  99: 0.00000,  98: 0.00000,  97: 0.00000,  96: 0.00000,  95: 0.00000,  94: 0.00000,  93: 0.00000,
                 92: 0.00000,  91: 0.00000,  90: 0.00000,  89: 0.00000,  88: 0.00000,  87: 0.00000,  86: 0.00000,  85: 0.00000,
                 84: 0.00000,  83: 0.00000,  82: 0.00000,  81: 0.00000,  80: 0.00000,  79: 0.00000,  78: 0.00000,  77: 0.00000,
                 76: 0.00000,  75: 0.00000,  74: 0.00000,  73: 0.00000,  72: 0.00000,  71: 0.00000,  70: 0.00000,  69: 0.00000,
                 68: 0.00000,  67: 0.00000,  66: 0.00000,  65: 0.00000,  64: 0.00000,  63: 0.00000,  62: 0.00000,  61: 0.00000,
                 60: 0.00000,  59: 0.00000,  58: 0.00000,  57: 0.00000,  56: 0.00000,  55: 0.00000,  54: 0.00000,  53: 0.00000,
                 52: 0.00000,  51: 0.00000,  50: 0.00000,  49: 0.00000,  48: 0.00000,  47: 0.00000,  46: 0.00000,  45: 0.00000,
                 44: 0.00000,  43: 0.00000,  42: 0.00000,  41: 0.00000,  40: 0.00000,  39: 0.00000,  38: 0.00000,  37: 0.00000,
                 36: 0.00000,  35: 0.00000,  34: 0.00000,  33: 0.00000,  32: 0.00000,  31: 0.00000,  30: 0.00000,  29: 0.00000,
                 28: 0.00000,  27: 0.00000,  26: 0.00000,  25: 0.00000,  24: 0.00000,  23: 0.00000,  22: 0.00000,  21: 0.00000,
                 20: 0.00000,  19: 0.00000,  18: 0.00000,  17: 0.00000,  16: 0.00000,  15: 0.00000,  14: 0.00000,  13: 0.00000,
                 12: 0.00000,  11: 0.00000,  10: 0.00000,   9: 0.00000,   8: 0.00000,   7: 0.00000,   6: 0.00000,   5: 0.00000,
                  4: 0.00000,   3: 0.00000,   2: 0.00000,   1: 0.00000
   120 |      | 100: 0.00000,  99: 0.00000,  98: 0.00000,  97: 0.00000,  96: 0.00000,  95: 0.00000,  94: 0.00000,  93: 0.00000,
                 92: 0.00000,  91: 0.00000,  90: 0.00000,  89: 0.00000,  88: 0.00000,  87: 0.00000,  86: 0.00000,  85: 0.00000,
                 84: 0.00000,  83: 0.00000,  82: 0.00000,  81: 0.00000,  80: 0.00000,  79: 0.00000,  78: 0.00000,  77: 0.00000,
                 76: 0.00000,  75: 0.00000,  74: 0.00000,  73: 0.00000,  72: 0.00000,  71: 0.00000,  70: 0.00000,  69: 0.00000,
                 68: 0.00000,  67: 0.00000,  66: 0.00000,  65: 0.00000,  64: 0.00000,  63: 0.00000,  62: 0.00000,  61: 0.00000,
                 60: 0.00000,  59: 0.00000,  58: 0.00000,  57: 0.00000,  56: 0.00000,  55: 0.00000,  54: 0.00000,  53: 0.00000,
                 52: 0.00000,  51: 0.00000,  50: 0.00000,  49: 0.00000,  48: 0.00000,  47: 0.00000,  46: 0.00000,  45: 0.00000,
                 44: 0.00000,  43: 0.00000,  42: 0.00000,  41: 0.00000,  40: 0.00000,  39: 0.00000,  38: 0.00000,  37: 0.00000,
                 36: 0.00000,  35: 0.00000,  34: 0.00000,  33: 0.00000,  32: 0.00000,  31: 0.00000,  30: 0.00000,  29: 0.00000,
                 28: 0.00000,  27: 0.00000,  26: 0.00000,  25: 0.00000,  24: 0.00000,  23: 0.00000,  22: 0.00000,  21: 0.00000,
                 20: 0.00000,  19: 0.00000,  18: 0.00000,  17: 0.00000,  16: 0.00000,  15: 0.00000,  14: 0.00000,  13: 0.00000,
                 12: 0.00000,  11: 0.00000,  10: 0.00000,   9: 0.00000,   8: 0.00000,   7: 0.00000,   6: 0.00000,   5: 0.00000,
                  4: 0.00000,   3: 0.00000,   2: 0.00000,   1: 0.00000
   121 |      | 100: 0.00000,  99: 0.00000,  98: 0.00000,  97: 0.00000,  96: 0.00000,  95: 0.00000,  94: 0.00000,  93: 0.00000,
                 92: 0.00000,  91: 0.00000,  90: 0.00000,  89: 0.00000,  88: 0.00000,  87: 0.00000,  86: 0.00000,  85: 0.00000,
                 84: 0.00000,  83: 0.00000,  82: 0.00000,  81: 0.00000,  80: 0.00000,  79: 0.00000,  78: 0.00000,  77: 0.00000,
                 76: 0.00000,  75: 0.00000,  74: 0.00000,  73: 0.00000,  72: 0.00000,  71: 0.00000,  70: 0.00000,  69: 0.00000,
                 68: 0.00000,  67: 0.00000,  66: 0.00000,  65: 0.00000,  64: 0.00000,  63: 0.00000,  62: 0.00000,  61: 0.00000,
                 60: 0.00000,  59: 0.00000,  58: 0.00000,  57: 0.00000,  56: 0.00000,  55: 0.00000,  54: 0.00000,  53: 0.00000,
                 52: 0.00000,  51: 0.00000,  50: 0.00000,  49: 0.00000,  48: 0.00000,  47: 0.00000,  46: 0.00000,  45: 0.00000,
                 44: 0.00000,  43: 0.00000,  42: 0.00000,  41: 0.00000,  40: 0.00000,  39: 0.00000,  38: 0.00000,  37: 0.00000,
                 36: 0.00000,  35: 0.00000,  34: 0.00000,  33: 0.00000,  32: 0.00000,  31: 0.00000,  30: 0.00000,  29: 0.00000,
                 28: 0.00000,  27: 0.00000,  26: 0.00000,  25: 0.00000,  24: 0.00000,  23: 0.00000,  22: 0.00000,  21: 0.00000,
                 20: 0.00000,  19: 0.00000,  18: 0.00000,  17: 0.00000,  16: 0.00000,  15: 0.00000,  14: 0.00000,  13: 0.00000,
                 12: 0.00000,  11: 0.00000,  10: 0.00000,   9: 0.00000,   8: 0.00000,   7: 0.00000,   6: 0.00000,   5: 0.00000,
                  4: 0.00000,   3: 0.00000,   2: 0.00000,   1: 0.00000
   122 |      | 100: 0.00000,  99: 0.00000,  98: 0.00000,  97: 0.00000,  96: 0.00000,  95: 0.00000,  94: 0.00000,  93: 0.00000,
                 92: 0.00000,  91: 0.00000,  90: 0.00000,  89: 0.00000,  88: 0.00000,  87: 0.00000,  86: 0.00000,  85: 0.00000,
                 84: 0.00000,  83: 0.00000,  82: 0.00000,  81: 0.00000,  80: 0.00000,  79: 0.00000,  78: 0.00000,  77: 0.00000,
                 76: 0.00000,  75: 0.00000,  74: 0.00000,  73: 0.00000,  72: 0.00000,  71: 0.00000,  70: 0.00000,  69: 0.00000,
                 68: 0.00000,  67: 0.00000,  66: 0.00000,  65: 0.00000,  64: 0.00000,  63: 0.00000,  62: 0.00000,  61: 0.00000,
                 60: 0.00000,  59: 0.00000,  58: 0.00000,  57: 0.00000,  56: 0.00000,  55: 0.00000,  54: 0.00000,  53: 0.00000,
                 52: 0.00000,  51: 0.00000,  50: 0.00000,  49: 0.00000,  48: 0.00000,  47: 0.00000,  46: 0.00000,  45: 0.00000,
                 44: 0.00000,  43: 0.00000,  42: 0.00000,  41: 0.00000,  40: 0.00000,  39: 0.00000,  38: 0.00000,  37: 0.00000,
                 36: 0.00000,  35: 0.00000,  34: 0.00000,  33: 0.00000,  32: 0.00000,  31: 0.00000,  30: 0.00000,  29: 0.00000,
                 28: 0.00000,  27: 0.00000,  26: 0.00000,  25: 0.00000,  24: 0.00000,  23: 0.00000,  22: 0.00000,  21: 0.00000,
                 20: 0.00000,  19: 0.00000,  18: 0.00000,  17: 0.00000,  16: 0.00000,  15: 0.00000,  14: 0.00000,  13: 0.00000,
                 12: 0.00000,  11: 0.00000,  10: 0.00000,   9: 0.00000,   8: 0.00000,   7: 0.00000,   6: 0.00000,   5: 0.00000,
                  4: 0.00000,   3: 0.00000,   2: 0.00000,   1: 0.00000
   123 |      | 100: 0.00000,  99: 0.00000,  98: 0.00000,  97: 0.00000,  96: 0.00000,  95: 0.00000,  94: 0.00000,  93: 0.00000,
                 92: 0.00000,  91: 0.00000,  90: 0.00000,  89: 0.00000,  88: 0.00000,  87: 0.00000,  86: 0.00000,  85: 0.00000,
                 84: 0.00000,  83: 0.00000,  82: 0.00000,  81: 0.00000,  80: 0.00000,  79: 0.00000,  78: 0.00000,  77: 0.00000,
                 76: 0.00000,  75: 0.00000,  74: 0.00000,  73: 0.00000,  72: 0.00000,  71: 0.00000,  70: 0.00000,  69: 0.00000,
                 68: 0.00000,  67: 0.00000,  66: 0.00000,  65: 0.00000,  64: 0.00000,  63: 0.00000,  62: 0.00000,  61: 0.00000,
                 60: 0.00000,  59: 0.00000,  58: 0.00000,  57: 0.00000,  56: 0.00000,  55: 0.00000,  54: 0.00000,  53: 0.00000,
                 52: 0.00000,  51: 0.00000,  50: 0.00000,  49: 0.00000,  48: 0.00000,  47: 0.00000,  46: 0.00000,  45: 0.00000,
                 44: 0.00000,  43: 0.00000,  42: 0.00000,  41: 0.00000,  40: 0.00000,  39: 0.00000,  38: 0.00000,  37: 0.00000,
                 36: 0.00000,  35: 0.00000,  34: 0.00000,  33: 0.00000,  32: 0.00000,  31: 0.00000,  30: 0.00000,  29: 0.00000,
                 28: 0.00000,  27: 0.00000,  26: 0.00000,  25: 0.00000,  24: 0.00000,  23: 0.00000,  22: 0.00000,  21: 0.00000,
                 20: 0.00000,  19: 0.00000,  18: 0.00000,  17: 0.00000,  16: 0.00000,  15: 0.00000,  14: 0.00000,  13: 0.00000,
                 12: 0.00000,  11: 0.00000,  10: 0.00000,   9: 0.00000,   8: 0.00000,   7: 0.00000,   6: 0.00000,   5: 0.00000,
                  4: 0.00000,   3: 0.00000,   2: 0.00000,   1: 0.00000
   124 |      | 100: 0.00000,  99: 0.00000,  98: 0.00000,  97: 0.00000,  96: 0.00000,  95: 0.00000,  94: 0.00000,  93: 0.00000,
                 92: 0.00000,  91: 0.00000,  90: 0.00000,  89: 0.00000,  88: 0.00000,  87: 0.00000,  86: 0.00000,  85: 0.00000,
                 84: 0.00000,  83: 0.00000,  82: 0.00000,  81: 0.00000,  80: 0.00000,  79: 0.00000,  78: 0.00000,  77: 0.00000,
                 76: 0.00000,  75: 0.00000,  74: 0.00000,  73: 0.00000,  72: 0.00000,  71: 0.00000,  70: 0.00000,  69: 0.00000,
                 68: 0.00000,  67: 0.00000,  66: 0.00000,  65: 0.00000,  64: 0.00000,  63: 0.00000,  62: 0.00000,  61: 0.00000,
                 60: 0.00000,  59: 0.00000,  58: 0.00000,  57: 0.00000,  56: 0.00000,  55: 0.00000,  54: 0.00000,  53: 0.00000,
                 52: 0.00000,  51: 0.00000,  50: 0.00000,  49: 0.00000,  48: 0.00000,  47: 0.00000,  46: 0.00000,  45: 0.00000,
                 44: 0.00000,  43: 0.00000,  42: 0.00000,  41: 0.00000,  40: 0.00000,  39: 0.00000,  38: 0.00000,  37: 0.00000,
                 36: 0.00000,  35: 0.00000,  34: 0.00000,  33: 0.00000,  32: 0.00000,  31: 0.00000,  30: 0.00000,  29: 0.00000,
                 28: 0.00000,  27: 0.00000,  26: 0.00000,  25: 0.00000,  24: 0.00000,  23: 0.00000,  22: 0.00000,  21: 0.00000,
                 20: 0.00000,  19: 0.00000,  18: 0.00000,  17: 0.00000,  16: 0.00000,  15: 0.00000,  14: 0.00000,  13: 0.00000,
                 12: 0.00000,  11: 0.00000,  10: 0.00000,   9: 0.00000,   8: 0.00000,   7: 0.00000,   6: 0.00000,   5: 0.00000,
                  4: 0.00000,   3: 0.00000,   2: 0.00000,   1: 0.00000
   125 |      | 100: 0.00000,  99: 0.00000,  98: 0.00000,  97: 0.00000,  96: 0.00000,  95: 0.00000,  94: 0.00000,  93: 0.00000,
                 92: 0.00000,  91: 0.00000,  90: 0.00000,  89: 0.00000,  88: 0.00000,  87: 0.00000,  86: 0.00000,  85: 0.00000,
                 84: 0.00000,  83: 0.00000,  82: 0.00000,  81: 0.00000,  80: 0.00000,  79: 0.00000,  78: 0.00000,  77: 0.00000,
                 76: 0.00000,  75: 0.00000,  74: 0.00000,  73: 0.00000,  72: 0.00000,  71: 0.00000,  70: 0.00000,  69: 0.00000,
                 68: 0.00000,  67: 0.00000,  66: 0.00000,  65: 0.00000,  64: 0.00000,  63: 0.00000,  62: 0.00000,  61: 0.00000,
                 60: 0.00000,  59: 0.00000,  58: 0.00000,  57: 0.00000,  56: 0.00000,  55: 0.00000,  54: 0.00000,  53: 0.00000,
                 52: 0.00000,  51: 0.00000,  50: 0.00000,  49: 0.00000,  48: 0.00000,  47: 0.00000,  46: 0.00000,  45: 0.00000,
                 44: 0.00000,  43: 0.00000,  42: 0.00000,  41: 0.00000,  40: 0.00000,  39: 0.00000,  38: 0.00000,  37: 0.00000,
                 36: 0.00000,  35: 0.00000,  34: 0.00000,  33: 0.00000,  32: 0.00000,  31: 0.00000,  30: 0.00000,  29: 0.00000,
                 28: 0.00000,  27: 0.00000,  26: 0.00000,  25: 0.00000,  24: 0.00000,  23: 0.00000,  22: 0.00000,  21: 0.00000,
                 20: 0.00000,  19: 0.00000,  18: 0.00000,  17: 0.00000,  16: 0.00000,  15: 0.00000,  14: 0.00000,  13: 0.00000,
                 12: 0.00000,  11: 0.00000,  10: 0.00000,   9: 0.00000,   8: 0.00000,   7: 0.00000,   6: 0.00000,   5: 0.00000,
                  4: 0.00000,   3: 0.00000,   2: 0.00000,   1: 0.00000
   126 |      | 100: 0.00000,  99: 0.00000,  98: 0.00000,  97: 0.00000,  96: 0.00000,  95: 0.00000,  94: 0.00000,  93: 0.00000,
                 92: 0.00000,  91: 0.00000,  90: 0.00000,  89: 0.00000,  88: 0.00000,  87: 0.00000,  86: 0.00000,  85: 0.00000,
                 84: 0.00000,  83: 0.00000,  82: 0.00000,  81: 0.00000,  80: 0.00000,  79: 0.00000,  78: 0.00000,  77: 0.00000,
                 76: 0.00000,  75: 0.00000,  74: 0.00000,  73: 0.00000,  72: 0.00000,  71: 0.00000,  70: 0.00000,  69: 0.00000,
                 68: 0.00000,  67: 0.00000,  66: 0.00000,  65: 0.00000,  64: 0.00000,  63: 0.00000,  62: 0.00000,  61: 0.00000,
                 60: 0.00000,  59: 0.00000,  58: 0.00000,  57: 0.00000,  56: 0.00000,  55: 0.00000,  54: 0.00000,  53: 0.00000,
                 52: 0.00000,  51: 0.00000,  50: 0.00000,  49: 0.00000,  48: 0.00000,  47: 0.00000,  46: 0.00000,  45: 0.00000,
                 44: 0.00000,  43: 0.00000,  42: 0.00000,  41: 0.00000,  40: 0.00000,  39: 0.00000,  38: 0.00000,  37: 0.00000,
                 36: 0.00000,  35: 0.00000,  34: 0.00000,  33: 0.00000,  32: 0.00000,  31: 0.00000,  30: 0.00000,  29: 0.00000,
                 28: 0.00000,  27: 0.00000,  26: 0.00000,  25: 0.00000,  24: 0.00000,  23: 0.00000,  22: 0.00000,  21: 0.00000,
                 20: 0.00000,  19: 0.00000,  18: 0.00000,  17: 0.00000,  16: 0.00000,  15: 0.00000,  14: 0.00000,  13: 0.00000,
                 12: 0.00000,  11: 0.00000,  10: 0.00000,   9: 0.00000,   8: 0.00000,   7: 0.00000,   6: 0.00000,   5: 0.00000,
                  4: 0.00000,   3: 0.00000,   2: 0.00000,   1: 0.00000
   127 |      | 100: 0.00000,  99: 0.00000,  98: 0.00000,  97: 0.00000,  96: 0.00000,  95: 0.00000,  94: 0.00000,  93: 0.00000,
                 92: 0.00000,  91: 0.00000,  90: 0.00000,  89: 0.00000,  88: 0.00000,  87: 0.00000,  86: 0.00000,  85: 0.00000,
                 84: 0.00000,  83: 0.00000,  82: 0.00000,  81: 0.00000,  80: 0.00000,  79: 0.00000,  78: 0.00000,  77: 0.00000,
                 76: 0.00000,  75: 0.00000,  74: 0.00000,  73: 0.00000,  72: 0.00000,  71: 0.00000,  70: 0.00000,  69: 0.00000,
                 68: 0.00000,  67: 0.00000,  66: 0.00000,  65: 0.00000,  64: 0.00000,  63: 0.00000,  62: 0.00000,  61: 0.00000,
                 60: 0.00000,  59: 0.00000,  58: 0.00000,  57: 0.00000,  56: 0.00000,  55: 0.00000,  54: 0.00000,  53: 0.00000,
                 52: 0.00000,  51: 0.00000,  50: 0.00000,  49: 0.00000,  48: 0.00000,  47: 0.00000,  46: 0.00000,  45: 0.00000,
                 44: 0.00000,  43: 0.00000,  42: 0.00000,  41: 0.00000,  40: 0.00000,  39: 0.00000,  38: 0.00000,  37: 0.00000,
                 36: 0.00000,  35: 0.00000,  34: 0.00000,  33: 0.00000,  32: 0.00000,  31: 0.00000,  30: 0.00000,  29: 0.00000,
                 28: 0.00000,  27: 0.00000,  26: 0.00000,  25: 0.00000,  24: 0.00000,  23: 0.00000,  22: 0.00000,  21: 0.00000,
                 20: 0.00000,  19: 0.00000,  18: 0.00000,  17: 0.00000,  16: 0.00000,  15: 0.00000,  14: 0.00000,  13: 0.00000,
                 12: 0.00000,  11: 0.00000,  10: 0.00000,   9: 0.00000,   8: 0.00000,   7: 0.00000,   6: 0.00000,   5: 0.00000,
                  4: 0.00000,   3: 0.00000,   2: 0.00000,   1: 0.00000
   128 |      | 100: 0.00000,  99: 0.00000,  98: 0.00000,  97: 0.00000,  96: 0.00000,  95: 0.00000,  94: 0.00000,  93: 0.00000,
                 92: 0.00000,  91: 0.00000,  90: 0.00000,  89: 0.00000,  88: 0.00000,  87: 0.00000,  86: 0.00000,  85: 0.00000,
                 84: 0.00000,  83: 0.00000,  82: 0.00000,  81: 0.00000,  80: 0.00000,  79: 0.00000,  78: 0.00000,  77: 0.00000,
                 76: 0.00000,  75: 0.00000,  74: 0.00000,  73: 0.00000,  72: 0.00000,  71: 0.00000,  70: 0.00000,  69: 0.00000,
                 68: 0.00000,  67: 0.00000,  66: 0.00000,  65: 0.00000,  64: 0.00000,  63: 0.00000,  62: 0.00000,  61: 0.00000,
                 60: 0.00000,  59: 0.00000,  58: 0.00000,  57: 0.00000,  56: 0.00000,  55: 0.00000,  54: 0.00000,  53: 0.00000,
                 52: 0.00000,  51: 0.00000,  50: 0.00000,  49: 0.00000,  48: 0.00000,  47: 0.00000,  46: 0.00000,  45: 0.00000,
                 44: 0.00000,  43: 0.00000,  42: 0.00000,  41: 0.00000,  40: 0.00000,  39: 0.00000,  38: 0.00000,  37: 0.00000,
                 36: 0.00000,  35: 0.00000,  34: 0.00000,  33: 0.00000,  32: 0.00000,  31: 0.00000,  30: 0.00000,  29: 0.00000,
                 28: 0.00000,  27: 0.00000,  26: 0.00000,  25: 0.00000,  24: 0.00000,  23: 0.00000,  22: 0.00000,  21: 0.00000,
                 20: 0.00000,  19: 0.00000,  18: 0.00000,  17: 0.00000,  16: 0.00000,  15: 0.00000,  14: 0.00000,  13: 0.00000,
                 12: 0.00000,  11: 0.00000,  10: 0.00000,   9: 0.00000,   8: 0.00000,   7: 0.00000,   6: 0.00000,   5: 0.00000,
                  4: 0.00000,   3: 0.00000,   2: 0.00000,   1: 0.00000
   129 |      | 100: 0.00000,  99: 0.00000,  98: 0.00000,  97: 0.00000,  96: 0.00000,  95: 0.00000,  94: 0.00000,  93: 0.00000,
                 92: 0.00000,  91: 0.00000,  90: 0.00000,  89: 0.00000,  88: 0.00000,  87: 0.00000,  86: 0.00000,  85: 0.00000,
                 84: 0.00000,  83: 0.00000,  82: 0.00000,  81: 0.00000,  80: 0.00000,  79: 0.00000,  78: 0.00000,  77: 0.00000,
                 76: 0.00000,  75: 0.00000,  74: 0.00000,  73: 0.00000,  72: 0.00000,  71: 0.00000,  70: 0.00000,  69: 0.00000,
                 68: 0.00000,  67: 0.00000,  66: 0.00000,  65: 0.00000,  64: 0.00000,  63: 0.00000,  62: 0.00000,  61: 0.00000,
                 60: 0.00000,  59: 0.00000,  58: 0.00000,  57: 0.00000,  56: 0.00000,  55: 0.00000,  54: 0.00000,  53: 0.00000,
                 52: 0.00000,  51: 0.00000,  50: 0.00000,  49: 0.00000,  48: 0.00000,  47: 0.00000,  46: 0.00000,  45: 0.00000,
                 44: 0.00000,  43: 0.00000,  42: 0.00000,  41: 0.00000,  40: 0.00000,  39: 0.00000,  38: 0.00000,  37: 0.00000,
                 36: 0.00000,  35: 0.00000,  34: 0.00000,  33: 0.00000,  32: 0.00000,  31: 0.00000,  30: 0.00000,  29: 0.00000,
                 28: 0.00000,  27: 0.00000,  26: 0.00000,  25: 0.00000,  24: 0.00000,  23: 0.00000,  22: 0.00000,  21: 0.00000,
                 20: 0.00000,  19: 0.00000,  18: 0.00000,  17: 0.00000,  16: 0.00000,  15: 0.00000,  14: 0.00000,  13: 0.00000,
                 12: 0.00000,  11: 0.00000,  10: 0.00000,   9: 0.00000,   8: 0.00000,   7: 0.00000,   6: 0.00000,   5: 0.00000,
                  4: 0.00000,   3: 0.00000,   2: 0.00000,   1: 0.00000
   130 |      | 100: 0.00000,  99: 0.00000,  98: 0.00000,  97: 0.00000,  96: 0.00000,  95: 0.00000,  94: 0.00000,  93: 0.00000,
                 92: 0.00000,  91: 0.00000,  90: 0.00000,  89: 0.00000,  88: 0.00000,  87: 0.00000,  86: 0.00000,  85: 0.00000,
                 84: 0.00000,  83: 0.00000,  82: 0.00000,  81: 0.00000,  80: 0.00000,  79: 0.00000,  78: 0.00000,  77: 0.00000,
                 76: 0.00000,  75: 0.00000,  74: 0.00000,  73: 0.00000,  72: 0.00000,  71: 0.00000,  70: 0.00000,  69: 0.00000,
                 68: 0.00000,  67: 0.00000,  66: 0.00000,  65: 0.00000,  64: 0.00000,  63: 0.00000,  62: 0.00000,  61: 0.00000,
                 60: 0.00000,  59: 0.00000,  58: 0.00000,  57: 0.00000,  56: 0.00000,  55: 0.00000,  54: 0.00000,  53: 0.00000,
                 52: 0.00000,  51: 0.00000,  50: 0.00000,  49: 0.00000,  48: 0.00000,  47: 0.00000,  46: 0.00000,  45: 0.00000,
                 44: 0.00000,  43: 0.00000,  42: 0.00000,  41: 0.00000,  40: 0.00000,  39: 0.00000,  38: 0.00000,  37: 0.00000,
                 36: 0.00000,  35: 0.00000,  34: 0.00000,  33: 0.00000,  32: 0.00000,  31: 0.00000,  30: 0.00000,  29: 0.00000,
                 28: 0.00000,  27: 0.00000,  26: 0.00000,  25: 0.00000,  24: 0.00000,  23: 0.00000,  22: 0.00000,  21: 0.00000,
                 20: 0.00000,  19: 0.00000,  18: 0.00000,  17: 0.00000,  16: 0.00000,  15: 0.00000,  14: 0.00000,  13: 0.00000,
                 12: 0.00000,  11: 0.00000,  10: 0.00000,   9: 0.00000,   8: 0.00000,   7: 0.00000,   6: 0.00000,   5: 0.00000,
                  4: 0.00000,   3: 0.00000,   2: 0.00000,   1: 0.00000
   131 |      | 100: 0.00000,  99: 0.00000,  98: 0.00000,  97: 0.00000,  96: 0.00000,  95: 0.00000,  94: 0.00000,  93: 0.00000,
                 92: 0.00000,  91: 0.00000,  90: 0.00000,  89: 0.00000,  88: 0.00000,  87: 0.00000,  86: 0.00000,  85: 0.00000,
                 84: 0.00000,  83: 0.00000,  82: 0.00000,  81: 0.00000,  80: 0.00000,  79: 0.00000,  78: 0.00000,  77: 0.00000,
                 76: 0.00000,  75: 0.00000,  74: 0.00000,  73: 0.00000,  72: 0.00000,  71: 0.00000,  70: 0.00000,  69: 0.00000,
                 68: 0.00000,  67: 0.00000,  66: 0.00000,  65: 0.00000,  64: 0.00000,  63: 0.00000,  62: 0.00000,  61: 0.00000,
                 60: 0.00000,  59: 0.00000,  58: 0.00000,  57: 0.00000,  56: 0.00000,  55: 0.00000,  54: 0.00000,  53: 0.00000,
                 52: 0.00000,  51: 0.00000,  50: 0.00000,  49: 0.00000,  48: 0.00000,  47: 0.00000,  46: 0.00000,  45: 0.00000,
                 44: 0.00000,  43: 0.00000,  42: 0.00000,  41: 0.00000,  40: 0.00000,  39: 0.00000,  38: 0.00000,  37: 0.00000,
                 36: 0.00000,  35: 0.00000,  34: 0.00000,  33: 0.00000,  32: 0.00000,  31: 0.00000,  30: 0.00000,  29: 0.00000,
                 28: 0.00000,  27: 0.00000,  26: 0.00000,  25: 0.00000,  24: 0.00000,  23: 0.00000,  22: 0.00000,  21: 0.00000,
                 20: 0.00000,  19: 0.00000,  18: 0.00000,  17: 0.00000,  16: 0.00000,  15: 0.00000,  14: 0.00000,  13: 0.00000,
                 12: 0.00000,  11: 0.00000,  10: 0.00000,   9: 0.00000,   8: 0.00000,   7: 0.00000,   6: 0.00000,   5: 0.00000,
                  4: 0.00000,   3: 0.00000,   2: 0.00000,   1: 0.00000
   132 |      | 100: 0.00000,  99: 0.00000,  98: 0.00000,  97: 0.00000,  96: 0.00000,  95: 0.00000,  94: 0.00000,  93: 0.00000,
                 92: 0.00000,  91: 0.00000,  90: 0.00000,  89: 0.00000,  88: 0.00000,  87: 0.00000,  86: 0.00000,  85: 0.00000,
                 84: 0.00000,  83: 0.00000,  82: 0.00000,  81: 0.00000,  80: 0.00000,  79: 0.00000,  78: 0.00000,  77: 0.00000,
                 76: 0.00000,  75: 0.00000,  74: 0.00000,  73: 0.00000,  72: 0.00000,  71: 0.00000,  70: 0.00000,  69: 0.00000,
                 68: 0.00000,  67: 0.00000,  66: 0.00000,  65: 0.00000,  64: 0.00000,  63: 0.00000,  62: 0.00000,  61: 0.00000,
                 60: 0.00000,  59: 0.00000,  58: 0.00000,  57: 0.00000,  56: 0.00000,  55: 0.00000,  54: 0.00000,  53: 0.00000,
                 52: 0.00000,  51: 0.00000,  50: 0.00000,  49: 0.00000,  48: 0.00000,  47: 0.00000,  46: 0.00000,  45: 0.00000,
                 44: 0.00000,  43: 0.00000,  42: 0.00000,  41: 0.00000,  40: 0.00000,  39: 0.00000,  38: 0.00000,  37: 0.00000,
                 36: 0.00000,  35: 0.00000,  34: 0.00000,  33: 0.00000,  32: 0.00000,  31: 0.00000,  30: 0.00000,  29: 0.00000,
                 28: 0.00000,  27: 0.00000,  26: 0.00000,  25: 0.00000,  24: 0.00000,  23: 0.00000,  22: 0.00000,  21: 0.00000,
                 20: 0.00000,  19: 0.00000,  18: 0.00000,  17: 0.00000,  16: 0.00000,  15: 0.00000,  14: 0.00000,  13: 0.00000,
                 12: 0.00000,  11: 0.00000,  10: 0.00000,   9: 0.00000,   8: 0.00000,   7: 0.00000,   6: 0.00000,   5: 0.00000,
                  4: 0.00000,   3: 0.00000,   2: 0.00000,   1: 0.00000
   133 |      | 100: 0.00000,  99: 0.00000,  98: 0.00000,  97: 0.00000,  96: 0.00000,  95: 0.00000,  94: 0.00000,  93: 0.00000,
                 92: 0.00000,  91: 0.00000,  90: 0.00000,  89: 0.00000,  88: 0.00000,  87: 0.00000,  86: 0.00000,  85: 0.00000,
                 84: 0.00000,  83: 0.00000,  82: 0.00000,  81: 0.00000,  80: 0.00000,  79: 0.00000,  78: 0.00000,  77: 0.00000,
                 76: 0.00000,  75: 0.00000,  74: 0.00000,  73: 0.00000,  72: 0.00000,  71: 0.00000,  70: 0.00000,  69: 0.00000,
                 68: 0.00000,  67: 0.00000,  66: 0.00000,  65: 0.00000,  64: 0.00000,  63: 0.00000,  62: 0.00000,  61: 0.00000,
                 60: 0.00000,  59: 0.00000,  58: 0.00000,  57: 0.00000,  56: 0.00000,  55: 0.00000,  54: 0.00000,  53: 0.00000,
                 52: 0.00000,  51: 0.00000,  50: 0.00000,  49: 0.00000,  48: 0.00000,  47: 0.00000,  46: 0.00000,  45: 0.00000,
                 44: 0.00000,  43: 0.00000,  42: 0.00000,  41: 0.00000,  40: 0.00000,  39: 0.00000,  38: 0.00000,  37: 0.00000,
                 36: 0.00000,  35: 0.00000,  34: 0.00000,  33: 0.00000,  32: 0.00000,  31: 0.00000,  30: 0.00000,  29: 0.00000,
                 28: 0.00000,  27: 0.00000,  26: 0.00000,  25: 0.00000,  24: 0.00000,  23: 0.00000,  22: 0.00000,  21: 0.00000,
                 20: 0.00000,  19: 0.00000,  18: 0.00000,  17: 0.00000,  16: 0.00000,  15: 0.00000,  14: 0.00000,  13: 0.00000,
                 12: 0.00000,  11: 0.00000,  10: 0.00000,   9: 0.00000,   8: 0.00000,   7: 0.00000,   6: 0.00000,   5: 0.00000,
                  4: 0.00000,   3: 0.00000,   2: 0.00000,   1: 0.00000
   134 |      | 100: 0.00000,  99: 0.00000,  98: 0.00000,  97: 0.00000,  96: 0.00000,  95: 0.00000,  94: 0.00000,  93: 0.00000,
                 92: 0.00000,  91: 0.00000,  90: 0.00000,  89: 0.00000,  88: 0.00000,  87: 0.00000,  86: 0.00000,  85: 0.00000,
                 84: 0.00000,  83: 0.00000,  82: 0.00000,  81: 0.00000,  80: 0.00000,  79: 0.00000,  78: 0.00000,  77: 0.00000,
                 76: 0.00000,  75: 0.00000,  74: 0.00000,  73: 0.00000,  72: 0.00000,  71: 0.00000,  70: 0.00000,  69: 0.00000,
                 68: 0.00000,  67: 0.00000,  66: 0.00000,  65: 0.00000,  64: 0.00000,  63: 0.00000,  62: 0.00000,  61: 0.00000,
                 60: 0.00000,  59: 0.00000,  58: 0.00000,  57: 0.00000,  56: 0.00000,  55: 0.00000,  54: 0.00000,  53: 0.00000,
                 52: 0.00000,  51: 0.00000,  50: 0.00000,  49: 0.00000,  48: 0.00000,  47: 0.00000,  46: 0.00000,  45: 0.00000,
                 44: 0.00000,  43: 0.00000,  42: 0.00000,  41: 0.00000,  40: 0.00000,  39: 0.00000,  38: 0.00000,  37: 0.00000,
                 36: 0.00000,  35: 0.00000,  34: 0.00000,  33: 0.00000,  32: 0.00000,  31: 0.00000,  30: 0.00000,  29: 0.00000,
                 28: 0.00000,  27: 0.00000,  26: 0.00000,  25: 0.00000,  24: 0.00000,  23: 0.00000,  22: 0.00000,  21: 0.00000,
                 20: 0.00000,  19: 0.00000,  18: 0.00000,  17: 0.00000,  16: 0.00000,  15: 0.00000,  14: 0.00000,  13: 0.00000,
                 12: 0.00000,  11: 0.00000,  10: 0.00000,   9: 0.00000,   8: 0.00000,   7: 0.00000,   6: 0.00000,   5: 0.00000,
                  4: 0.00000,   3: 0.00000,   2: 0.00000,   1: 0.00000
   135 |      | 100: 0.00000,  99: 0.00000,  98: 0.00000,  97: 0.00000,  96: 0.00000,  95: 0.00000,  94: 0.00000,  93: 0.00000,
                 92: 0.00000,  91: 0.00000,  90: 0.00000,  89: 0.00000,  88: 0.00000,  87: 0.00000,  86: 0.00000,  85: 0.00000,
                 84: 0.00000,  83: 0.00000,  82: 0.00000,  81: 0.00000,  80: 0.00000,  79: 0.00000,  78: 0.00000,  77: 0.00000,
                 76: 0.00000,  75: 0.00000,  74: 0.00000,  73: 0.00000,  72: 0.00000,  71: 0.00000,  70: 0.00000,  69: 0.00000,
                 68: 0.00000,  67: 0.00000,  66: 0.00000,  65: 0.00000,  64: 0.00000,  63: 0.00000,  62: 0.00000,  61: 0.00000,
                 60: 0.00000,  59: 0.00000,  58: 0.00000,  57: 0.00000,  56: 0.00000,  55: 0.00000,  54: 0.00000,  53: 0.00000,
                 52: 0.00000,  51: 0.00000,  50: 0.00000,  49: 0.00000,  48: 0.00000,  47: 0.00000,  46: 0.00000,  45: 0.00000,
                 44: 0.00000,  43: 0.00000,  42: 0.00000,  41: 0.00000,  40: 0.00000,  39: 0.00000,  38: 0.00000,  37: 0.00000,
                 36: 0.00000,  35: 0.00000,  34: 0.00000,  33: 0.00000,  32: 0.00000,  31: 0.00000,  30: 0.00000,  29: 0.00000,
                 28: 0.00000,  27: 0.00000,  26: 0.00000,  25: 0.00000,  24: 0.00000,  23: 0.00000,  22: 0.00000,  21: 0.00000,
                 20: 0.00000,  19: 0.00000,  18: 0.00000,  17: 0.00000,  16: 0.00000,  15: 0.00000,  14: 0.00000,  13: 0.00000,
                 12: 0.00000,  11: 0.00000,  10: 0.00000,   9: 0.00000,   8: 0.00000,   7: 0.00000,   6: 0.00000,   5: 0.00000,
                  4: 0.00000,   3: 0.00000,   2: 0.00000,   1: 0.00000
   136 |      | 100: 0.00000,  99: 0.00000,  98: 0.00000,  97: 0.00000,  96: 0.00000,  95: 0.00000,  94: 0.00000,  93: 0.00000,
                 92: 0.00000,  91: 0.00000,  90: 0.00000,  89: 0.00000,  88: 0.00000,  87: 0.00000,  86: 0.00000,  85: 0.00000,
                 84: 0.00000,  83: 0.00000,  82: 0.00000,  81: 0.00000,  80: 0.00000,  79: 0.00000,  78: 0.00000,  77: 0.00000,
                 76: 0.00000,  75: 0.00000,  74: 0.00000,  73: 0.00000,  72: 0.00000,  71: 0.00000,  70: 0.00000,  69: 0.00000,
                 68: 0.00000,  67: 0.00000,  66: 0.00000,  65: 0.00000,  64: 0.00000,  63: 0.00000,  62: 0.00000,  61: 0.00000,
                 60: 0.00000,  59: 0.00000,  58: 0.00000,  57: 0.00000,  56: 0.00000,  55: 0.00000,  54: 0.00000,  53: 0.00000,
                 52: 0.00000,  51: 0.00000,  50: 0.00000,  49: 0.00000,  48: 0.00000,  47: 0.00000,  46: 0.00000,  45: 0.00000,
                 44: 0.00000,  43: 0.00000,  42: 0.00000,  41: 0.00000,  40: 0.00000,  39: 0.00000,  38: 0.00000,  37: 0.00000,
                 36: 0.00000,  35: 0.00000,  34: 0.00000,  33: 0.00000,  32: 0.00000,  31: 0.00000,  30: 0.00000,  29: 0.00000,
                 28: 0.00000,  27: 0.00000,  26: 0.00000,  25: 0.00000,  24: 0.00000,  23: 0.00000,  22: 0.00000,  21: 0.00000,
                 20: 0.00000,  19: 0.00000,  18: 0.00000,  17: 0.00000,  16: 0.00000,  15: 0.00000,  14: 0.00000,  13: 0.00000,
                 12: 0.00000,  11: 0.00000,  10: 0.00000,   9: 0.00000,   8: 0.00000,   7: 0.00000,   6: 0.00000,   5: 0.00000,
                  4: 0.00000,   3: 0.00000,   2: 0.00000,   1: 0.00000
   137 |      | 100: 0.00000,  99: 0.00000,  98: 0.00000,  97: 0.00000,  96: 0.00000,  95: 0.00000,  94: 0.00000,  93: 0.00000,
                 92: 0.00000,  91: 0.00000,  90: 0.00000,  89: 0.00000,  88: 0.00000,  87: 0.00000,  86: 0.00000,  85: 0.00000,
                 84: 0.00000,  83: 0.00000,  82: 0.00000,  81: 0.00000,  80: 0.00000,  79: 0.00000,  78: 0.00000,  77: 0.00000,
                 76: 0.00000,  75: 0.00000,  74: 0.00000,  73: 0.00000,  72: 0.00000,  71: 0.00000,  70: 0.00000,  69: 0.00000,
                 68: 0.00000,  67: 0.00000,  66: 0.00000,  65: 0.00000,  64: 0.00000,  63: 0.00000,  62: 0.00000,  61: 0.00000,
                 60: 0.00000,  59: 0.00000,  58: 0.00000,  57: 0.00000,  56: 0.00000,  55: 0.00000,  54: 0.00000,  53: 0.00000,
                 52: 0.00000,  51: 0.00000,  50: 0.00000,  49: 0.00000,  48: 0.00000,  47: 0.00000,  46: 0.00000,  45: 0.00000,
                 44: 0.00000,  43: 0.00000,  42: 0.00000,  41: 0.00000,  40: 0.00000,  39: 0.00000,  38: 0.00000,  37: 0.00000,
                 36: 0.00000,  35: 0.00000,  34: 0.00000,  33: 0.00000,  32: 0.00000,  31: 0.00000,  30: 0.00000,  29: 0.00000,
                 28: 0.00000,  27: 0.00000,  26: 0.00000,  25: 0.00000,  24: 0.00000,  23: 0.00000,  22: 0.00000,  21: 0.00000,
                 20: 0.00000,  19: 0.00000,  18: 0.00000,  17: 0.00000,  16: 0.00000,  15: 0.00000,  14: 0.00000,  13: 0.00000,
                 12: 0.00000,  11: 0.00000,  10: 0.00000,   9: 0.00000,   8: 0.00000,   7: 0.00000,   6: 0.00000,   5: 0.00000,
                  4: 0.00000,   3: 0.00000,   2: 0.00000,   1: 0.00000
   138 |      | 100: 0.00000,  99: 0.00000,  98: 0.00000,  97: 0.00000,  96: 0.00000,  95: 0.00000,  94: 0.00000,  93: 0.00000,
                 92: 0.00000,  91: 0.00000,  90: 0.00000,  89: 0.00000,  88: 0.00000,  87: 0.00000,  86: 0.00000,  85: 0.00000,
                 84: 0.00000,  83: 0.00000,  82: 0.00000,  81: 0.00000,  80: 0.00000,  79: 0.00000,  78: 0.00000,  77: 0.00000,
                 76: 0.00000,  75: 0.00000,  74: 0.00000,  73: 0.00000,  72: 0.00000,  71: 0.00000,  70: 0.00000,  69: 0.00000,
                 68: 0.00000,  67: 0.00000,  66: 0.00000,  65: 0.00000,  64: 0.00000,  63: 0.00000,  62: 0.00000,  61: 0.00000,
                 60: 0.00000,  59: 0.00000,  58: 0.00000,  57: 0.00000,  56: 0.00000,  55: 0.00000,  54: 0.00000,  53: 0.00000,
                 52: 0.00000,  51: 0.00000,  50: 0.00000,  49: 0.00000,  48: 0.00000,  47: 0.00000,  46: 0.00000,  45: 0.00000,
                 44: 0.00000,  43: 0.00000,  42: 0.00000,  41: 0.00000,  40: 0.00000,  39: 0.00000,  38: 0.00000,  37: 0.00000,
                 36: 0.00000,  35: 0.00000,  34: 0.00000,  33: 0.00000,  32: 0.00000,  31: 0.00000,  30: 0.00000,  29: 0.00000,
                 28: 0.00000,  27: 0.00000,  26: 0.00000,  25: 0.00000,  24: 0.00000,  23: 0.00000,  22: 0.00000,  21: 0.00000,
                 20: 0.00000,  19: 0.00000,  18: 0.00000,  17: 0.00000,  16: 0.00000,  15: 0.00000,  14: 0.00000,  13: 0.00000,
                 12: 0.00000,  11: 0.00000,  10: 0.00000,   9: 0.00000,   8: 0.00000,   7: 0.00000,   6: 0.00000,   5: 0.00000,
                  4: 0.00000,   3: 0.00000,   2: 0.00000,   1: 0.00000
   139 |      | 100: 0.00000,  99: 0.00000,  98: 0.00000,  97: 0.00000,  96: 0.00000,  95: 0.00000,  94: 0.00000,  93: 0.00000,
                 92: 0.00000,  91: 0.00000,  90: 0.00000,  89: 0.00000,  88: 0.00000,  87: 0.00000,  86: 0.00000,  85: 0.00000,
                 84: 0.00000,  83: 0.00000,  82: 0.00000,  81: 0.00000,  80: 0.00000,  79: 0.00000,  78: 0.00000,  77: 0.00000,
                 76: 0.00000,  75: 0.00000,  74: 0.00000,  73: 0.00000,  72: 0.00000,  71: 0.00000,  70: 0.00000,  69: 0.00000,
                 68: 0.00000,  67: 0.00000,  66: 0.00000,  65: 0.00000,  64: 0.00000,  63: 0.00000,  62: 0.00000,  61: 0.00000,
                 60: 0.00000,  59: 0.00000,  58: 0.00000,  57: 0.00000,  56: 0.00000,  55: 0.00000,  54: 0.00000,  53: 0.00000,
                 52: 0.00000,  51: 0.00000,  50: 0.00000,  49: 0.00000,  48: 0.00000,  47: 0.00000,  46: 0.00000,  45: 0.00000,
                 44: 0.00000,  43: 0.00000,  42: 0.00000,  41: 0.00000,  40: 0.00000,  39: 0.00000,  38: 0.00000,  37: 0.00000,
                 36: 0.00000,  35: 0.00000,  34: 0.00000,  33: 0.00000,  32: 0.00000,  31: 0.00000,  30: 0.00000,  29: 0.00000,
                 28: 0.00000,  27: 0.00000,  26: 0.00000,  25: 0.00000,  24: 0.00000,  23: 0.00000,  22: 0.00000,  21: 0.00000,
                 20: 0.00000,  19: 0.00000,  18: 0.00000,  17: 0.00000,  16: 0.00000,  15: 0.00000,  14: 0.00000,  13: 0.00000,
                 12: 0.00000,  11: 0.00000,  10: 0.00000,   9: 0.00000,   8: 0.00000,   7: 0.00000,   6: 0.00000,   5: 0.00000,
                  4: 0.00000,   3: 0.00000,   2: 0.00000,   1: 0.00000
   140 |      | 100: 0.00000,  99: 0.00000,  98: 0.00000,  97: 0.00000,  96: 0.00000,  95: 0.00000,  94: 0.00000,  93: 0.00000,
                 92: 0.00000,  91: 0.00000,  90: 0.00000,  89: 0.00000,  88: 0.00000,  87: 0.00000,  86: 0.00000,  85: 0.00000,
                 84: 0.00000,  83: 0.00000,  82: 0.00000,  81: 0.00000,  80: 0.00000,  79: 0.00000,  78: 0.00000,  77: 0.00000,
                 76: 0.00000,  75: 0.00000,  74: 0.00000,  73: 0.00000,  72: 0.00000,  71: 0.00000,  70: 0.00000,  69: 0.00000,
                 68: 0.00000,  67: 0.00000,  66: 0.00000,  65: 0.00000,  64: 0.00000,  63: 0.00000,  62: 0.00000,  61: 0.00000,
                 60: 0.00000,  59: 0.00000,  58: 0.00000,  57: 0.00000,  56: 0.00000,  55: 0.00000,  54: 0.00000,  53: 0.00000,
                 52: 0.00000,  51: 0.00000,  50: 0.00000,  49: 0.00000,  48: 0.00000,  47: 0.00000,  46: 0.00000,  45: 0.00000,
                 44: 0.00000,  43: 0.00000,  42: 0.00000,  41: 0.00000,  40: 0.00000,  39: 0.00000,  38: 0.00000,  37: 0.00000,
                 36: 0.00000,  35: 0.00000,  34: 0.00000,  33: 0.00000,  32: 0.00000,  31: 0.00000,  30: 0.00000,  29: 0.00000,
                 28: 0.00000,  27: 0.00000,  26: 0.00000,  25: 0.00000,  24: 0.00000,  23: 0.00000,  22: 0.00000,  21: 0.00000,
                 20: 0.00000,  19: 0.00000,  18: 0.00000,  17: 0.00000,  16: 0.00000,  15: 0.00000,  14: 0.00000,  13: 0.00000,
                 12: 0.00000,  11: 0.00000,  10: 0.00000,   9: 0.00000,   8: 0.00000,   7: 0.00000,   6: 0.00000,   5: 0.00000,
                  4: 0.00000,   3: 0.00000,   2: 0.00000,   1: 0.00000
   141 |      | 100: 0.00000,  99: 0.00000,  98: 0.00000,  97: 0.00000,  96: 0.00000,  95: 0.00000,  94: 0.00000,  93: 0.00000,
                 92: 0.00000,  91: 0.00000,  90: 0.00000,  89: 0.00000,  88: 0.00000,  87: 0.00000,  86: 0.00000,  85: 0.00000,
                 84: 0.00000,  83: 0.00000,  82: 0.00000,  81: 0.00000,  80: 0.00000,  79: 0.00000,  78: 0.00000,  77: 0.00000,
                 76: 0.00000,  75: 0.00000,  74: 0.00000,  73: 0.00000,  72: 0.00000,  71: 0.00000,  70: 0.00000,  69: 0.00000,
                 68: 0.00000,  67: 0.00000,  66: 0.00000,  65: 0.00000,  64: 0.00000,  63: 0.00000,  62: 0.00000,  61: 0.00000,
                 60: 0.00000,  59: 0.00000,  58: 0.00000,  57: 0.00000,  56: 0.00000,  55: 0.00000,  54: 0.00000,  53: 0.00000,
                 52: 0.00000,  51: 0.00000,  50: 0.00000,  49: 0.00000,  48: 0.00000,  47: 0.00000,  46: 0.00000,  45: 0.00000,
                 44: 0.00000,  43: 0.00000,  42: 0.00000,  41: 0.00000,  40: 0.00000,  39: 0.00000,  38: 0.00000,  37: 0.00000,
                 36: 0.00000,  35: 0.00000,  34: 0.00000,  33: 0.00000,  32: 0.00000,  31: 0.00000,  30: 0.00000,  29: 0.00000,
                 28: 0.00000,  27: 0.00000,  26: 0.00000,  25: 0.00000,  24: 0.00000,  23: 0.00000,  22: 0.00000,  21: 0.00000,
                 20: 0.00000,  19: 0.00000,  18: 0.00000,  17: 0.00000,  16: 0.00000,  15: 0.00000,  14: 0.00000,  13: 0.00000,
                 12: 0.00000,  11: 0.00000,  10: 0.00000,   9: 0.00000,   8: 0.00000,   7: 0.00000,   6: 0.00000,   5: 0.00000,
                  4: 0.00000,   3: 0.00000,   2: 0.00000,   1: 0.00000
   142 |      | 100: 0.00000,  99: 0.00000,  98: 0.00000,  97: 0.00000,  96: 0.00000,  95: 0.00000,  94: 0.00000,  93: 0.00000,
                 92: 0.00000,  91: 0.00000,  90: 0.00000,  89: 0.00000,  88: 0.00000,  87: 0.00000,  86: 0.00000,  85: 0.00000,
                 84: 0.00000,  83: 0.00000,  82: 0.00000,  81: 0.00000,  80: 0.00000,  79: 0.00000,  78: 0.00000,  77: 0.00000,
                 76: 0.00000,  75: 0.00000,  74: 0.00000,  73: 0.00000,  72: 0.00000,  71: 0.00000,  70: 0.00000,  69: 0.00000,
                 68: 0.00000,  67: 0.00000,  66: 0.00000,  65: 0.00000,  64: 0.00000,  63: 0.00000,  62: 0.00000,  61: 0.00000,
                 60: 0.00000,  59: 0.00000,  58: 0.00000,  57: 0.00000,  56: 0.00000,  55: 0.00000,  54: 0.00000,  53: 0.00000,
                 52: 0.00000,  51: 0.00000,  50: 0.00000,  49: 0.00000,  48: 0.00000,  47: 0.00000,  46: 0.00000,  45: 0.00000,
                 44: 0.00000,  43: 0.00000,  42: 0.00000,  41: 0.00000,  40: 0.00000,  39: 0.00000,  38: 0.00000,  37: 0.00000,
                 36: 0.00000,  35: 0.00000,  34: 0.00000,  33: 0.00000,  32: 0.00000,  31: 0.00000,  30: 0.00000,  29: 0.00000,
                 28: 0.00000,  27: 0.00000,  26: 0.00000,  25: 0.00000,  24: 0.00000,  23: 0.00000,  22: 0.00000,  21: 0.00000,
                 20: 0.00000,  19: 0.00000,  18: 0.00000,  17: 0.00000,  16: 0.00000,  15: 0.00000,  14: 0.00000,  13: 0.00000,
                 12: 0.00000,  11: 0.00000,  10: 0.00000,   9: 0.00000,   8: 0.00000,   7: 0.00000,   6: 0.00000,   5: 0.00000,
                  4: 0.00000,   3: 0.00000,   2: 0.00000,   1: 0.00000
   143 |      | 100: 0.00000,  99: 0.00000,  98: 0.00000,  97: 0.00000,  96: 0.00000,  95: 0.00000,  94: 0.00000,  93: 0.00000,
                 92: 0.00000,  91: 0.00000,  90: 0.00000,  89: 0.00000,  88: 0.00000,  87: 0.00000,  86: 0.00000,  85: 0.00000,
                 84: 0.00000,  83: 0.00000,  82: 0.00000,  81: 0.00000,  80: 0.00000,  79: 0.00000,  78: 0.00000,  77: 0.00000,
                 76: 0.00000,  75: 0.00000,  74: 0.00000,  73: 0.00000,  72: 0.00000,  71: 0.00000,  70: 0.00000,  69: 0.00000,
                 68: 0.00000,  67: 0.00000,  66: 0.00000,  65: 0.00000,  64: 0.00000,  63: 0.00000,  62: 0.00000,  61: 0.00000,
                 60: 0.00000,  59: 0.00000,  58: 0.00000,  57: 0.00000,  56: 0.00000,  55: 0.00000,  54: 0.00000,  53: 0.00000,
                 52: 0.00000,  51: 0.00000,  50: 0.00000,  49: 0.00000,  48: 0.00000,  47: 0.00000,  46: 0.00000,  45: 0.00000,
                 44: 0.00000,  43: 0.00000,  42: 0.00000,  41: 0.00000,  40: 0.00000,  39: 0.00000,  38: 0.00000,  37: 0.00000,
                 36: 0.00000,  35: 0.00000,  34: 0.00000,  33: 0.00000,  32: 0.00000,  31: 0.00000,  30: 0.00000,  29: 0.00000,
                 28: 0.00000,  27: 0.00000,  26: 0.00000,  25: 0.00000,  24: 0.00000,  23: 0.00000,  22: 0.00000,  21: 0.00000,
                 20: 0.00000,  19: 0.00000,  18: 0.00000,  17: 0.00000,  16: 0.00000,  15: 0.00000,  14: 0.00000,  13: 0.00000,
                 12: 0.00000,  11: 0.00000,  10: 0.00000,   9: 0.00000,   8: 0.00000,   7: 0.00000,   6: 0.00000,   5: 0.00000,
                  4: 0.00000,   3: 0.00000,   2: 0.00000,   1: 0.00000
   144 |      | 100: 0.00000,  99: 0.00000,  98: 0.00000,  97: 0.00000,  96: 0.00000,  95: 0.00000,  94: 0.00000,  93: 0.00000,
                 92: 0.00000,  91: 0.00000,  90: 0.00000,  89: 0.00000,  88: 0.00000,  87: 0.00000,  86: 0.00000,  85: 0.00000,
                 84: 0.00000,  83: 0.00000,  82: 0.00000,  81: 0.00000,  80: 0.00000,  79: 0.00000,  78: 0.00000,  77: 0.00000,
                 76: 0.00000,  75: 0.00000,  74: 0.00000,  73: 0.00000,  72: 0.00000,  71: 0.00000,  70: 0.00000,  69: 0.00000,
                 68: 0.00000,  67: 0.00000,  66: 0.00000,  65: 0.00000,  64: 0.00000,  63: 0.00000,  62: 0.00000,  61: 0.00000,
                 60: 0.00000,  59: 0.00000,  58: 0.00000,  57: 0.00000,  56: 0.00000,  55: 0.00000,  54: 0.00000,  53: 0.00000,
                 52: 0.00000,  51: 0.00000,  50: 0.00000,  49: 0.00000,  48: 0.00000,  47: 0.00000,  46: 0.00000,  45: 0.00000,
                 44: 0.00000,  43: 0.00000,  42: 0.00000,  41: 0.00000,  40: 0.00000,  39: 0.00000,  38: 0.00000,  37: 0.00000,
                 36: 0.00000,  35: 0.00000,  34: 0.00000,  33: 0.00000,  32: 0.00000,  31: 0.00000,  30: 0.00000,  29: 0.00000,
                 28: 0.00000,  27: 0.00000,  26: 0.00000,  25: 0.00000,  24: 0.00000,  23: 0.00000,  22: 0.00000,  21: 0.00000,
                 20: 0.00000,  19: 0.00000,  18: 0.00000,  17: 0.00000,  16: 0.00000,  15: 0.00000,  14: 0.00000,  13: 0.00000,
                 12: 0.00000,  11: 0.00000,  10: 0.00000,   9: 0.00000,   8: 0.00000,   7: 0.00000,   6: 0.00000,   5: 0.00000,
                  4: 0.00000,   3: 0.00000,   2: 0.00000,   1: 0.00000
   145 |      | 100: 0.00000,  99: 0.00000,  98: 0.00000,  97: 0.00000,  96: 0.00000,  95: 0.00000,  94: 0.00000,  93: 0.00000,
                 92: 0.00000,  91: 0.00000,  90: 0.00000,  89: 0.00000,  88: 0.00000,  87: 0.00000,  86: 0.00000,  85: 0.00000,
                 84: 0.00000,  83: 0.00000,  82: 0.00000,  81: 0.00000,  80: 0.00000,  79: 0.00000,  78: 0.00000,  77: 0.00000,
                 76: 0.00000,  75: 0.00000,  74: 0.00000,  73: 0.00000,  72: 0.00000,  71: 0.00000,  70: 0.00000,  69: 0.00000,
                 68: 0.00000,  67: 0.00000,  66: 0.00000,  65: 0.00000,  64: 0.00000,  63: 0.00000,  62: 0.00000,  61: 0.00000,
                 60: 0.00000,  59: 0.00000,  58: 0.00000,  57: 0.00000,  56: 0.00000,  55: 0.00000,  54: 0.00000,  53: 0.00000,
                 52: 0.00000,  51: 0.00000,  50: 0.00000,  49: 0.00000,  48: 0.00000,  47: 0.00000,  46: 0.00000,  45: 0.00000,
                 44: 0.00000,  43: 0.00000,  42: 0.00000,  41: 0.00000,  40: 0.00000,  39: 0.00000,  38: 0.00000,  37: 0.00000,
                 36: 0.00000,  35: 0.00000,  34: 0.00000,  33: 0.00000,  32: 0.00000,  31: 0.00000,  30: 0.00000,  29: 0.00000,
                 28: 0.00000,  27: 0.00000,  26: 0.00000,  25: 0.00000,  24: 0.00000,  23: 0.00000,  22: 0.00000,  21: 0.00000,
                 20: 0.00000,  19: 0.00000,  18: 0.00000,  17: 0.00000,  16: 0.00000,  15: 0.00000,  14: 0.00000,  13: 0.00000,
                 12: 0.00000,  11: 0.00000,  10: 0.00000,   9: 0.00000,   8: 0.00000,   7: 0.00000,   6: 0.00000,   5: 0.00000,
                  4: 0.00000,   3: 0.00000,   2: 0.00000,   1: 0.00000
   146 |      | 100: 0.00000,  99: 0.00000,  98: 0.00000,  97: 0.00000,  96: 0.00000,  95: 0.00000,  94: 0.00000,  93: 0.00000,
                 92: 0.00000,  91: 0.00000,  90: 0.00000,  89: 0.00000,  88: 0.00000,  87: 0.00000,  86: 0.00000,  85: 0.00000,
                 84: 0.00000,  83: 0.00000,  82: 0.00000,  81: 0.00000,  80: 0.00000,  79: 0.00000,  78: 0.00000,  77: 0.00000,
                 76: 0.00000,  75: 0.00000,  74: 0.00000,  73: 0.00000,  72: 0.00000,  71: 0.00000,  70: 0.00000,  69: 0.00000,
                 68: 0.00000,  67: 0.00000,  66: 0.00000,  65: 0.00000,  64: 0.00000,  63: 0.00000,  62: 0.00000,  61: 0.00000,
                 60: 0.00000,  59: 0.00000,  58: 0.00000,  57: 0.00000,  56: 0.00000,  55: 0.00000,  54: 0.00000,  53: 0.00000,
                 52: 0.00000,  51: 0.00000,  50: 0.00000,  49: 0.00000,  48: 0.00000,  47: 0.00000,  46: 0.00000,  45: 0.00000,
                 44: 0.00000,  43: 0.00000,  42: 0.00000,  41: 0.00000,  40: 0.00000,  39: 0.00000,  38: 0.00000,  37: 0.00000,
                 36: 0.00000,  35: 0.00000,  34: 0.00000,  33: 0.00000,  32: 0.00000,  31: 0.00000,  30: 0.00000,  29: 0.00000,
                 28: 0.00000,  27: 0.00000,  26: 0.00000,  25: 0.00000,  24: 0.00000,  23: 0.00000,  22: 0.00000,  21: 0.00000,
                 20: 0.00000,  19: 0.00000,  18: 0.00000,  17: 0.00000,  16: 0.00000,  15: 0.00000,  14: 0.00000,  13: 0.00000,
                 12: 0.00000,  11: 0.00000,  10: 0.00000,   9: 0.00000,   8: 0.00000,   7: 0.00000,   6: 0.00000,   5: 0.00000,
                  4: 0.00000,   3: 0.00000,   2: 0.00000,   1: 0.00000
   147 |      | 100: 0.00000,  99: 0.00000,  98: 0.00000,  97: 0.00000,  96: 0.00000,  95: 0.00000,  94: 0.00000,  93: 0.00000,
                 92: 0.00000,  91: 0.00000,  90: 0.00000,  89: 0.00000,  88: 0.00000,  87: 0.00000,  86: 0.00000,  85: 0.00000,
                 84: 0.00000,  83: 0.00000,  82: 0.00000,  81: 0.00000,  80: 0.00000,  79: 0.00000,  78: 0.00000,  77: 0.00000,
                 76: 0.00000,  75: 0.00000,  74: 0.00000,  73: 0.00000,  72: 0.00000,  71: 0.00000,  70: 0.00000,  69: 0.00000,
                 68: 0.00000,  67: 0.00000,  66: 0.00000,  65: 0.00000,  64: 0.00000,  63: 0.00000,  62: 0.00000,  61: 0.00000,
                 60: 0.00000,  59: 0.00000,  58: 0.00000,  57: 0.00000,  56: 0.00000,  55: 0.00000,  54: 0.00000,  53: 0.00000,
                 52: 0.00000,  51: 0.00000,  50: 0.00000,  49: 0.00000,  48: 0.00000,  47: 0.00000,  46: 0.00000,  45: 0.00000,
                 44: 0.00000,  43: 0.00000,  42: 0.00000,  41: 0.00000,  40: 0.00000,  39: 0.00000,  38: 0.00000,  37: 0.00000,
                 36: 0.00000,  35: 0.00000,  34: 0.00000,  33: 0.00000,  32: 0.00000,  31: 0.00000,  30: 0.00000,  29: 0.00000,
                 28: 0.00000,  27: 0.00000,  26: 0.00000,  25: 0.00000,  24: 0.00000,  23: 0.00000,  22: 0.00000,  21: 0.00000,
                 20: 0.00000,  19: 0.00000,  18: 0.00000,  17: 0.00000,  16: 0.00000,  15: 0.00000,  14: 0.00000,  13: 0.00000,
                 12: 0.00000,  11: 0.00000,  10: 0.00000,   9: 0.00000,   8: 0.00000,   7: 0.00000,   6: 0.00000,   5: 0.00000,
                  4: 0.00000,   3: 0.00000,   2: 0.00000,   1: 0.00000
   148 |      | 100: 0.00000,  99: 0.00000,  98: 0.00000,  97: 0.00000,  96: 0.00000,  95: 0.00000,  94: 0.00000,  93: 0.00000,
                 92: 0.00000,  91: 0.00000,  90: 0.00000,  89: 0.00000,  88: 0.00000,  87: 0.00000,  86: 0.00000,  85: 0.00000,
                 84: 0.00000,  83: 0.00000,  82: 0.00000,  81: 0.00000,  80: 0.00000,  79: 0.00000,  78: 0.00000,  77: 0.00000,
                 76: 0.00000,  75: 0.00000,  74: 0.00000,  73: 0.00000,  72: 0.00000,  71: 0.00000,  70: 0.00000,  69: 0.00000,
                 68: 0.00000,  67: 0.00000,  66: 0.00000,  65: 0.00000,  64: 0.00000,  63: 0.00000,  62: 0.00000,  61: 0.00000,
                 60: 0.00000,  59: 0.00000,  58: 0.00000,  57: 0.00000,  56: 0.00000,  55: 0.00000,  54: 0.00000,  53: 0.00000,
                 52: 0.00000,  51: 0.00000,  50: 0.00000,  49: 0.00000,  48: 0.00000,  47: 0.00000,  46: 0.00000,  45: 0.00000,
                 44: 0.00000,  43: 0.00000,  42: 0.00000,  41: 0.00000,  40: 0.00000,  39: 0.00000,  38: 0.00000,  37: 0.00000,
                 36: 0.00000,  35: 0.00000,  34: 0.00000,  33: 0.00000,  32: 0.00000,  31: 0.00000,  30: 0.00000,  29: 0.00000,
                 28: 0.00000,  27: 0.00000,  26: 0.00000,  25: 0.00000,  24: 0.00000,  23: 0.00000,  22: 0.00000,  21: 0.00000,
                 20: 0.00000,  19: 0.00000,  18: 0.00000,  17: 0.00000,  16: 0.00000,  15: 0.00000,  14: 0.00000,  13: 0.00000,
                 12: 0.00000,  11: 0.00000,  10: 0.00000,   9: 0.00000,   8: 0.00000,   7: 0.00000,   6: 0.00000,   5: 0.00000,
                  4: 0.00000,   3: 0.00000,   2: 0.00000,   1: 0.00000
   149 |      | 100: 0.00000,  99: 0.00000,  98: 0.00000,  97: 0.00000,  96: 0.00000,  95: 0.00000,  94: 0.00000,  93: 0.00000,
                 92: 0.00000,  91: 0.00000,  90: 0.00000,  89: 0.00000,  88: 0.00000,  87: 0.00000,  86: 0.00000,  85: 0.00000,
                 84: 0.00000,  83: 0.00000,  82: 0.00000,  81: 0.00000,  80: 0.00000,  79: 0.00000,  78: 0.00000,  77: 0.00000,
                 76: 0.00000,  75: 0.00000,  74: 0.00000,  73: 0.00000,  72: 0.00000,  71: 0.00000,  70: 0.00000,  69: 0.00000,
                 68: 0.00000,  67: 0.00000,  66: 0.00000,  65: 0.00000,  64: 0.00000,  63: 0.00000,  62: 0.00000,  61: 0.00000,
                 60: 0.00000,  59: 0.00000,  58: 0.00000,  57: 0.00000,  56: 0.00000,  55: 0.00000,  54: 0.00000,  53: 0.00000,
                 52: 0.00000,  51: 0.00000,  50: 0.00000,  49: 0.00000,  48: 0.00000,  47: 0.00000,  46: 0.00000,  45: 0.00000,
                 44: 0.00000,  43: 0.00000,  42: 0.00000,  41: 0.00000,  40: 0.00000,  39: 0.00000,  38: 0.00000,  37: 0.00000,
                 36: 0.00000,  35: 0.00000,  34: 0.00000,  33: 0.00000,  32: 0.00000,  31: 0.00000,  30: 0.00000,  29: 0.00000,
                 28: 0.00000,  27: 0.00000,  26: 0.00000,  25: 0.00000,  24: 0.00000,  23: 0.00000,  22: 0.00000,  21: 0.00000,
                 20: 0.00000,  19: 0.00000,  18: 0.00000,  17: 0.00000,  16: 0.00000,  15: 0.00000,  14: 0.00000,  13: 0.00000,
                 12: 0.00000,  11: 0.00000,  10: 0.00000,   9: 0.00000,   8: 0.00000,   7: 0.00000,   6: 0.00000,   5: 0.00000,
                  4: 0.00000,   3: 0.00000,   2: 0.00000,   1: 0.00000
   150 |      | 100: 0.00000,  99: 0.00000,  98: 0.00000,  97: 0.00000,  96: 0.00000,  95: 0.00000,  94: 0.00000,  93: 0.00000,
                 92: 0.00000,  91: 0.00000,  90: 0.00000,  89: 0.00000,  88: 0.00000,  87: 0.00000,  86: 0.00000,  85: 0.00000,
                 84: 0.00000,  83: 0.00000,  82: 0.00000,  81: 0.00000,  80: 0.00000,  79: 0.00000,  78: 0.00000,  77: 0.00000,
                 76: 0.00000,  75: 0.00000,  74: 0.00000,  73: 0.00000,  72: 0.00000,  71: 0.00000,  70: 0.00000,  69: 0.00000,
                 68: 0.00000,  67: 0.00000,  66: 0.00000,  65: 0.00000,  64: 0.00000,  63: 0.00000,  62: 0.00000,  61: 0.00000,
                 60: 0.00000,  59: 0.00000,  58: 0.00000,  57: 0.00000,  56: 0.00000,  55: 0.00000,  54: 0.00000,  53: 0.00000,
                 52: 0.00000,  51: 0.00000,  50: 0.00000,  49: 0.00000,  48: 0.00000,  47: 0.00000,  46: 0.00000,  45: 0.00000,
                 44: 0.00000,  43: 0.00000,  42: 0.00000,  41: 0.00000,  40: 0.00000,  39: 0.00000,  38: 0.00000,  37: 0.00000,
                 36: 0.00000,  35: 0.00000,  34: 0.00000,  33: 0.00000,  32: 0.00000,  31: 0.00000,  30: 0.00000,  29: 0.00000,
                 28: 0.00000,  27: 0.00000,  26: 0.00000,  25: 0.00000,  24: 0.00000,  23: 0.00000,  22: 0.00000,  21: 0.00000,
                 20: 0.00000,  19: 0.00000,  18: 0.00000,  17: 0.00000,  16: 0.00000,  15: 0.00000,  14: 0.00000,  13: 0.00000,
                 12: 0.00000,  11: 0.00000,  10: 0.00000,   9: 0.00000,   8: 0.00000,   7: 0.00000,   6: 0.00000,   5: 0.00000,
                  4: 0.00000,   3: 0.00000,   2: 0.00000,   1: 0.00000
   151 |      | 100: 0.00000,  99: 0.00000,  98: 0.00000,  97: 0.00000,  96: 0.00000,  95: 0.00000,  94: 0.00000,  93: 0.00000,
                 92: 0.00000,  91: 0.00000,  90: 0.00000,  89: 0.00000,  88: 0.00000,  87: 0.00000,  86: 0.00000,  85: 0.00000,
                 84: 0.00000,  83: 0.00000,  82: 0.00000,  81: 0.00000,  80: 0.00000,  79: 0.00000,  78: 0.00000,  77: 0.00000,
                 76: 0.00000,  75: 0.00000,  74: 0.00000,  73: 0.00000,  72: 0.00000,  71: 0.00000,  70: 0.00000,  69: 0.00000,
                 68: 0.00000,  67: 0.00000,  66: 0.00000,  65: 0.00000,  64: 0.00000,  63: 0.00000,  62: 0.00000,  61: 0.00000,
                 60: 0.00000,  59: 0.00000,  58: 0.00000,  57: 0.00000,  56: 0.00000,  55: 0.00000,  54: 0.00000,  53: 0.00000,
                 52: 0.00000,  51: 0.00000,  50: 0.00000,  49: 0.00000,  48: 0.00000,  47: 0.00000,  46: 0.00000,  45: 0.00000,
                 44: 0.00000,  43: 0.00000,  42: 0.00000,  41: 0.00000,  40: 0.00000,  39: 0.00000,  38: 0.00000,  37: 0.00000,
                 36: 0.00000,  35: 0.00000,  34: 0.00000,  33: 0.00000,  32: 0.00000,  31: 0.00000,  30: 0.00000,  29: 0.00000,
                 28: 0.00000,  27: 0.00000,  26: 0.00000,  25: 0.00000,  24: 0.00000,  23: 0.00000,  22: 0.00000,  21: 0.00000,
                 20: 0.00000,  19: 0.00000,  18: 0.00000,  17: 0.00000,  16: 0.00000,  15: 0.00000,  14: 0.00000,  13: 0.00000,
                 12: 0.00000,  11: 0.00000,  10: 0.00000,   9: 0.00000,   8: 0.00000,   7: 0.00000,   6: 0.00000,   5: 0.00000,
                  4: 0.00000,   3: 0.00000,   2: 0.00000,   1: 0.00000
   152 |      | 100: 0.00000,  99: 0.00000,  98: 0.00000,  97: 0.00000,  96: 0.00000,  95: 0.00000,  94: 0.00000,  93: 0.00000,
                 92: 0.00000,  91: 0.00000,  90: 0.00000,  89: 0.00000,  88: 0.00000,  87: 0.00000,  86: 0.00000,  85: 0.00000,
                 84: 0.00000,  83: 0.00000,  82: 0.00000,  81: 0.00000,  80: 0.00000,  79: 0.00000,  78: 0.00000,  77: 0.00000,
                 76: 0.00000,  75: 0.00000,  74: 0.00000,  73: 0.00000,  72: 0.00000,  71: 0.00000,  70: 0.00000,  69: 0.00000,
                 68: 0.00000,  67: 0.00000,  66: 0.00000,  65: 0.00000,  64: 0.00000,  63: 0.00000,  62: 0.00000,  61: 0.00000,
                 60: 0.00000,  59: 0.00000,  58: 0.00000,  57: 0.00000,  56: 0.00000,  55: 0.00000,  54: 0.00000,  53: 0.00000,
                 52: 0.00000,  51: 0.00000,  50: 0.00000,  49: 0.00000,  48: 0.00000,  47: 0.00000,  46: 0.00000,  45: 0.00000,
                 44: 0.00000,  43: 0.00000,  42: 0.00000,  41: 0.00000,  40: 0.00000,  39: 0.00000,  38: 0.00000,  37: 0.00000,
